{"learner":{"attributes":{"scikit_learn":"{\"_estimator_type\": \"regressor\"}"},"feature_names":["Year","Ingresos","Electricidad","Crecimiento PBI per cápita","Importaciones","Desempleados con educación avanzada","Pobreza","Mortalidad","ISO3_dest_AFG","ISO3_dest_AGO","ISO3_dest_ALB","ISO3_dest_ARE","ISO3_dest_ARG","ISO3_dest_ARM","ISO3_dest_AUS","ISO3_dest_AUT","ISO3_dest_AZE","ISO3_dest_BDI","ISO3_dest_BEL","ISO3_dest_BEN","ISO3_dest_BFA","ISO3_dest_BGD","ISO3_dest_BGR","ISO3_dest_BHR","ISO3_dest_BHS","ISO3_dest_BIH","ISO3_dest_BLR","ISO3_dest_BLZ","ISO3_dest_BMU","ISO3_dest_BOL","ISO3_dest_BRA","ISO3_dest_BRB","ISO3_dest_BRN","ISO3_dest_BTN","ISO3_dest_BWA","ISO3_dest_CAF","ISO3_dest_CAN","ISO3_dest_CHE","ISO3_dest_CHL","ISO3_dest_CHN","ISO3_dest_CIV","ISO3_dest_CMR","ISO3_dest_COD","ISO3_dest_COG","ISO3_dest_COL","ISO3_dest_COM","ISO3_dest_CPV","ISO3_dest_CRI","ISO3_dest_CUB","ISO3_dest_CUW","ISO3_dest_CYM","ISO3_dest_CYP","ISO3_dest_CZE","ISO3_dest_DEU","ISO3_dest_DJI","ISO3_dest_DNK","ISO3_dest_DOM","ISO3_dest_DZA","ISO3_dest_ECU","ISO3_dest_EGY","ISO3_dest_ERI","ISO3_dest_ESP","ISO3_dest_EST","ISO3_dest_ETH","ISO3_dest_FIN","ISO3_dest_FJI","ISO3_dest_FRA","ISO3_dest_FSM","ISO3_dest_GAB","ISO3_dest_GBR","ISO3_dest_GEO","ISO3_dest_GHA","ISO3_dest_GIN","ISO3_dest_GMB","ISO3_dest_GNB","ISO3_dest_GNQ","ISO3_dest_GRC","ISO3_dest_GRL","ISO3_dest_GTM","ISO3_dest_GUM","ISO3_dest_GUY","ISO3_dest_HKG","ISO3_dest_HND","ISO3_dest_HRV","ISO3_dest_HTI","ISO3_dest_HUN","ISO3_dest_IDN","ISO3_dest_IND","ISO3_dest_IRL","ISO3_dest_IRN","ISO3_dest_IRQ","ISO3_dest_ISL","ISO3_dest_ISR","ISO3_dest_ITA","ISO3_dest_JAM","ISO3_dest_JOR","ISO3_dest_JPN","ISO3_dest_KAZ","ISO3_dest_KEN","ISO3_dest_KGZ","ISO3_dest_KHM","ISO3_dest_KIR","ISO3_dest_KOR","ISO3_dest_KWT","ISO3_dest_LAO","ISO3_dest_LBN","ISO3_dest_LBR","ISO3_dest_LBY","ISO3_dest_LCA","ISO3_dest_LKA","ISO3_dest_LSO","ISO3_dest_LTU","ISO3_dest_LUX","ISO3_dest_LVA","ISO3_dest_MAC","ISO3_dest_MAR","ISO3_dest_MDA","ISO3_dest_MDG","ISO3_dest_MDV","ISO3_dest_MEX","ISO3_dest_MHL","ISO3_dest_MKD","ISO3_dest_MLI","ISO3_dest_MLT","ISO3_dest_MMR","ISO3_dest_MNE","ISO3_dest_MNG","ISO3_dest_MOZ","ISO3_dest_MRT","ISO3_dest_MUS","ISO3_dest_MWI","ISO3_dest_MYS","ISO3_dest_NAM","ISO3_dest_NCL","ISO3_dest_NER","ISO3_dest_NGA","ISO3_dest_NIC","ISO3_dest_NLD","ISO3_dest_NOR","ISO3_dest_NPL","ISO3_dest_NZL","ISO3_dest_OMN","ISO3_dest_PAK","ISO3_dest_PAN","ISO3_dest_PER","ISO3_dest_PHL","ISO3_dest_PLW","ISO3_dest_PNG","ISO3_dest_POL","ISO3_dest_PRI","ISO3_dest_PRT","ISO3_dest_PRY","ISO3_dest_PSE","ISO3_dest_QAT","ISO3_dest_ROU","ISO3_dest_RUS","ISO3_dest_RWA","ISO3_dest_SAU","ISO3_dest_SDN","ISO3_dest_SEN","ISO3_dest_SGP","ISO3_dest_SLB","ISO3_dest_SLE","ISO3_dest_SLV","ISO3_dest_SMR","ISO3_dest_SRB","ISO3_dest_STP","ISO3_dest_SUR","ISO3_dest_SVK","ISO3_dest_SVN","ISO3_dest_SWE","ISO3_dest_SWZ","ISO3_dest_SYC","ISO3_dest_SYR","ISO3_dest_TCD","ISO3_dest_TGO","ISO3_dest_THA","ISO3_dest_TJK","ISO3_dest_TKM","ISO3_dest_TLS","ISO3_dest_TON","ISO3_dest_TTO","ISO3_dest_TUN","ISO3_dest_TUR","ISO3_dest_TZA","ISO3_dest_UGA","ISO3_dest_UKR","ISO3_dest_URY","ISO3_dest_USA","ISO3_dest_UZB","ISO3_dest_VCT","ISO3_dest_VEN","ISO3_dest_VNM","ISO3_dest_VUT","ISO3_dest_WSM","ISO3_dest_YEM","ISO3_dest_ZAF","ISO3_dest_ZMB","ISO3_dest_ZWE"],"feature_types":["int","float","float","float","float","float","float","float","int","int","int","int","int","int","int","int","int","int","int","int","int","int","int","int","int","int","int","int","int","int","int","int","int","int","int","int","int","int","int","int","int","int","int","int","int","int","int","int","int","int","int","int","int","int","int","int","int","int","int","int","int","int","int","int","int","int","int","int","int","int","int","int","int","int","int","int","int","int","int","int","int","int","int","int","int","int","int","int","int","int","int","int","int","int","int","int","int","int","int","int","int","int","int","int","int","int","int","int","int","int","int","int","int","int","int","int","int","int","int","int","int","int","int","int","int","int","int","int","int","int","int","int","int","int","int","int","int","int","int","int","int","int","int","int","int","int","int","int","int","int","int","int","int","int","int","int","int","int","int","int","int","int","int","int","int","int","int","int","int","int","int","int","int","int","int","int","int","int","int","int","int","int","int","int","int","int","int","int","int","int","int","int","int","int","int","int","int","int","int"],"gradient_booster":{"model":{"gbtree_model_param":{"num_parallel_tree":"1","num_trees":"1725"},"iteration_indptr":[0,1,2,3,4,5,6,7,8,9,10,11,12,13,14,15,16,17,18,19,20,21,22,23,24,25,26,27,28,29,30,31,32,33,34,35,36,37,38,39,40,41,42,43,44,45,46,47,48,49,50,51,52,53,54,55,56,57,58,59,60,61,62,63,64,65,66,67,68,69,70,71,72,73,74,75,76,77,78,79,80,81,82,83,84,85,86,87,88,89,90,91,92,93,94,95,96,97,98,99,100,101,102,103,104,105,106,107,108,109,110,111,112,113,114,115,116,117,118,119,120,121,122,123,124,125,126,127,128,129,130,131,132,133,134,135,136,137,138,139,140,141,142,143,144,145,146,147,148,149,150,151,152,153,154,155,156,157,158,159,160,161,162,163,164,165,166,167,168,169,170,171,172,173,174,175,176,177,178,179,180,181,182,183,184,185,186,187,188,189,190,191,192,193,194,195,196,197,198,199,200,201,202,203,204,205,206,207,208,209,210,211,212,213,214,215,216,217,218,219,220,221,222,223,224,225,226,227,228,229,230,231,232,233,234,235,236,237,238,239,240,241,242,243,244,245,246,247,248,249,250,251,252,253,254,255,256,257,258,259,260,261,262,263,264,265,266,267,268,269,270,271,272,273,274,275,276,277,278,279,280,281,282,283,284,285,286,287,288,289,290,291,292,293,294,295,296,297,298,299,300,301,302,303,304,305,306,307,308,309,310,311,312,313,314,315,316,317,318,319,320,321,322,323,324,325,326,327,328,329,330,331,332,333,334,335,336,337,338,339,340,341,342,343,344,345,346,347,348,349,350,351,352,353,354,355,356,357,358,359,360,361,362,363,364,365,366,367,368,369,370,371,372,373,374,375,376,377,378,379,380,381,382,383,384,385,386,387,388,389,390,391,392,393,394,395,396,397,398,399,400,401,402,403,404,405,406,407,408,409,410,411,412,413,414,415,416,417,418,419,420,421,422,423,424,425,426,427,428,429,430,431,432,433,434,435,436,437,438,439,440,441,442,443,444,445,446,447,448,449,450,451,452,453,454,455,456,457,458,459,460,461,462,463,464,465,466,467,468,469,470,471,472,473,474,475,476,477,478,479,480,481,482,483,484,485,486,487,488,489,490,491,492,493,494,495,496,497,498,499,500,501,502,503,504,505,506,507,508,509,510,511,512,513,514,515,516,517,518,519,520,521,522,523,524,525,526,527,528,529,530,531,532,533,534,535,536,537,538,539,540,541,542,543,544,545,546,547,548,549,550,551,552,553,554,555,556,557,558,559,560,561,562,563,564,565,566,567,568,569,570,571,572,573,574,575,576,577,578,579,580,581,582,583,584,585,586,587,588,589,590,591,592,593,594,595,596,597,598,599,600,601,602,603,604,605,606,607,608,609,610,611,612,613,614,615,616,617,618,619,620,621,622,623,624,625,626,627,628,629,630,631,632,633,634,635,636,637,638,639,640,641,642,643,644,645,646,647,648,649,650,651,652,653,654,655,656,657,658,659,660,661,662,663,664,665,666,667,668,669,670,671,672,673,674,675,676,677,678,679,680,681,682,683,684,685,686,687,688,689,690,691,692,693,694,695,696,697,698,699,700,701,702,703,704,705,706,707,708,709,710,711,712,713,714,715,716,717,718,719,720,721,722,723,724,725,726,727,728,729,730,731,732,733,734,735,736,737,738,739,740,741,742,743,744,745,746,747,748,749,750,751,752,753,754,755,756,757,758,759,760,761,762,763,764,765,766,767,768,769,770,771,772,773,774,775,776,777,778,779,780,781,782,783,784,785,786,787,788,789,790,791,792,793,794,795,796,797,798,799,800,801,802,803,804,805,806,807,808,809,810,811,812,813,814,815,816,817,818,819,820,821,822,823,824,825,826,827,828,829,830,831,832,833,834,835,836,837,838,839,840,841,842,843,844,845,846,847,848,849,850,851,852,853,854,855,856,857,858,859,860,861,862,863,864,865,866,867,868,869,870,871,872,873,874,875,876,877,878,879,880,881,882,883,884,885,886,887,888,889,890,891,892,893,894,895,896,897,898,899,900,901,902,903,904,905,906,907,908,909,910,911,912,913,914,915,916,917,918,919,920,921,922,923,924,925,926,927,928,929,930,931,932,933,934,935,936,937,938,939,940,941,942,943,944,945,946,947,948,949,950,951,952,953,954,955,956,957,958,959,960,961,962,963,964,965,966,967,968,969,970,971,972,973,974,975,976,977,978,979,980,981,982,983,984,985,986,987,988,989,990,991,992,993,994,995,996,997,998,999,1000,1001,1002,1003,1004,1005,1006,1007,1008,1009,1010,1011,1012,1013,1014,1015,1016,1017,1018,1019,1020,1021,1022,1023,1024,1025,1026,1027,1028,1029,1030,1031,1032,1033,1034,1035,1036,1037,1038,1039,1040,1041,1042,1043,1044,1045,1046,1047,1048,1049,1050,1051,1052,1053,1054,1055,1056,1057,1058,1059,1060,1061,1062,1063,1064,1065,1066,1067,1068,1069,1070,1071,1072,1073,1074,1075,1076,1077,1078,1079,1080,1081,1082,1083,1084,1085,1086,1087,1088,1089,1090,1091,1092,1093,1094,1095,1096,1097,1098,1099,1100,1101,1102,1103,1104,1105,1106,1107,1108,1109,1110,1111,1112,1113,1114,1115,1116,1117,1118,1119,1120,1121,1122,1123,1124,1125,1126,1127,1128,1129,1130,1131,1132,1133,1134,1135,1136,1137,1138,1139,1140,1141,1142,1143,1144,1145,1146,1147,1148,1149,1150,1151,1152,1153,1154,1155,1156,1157,1158,1159,1160,1161,1162,1163,1164,1165,1166,1167,1168,1169,1170,1171,1172,1173,1174,1175,1176,1177,1178,1179,1180,1181,1182,1183,1184,1185,1186,1187,1188,1189,1190,1191,1192,1193,1194,1195,1196,1197,1198,1199,1200,1201,1202,1203,1204,1205,1206,1207,1208,1209,1210,1211,1212,1213,1214,1215,1216,1217,1218,1219,1220,1221,1222,1223,1224,1225,1226,1227,1228,1229,1230,1231,1232,1233,1234,1235,1236,1237,1238,1239,1240,1241,1242,1243,1244,1245,1246,1247,1248,1249,1250,1251,1252,1253,1254,1255,1256,1257,1258,1259,1260,1261,1262,1263,1264,1265,1266,1267,1268,1269,1270,1271,1272,1273,1274,1275,1276,1277,1278,1279,1280,1281,1282,1283,1284,1285,1286,1287,1288,1289,1290,1291,1292,1293,1294,1295,1296,1297,1298,1299,1300,1301,1302,1303,1304,1305,1306,1307,1308,1309,1310,1311,1312,1313,1314,1315,1316,1317,1318,1319,1320,1321,1322,1323,1324,1325,1326,1327,1328,1329,1330,1331,1332,1333,1334,1335,1336,1337,1338,1339,1340,1341,1342,1343,1344,1345,1346,1347,1348,1349,1350,1351,1352,1353,1354,1355,1356,1357,1358,1359,1360,1361,1362,1363,1364,1365,1366,1367,1368,1369,1370,1371,1372,1373,1374,1375,1376,1377,1378,1379,1380,1381,1382,1383,1384,1385,1386,1387,1388,1389,1390,1391,1392,1393,1394,1395,1396,1397,1398,1399,1400,1401,1402,1403,1404,1405,1406,1407,1408,1409,1410,1411,1412,1413,1414,1415,1416,1417,1418,1419,1420,1421,1422,1423,1424,1425,1426,1427,1428,1429,1430,1431,1432,1433,1434,1435,1436,1437,1438,1439,1440,1441,1442,1443,1444,1445,1446,1447,1448,1449,1450,1451,1452,1453,1454,1455,1456,1457,1458,1459,1460,1461,1462,1463,1464,1465,1466,1467,1468,1469,1470,1471,1472,1473,1474,1475,1476,1477,1478,1479,1480,1481,1482,1483,1484,1485,1486,1487,1488,1489,1490,1491,1492,1493,1494,1495,1496,1497,1498,1499,1500,1501,1502,1503,1504,1505,1506,1507,1508,1509,1510,1511,1512,1513,1514,1515,1516,1517,1518,1519,1520,1521,1522,1523,1524,1525,1526,1527,1528,1529,1530,1531,1532,1533,1534,1535,1536,1537,1538,1539,1540,1541,1542,1543,1544,1545,1546,1547,1548,1549,1550,1551,1552,1553,1554,1555,1556,1557,1558,1559,1560,1561,1562,1563,1564,1565,1566,1567,1568,1569,1570,1571,1572,1573,1574,1575,1576,1577,1578,1579,1580,1581,1582,1583,1584,1585,1586,1587,1588,1589,1590,1591,1592,1593,1594,1595,1596,1597,1598,1599,1600,1601,1602,1603,1604,1605,1606,1607,1608,1609,1610,1611,1612,1613,1614,1615,1616,1617,1618,1619,1620,1621,1622,1623,1624,1625,1626,1627,1628,1629,1630,1631,1632,1633,1634,1635,1636,1637,1638,1639,1640,1641,1642,1643,1644,1645,1646,1647,1648,1649,1650,1651,1652,1653,1654,1655,1656,1657,1658,1659,1660,1661,1662,1663,1664,1665,1666,1667,1668,1669,1670,1671,1672,1673,1674,1675,1676,1677,1678,1679,1680,1681,1682,1683,1684,1685,1686,1687,1688,1689,1690,1691,1692,1693,1694,1695,1696,1697,1698,1699,1700,1701,1702,1703,1704,1705,1706,1707,1708,1709,1710,1711,1712,1713,1714,1715,1716,1717,1718,1719,1720,1721,1722,1723,1724,1725],"tree_info":[0,0,0,0,0,0,0,0,0,0,0,0,0,0,0,0,0,0,0,0,0,0,0,0,0,0,0,0,0,0,0,0,0,0,0,0,0,0,0,0,0,0,0,0,0,0,0,0,0,0,0,0,0,0,0,0,0,0,0,0,0,0,0,0,0,0,0,0,0,0,0,0,0,0,0,0,0,0,0,0,0,0,0,0,0,0,0,0,0,0,0,0,0,0,0,0,0,0,0,0,0,0,0,0,0,0,0,0,0,0,0,0,0,0,0,0,0,0,0,0,0,0,0,0,0,0,0,0,0,0,0,0,0,0,0,0,0,0,0,0,0,0,0,0,0,0,0,0,0,0,0,0,0,0,0,0,0,0,0,0,0,0,0,0,0,0,0,0,0,0,0,0,0,0,0,0,0,0,0,0,0,0,0,0,0,0,0,0,0,0,0,0,0,0,0,0,0,0,0,0,0,0,0,0,0,0,0,0,0,0,0,0,0,0,0,0,0,0,0,0,0,0,0,0,0,0,0,0,0,0,0,0,0,0,0,0,0,0,0,0,0,0,0,0,0,0,0,0,0,0,0,0,0,0,0,0,0,0,0,0,0,0,0,0,0,0,0,0,0,0,0,0,0,0,0,0,0,0,0,0,0,0,0,0,0,0,0,0,0,0,0,0,0,0,0,0,0,0,0,0,0,0,0,0,0,0,0,0,0,0,0,0,0,0,0,0,0,0,0,0,0,0,0,0,0,0,0,0,0,0,0,0,0,0,0,0,0,0,0,0,0,0,0,0,0,0,0,0,0,0,0,0,0,0,0,0,0,0,0,0,0,0,0,0,0,0,0,0,0,0,0,0,0,0,0,0,0,0,0,0,0,0,0,0,0,0,0,0,0,0,0,0,0,0,0,0,0,0,0,0,0,0,0,0,0,0,0,0,0,0,0,0,0,0,0,0,0,0,0,0,0,0,0,0,0,0,0,0,0,0,0,0,0,0,0,0,0,0,0,0,0,0,0,0,0,0,0,0,0,0,0,0,0,0,0,0,0,0,0,0,0,0,0,0,0,0,0,0,0,0,0,0,0,0,0,0,0,0,0,0,0,0,0,0,0,0,0,0,0,0,0,0,0,0,0,0,0,0,0,0,0,0,0,0,0,0,0,0,0,0,0,0,0,0,0,0,0,0,0,0,0,0,0,0,0,0,0,0,0,0,0,0,0,0,0,0,0,0,0,0,0,0,0,0,0,0,0,0,0,0,0,0,0,0,0,0,0,0,0,0,0,0,0,0,0,0,0,0,0,0,0,0,0,0,0,0,0,0,0,0,0,0,0,0,0,0,0,0,0,0,0,0,0,0,0,0,0,0,0,0,0,0,0,0,0,0,0,0,0,0,0,0,0,0,0,0,0,0,0,0,0,0,0,0,0,0,0,0,0,0,0,0,0,0,0,0,0,0,0,0,0,0,0,0,0,0,0,0,0,0,0,0,0,0,0,0,0,0,0,0,0,0,0,0,0,0,0,0,0,0,0,0,0,0,0,0,0,0,0,0,0,0,0,0,0,0,0,0,0,0,0,0,0,0,0,0,0,0,0,0,0,0,0,0,0,0,0,0,0,0,0,0,0,0,0,0,0,0,0,0,0,0,0,0,0,0,0,0,0,0,0,0,0,0,0,0,0,0,0,0,0,0,0,0,0,0,0,0,0,0,0,0,0,0,0,0,0,0,0,0,0,0,0,0,0,0,0,0,0,0,0,0,0,0,0,0,0,0,0,0,0,0,0,0,0,0,0,0,0,0,0,0,0,0,0,0,0,0,0,0,0,0,0,0,0,0,0,0,0,0,0,0,0,0,0,0,0,0,0,0,0,0,0,0,0,0,0,0,0,0,0,0,0,0,0,0,0,0,0,0,0,0,0,0,0,0,0,0,0,0,0,0,0,0,0,0,0,0,0,0,0,0,0,0,0,0,0,0,0,0,0,0,0,0,0,0,0,0,0,0,0,0,0,0,0,0,0,0,0,0,0,0,0,0,0,0,0,0,0,0,0,0,0,0,0,0,0,0,0,0,0,0,0,0,0,0,0,0,0,0,0,0,0,0,0,0,0,0,0,0,0,0,0,0,0,0,0,0,0,0,0,0,0,0,0,0,0,0,0,0,0,0,0,0,0,0,0,0,0,0,0,0,0,0,0,0,0,0,0,0,0,0,0,0,0,0,0,0,0,0,0,0,0,0,0,0,0,0,0,0,0,0,0,0,0,0,0,0,0,0,0,0,0,0,0,0,0,0,0,0,0,0,0,0,0,0,0,0,0,0,0,0,0,0,0,0,0,0,0,0,0,0,0,0,0,0,0,0,0,0,0,0,0,0,0,0,0,0,0,0,0,0,0,0,0,0,0,0,0,0,0,0,0,0,0,0,0,0,0,0,0,0,0,0,0,0,0,0,0,0,0,0,0,0,0,0,0,0,0,0,0,0,0,0,0,0,0,0,0,0,0,0,0,0,0,0,0,0,0,0,0,0,0,0,0,0,0,0,0,0,0,0,0,0,0,0,0,0,0,0,0,0,0,0,0,0,0,0,0,0,0,0,0,0,0,0,0,0,0,0,0,0,0,0,0,0,0,0,0,0,0,0,0,0,0,0,0,0,0,0,0,0,0,0,0,0,0,0,0,0,0,0,0,0,0,0,0,0,0,0,0,0,0,0,0,0,0,0,0,0,0,0,0,0,0,0,0,0,0,0,0,0,0,0,0,0,0,0,0,0,0,0,0,0,0,0,0,0,0,0,0,0,0,0,0,0,0,0,0,0,0,0,0,0,0,0,0,0,0,0,0,0,0,0,0,0,0,0,0,0,0,0,0,0,0,0,0,0,0,0,0,0,0,0,0,0,0,0,0,0,0,0,0,0,0,0,0,0,0,0,0,0,0,0,0,0,0,0,0,0,0,0,0,0,0,0,0,0,0,0,0,0,0,0,0,0,0,0,0,0,0,0,0,0,0,0,0,0,0,0,0,0,0,0,0,0,0,0,0,0,0,0,0,0,0,0,0,0,0,0,0,0,0,0,0,0,0,0,0,0,0,0,0,0,0,0,0,0,0,0,0,0,0,0,0,0,0,0,0,0,0,0,0,0,0,0,0,0,0,0,0,0,0,0,0,0,0,0,0,0,0,0,0,0,0,0,0,0,0,0,0,0,0,0,0,0,0,0,0,0,0,0,0,0,0,0,0,0,0,0,0,0,0,0,0,0,0,0,0,0,0,0,0,0,0,0,0,0,0,0,0,0,0,0,0,0,0,0,0,0,0,0,0,0,0,0,0,0,0,0,0,0,0,0,0,0,0,0,0,0,0,0,0,0,0,0,0,0,0,0,0,0,0,0,0,0,0,0,0,0,0,0,0,0,0,0,0,0,0,0,0,0,0,0,0,0,0,0,0,0,0,0,0,0,0,0,0,0,0,0,0,0,0,0,0,0,0,0,0,0,0,0,0,0,0,0,0,0,0,0,0,0,0,0,0,0,0,0,0,0,0,0,0,0,0,0,0,0,0,0,0,0,0,0,0,0,0,0,0,0,0,0,0,0,0,0,0,0,0,0,0,0,0,0,0,0,0,0,0,0,0,0,0,0,0,0,0,0,0,0,0,0,0,0,0,0,0,0,0,0,0,0,0,0,0,0,0,0,0,0,0,0,0,0,0,0,0,0,0,0,0,0,0,0,0,0,0,0,0,0,0,0,0,0,0,0,0,0,0,0,0,0,0,0,0,0,0,0,0,0,0,0,0,0,0,0,0,0,0,0,0,0,0,0,0,0,0,0,0,0,0,0,0,0,0,0,0,0,0,0,0,0,0,0,0,0,0,0,0,0,0,0,0,0,0,0,0,0,0,0,0,0,0,0,0],"trees":[{"base_weights":[-1.3822115E-2,-2.3975034E5,4.3797575E6,-6.0437906E5,2.2160668E6,-9.847958E4,1.1135935E6,2.82119E5,8.4942775E5],"categories":[],"categories_nodes":[],"categories_segments":[],"categories_sizes":[],"default_left":[0,0,0,0,0,0,0,0,0],"id":0,"left_children":[1,3,-1,5,7,-1,-1,-1,-1],"loss_changes":[5.64996E15,7.409905E14,0E0,1.8276138E14,1.27801215E14,0E0,0E0,0E0,0E0],"parents":[2147483647,0,0,1,1,3,3,4,4],"right_children":[2,4,-1,6,8,-1,-1,-1,-1],"split_conditions":[1E0,1.04651E11,4.3797575E6,1E0,1.05E1,-9.847958E4,1.1135935E6,2.82119E5,8.4942775E5],"split_indices":[188,4,0,155,7,0,0,0,0],"split_type":[0,0,0,0,0,0,0,0,0],"sum_hessian":[8.31E2,8.25E2,6E0,7.19E2,1.06E2,7.17E2,2E0,9.6E1,1E1],"tree_param":{"num_deleted":"0","num_feature":"199","num_nodes":"9","size_leaf_vector":"1"}},{"base_weights":[7.8442446E3,-2.0003489E5,2.4536462E7,-4.4158516E5,2.499034E6,1.1331455E6,4.0539565E6,-7.458339E4,1.1243154E6,2.124855E5,5.654137E5],"categories":[],"categories_nodes":[],"categories_segments":[],"categories_sizes":[],"default_left":[0,0,0,0,0,0,0,0,0,0,0],"id":1,"left_children":[1,3,5,7,9,-1,-1,-1,-1,-1,-1],"loss_changes":[4.2472658E15,5.3962318E14,7.142262E12,2.3842998E14,8.332461E13,0E0,0E0,0E0,0E0,0E0,0E0],"parents":[2147483647,0,0,1,1,2,2,3,3,4,4],"right_children":[2,4,6,8,10,-1,-1,-1,-1,-1,-1],"split_conditions":[1E0,1.87001E11,1.995E3,1E0,8.402E0,1.1331455E6,4.0539565E6,-7.458339E4,1.1243154E6,2.124855E5,5.654137E5],"split_indices":[188,4,0,155,7,0,0,0,0,0,0],"split_type":[0,0,0,0,0,0,0,0,0,0,0],"sum_hessian":[8.31E2,8.25E2,6E0,7.58E2,6.7E1,1E0,5E0,7.55E2,3E0,3.5E1,3.2E1],"tree_param":{"num_deleted":"0","num_feature":"199","num_nodes":"11","size_leaf_vector":"1"}},{"base_weights":[1.5060989E4,-1.6685417E5,3.3252238E6,-6.182474E5,9.4438456E5,-1.2650224E5,-3.7136812E4,1.20580266E5,1.121142E6],"categories":[],"categories_nodes":[],"categories_segments":[],"categories_sizes":[],"default_left":[0,0,0,0,0,0,0,0,0],"id":2,"left_children":[1,3,-1,5,7,-1,-1,-1,-1],"loss_changes":[3.2522088E15,4.149101E14,0E0,4.4050527E13,2.4346947E14,0E0,0E0,0E0,0E0],"parents":[2147483647,0,0,1,1,3,3,4,4],"right_children":[2,4,-1,6,8,-1,-1,-1,-1],"split_conditions":[1E0,2.7231E10,3.3252238E6,2.1114E1,1E0,-1.2650224E5,-3.7136812E4,1.20580266E5,1.121142E6],"split_indices":[188,4,0,5,155,0,0,0,0],"split_type":[0,0,0,0,0,0,0,0,0],"sum_hessian":[8.31E2,8.25E2,6E0,5.87E2,2.38E2,3.84E2,2.03E2,2.33E2,5E0],"tree_param":{"num_deleted":"0","num_feature":"199","num_nodes":"9","size_leaf_vector":"1"}},{"base_weights":[1.8021777E4,-1.3971772E5,1.8628708E7,-3.8520097E5,1.513438E6,7.880376E5,3.101959E6,-6.3004785E4,7.6690925E5,4.5080516E5,1.4802583E5],"categories":[],"categories_nodes":[],"categories_segments":[],"categories_sizes":[],"default_left":[0,0,0,0,0,0,0,0,0,0,0],"id":3,"left_children":[1,3,5,7,9,-1,-1,-1,-1,-1,-1],"loss_changes":[2.445055E15,3.35792E14,3.1446945E13,8.570551E13,8.0606336E13,0E0,0E0,0E0,0E0,0E0,0E0],"parents":[2147483647,0,0,1,1,2,2,3,3,4,4],"right_children":[2,4,6,8,10,-1,-1,-1,-1,-1,-1],"split_conditions":[1E0,1.04651E11,1.995E3,1E0,1.7378596E0,7.880376E5,3.101959E6,-6.3004785E4,7.6690925E5,4.5080516E5,1.4802583E5],"split_indices":[188,4,0,155,3,0,0,0,0,0,0],"split_type":[0,0,0,0,0,0,0,0,0,0,0],"sum_hessian":[8.31E2,8.25E2,6E0,7.19E2,1.06E2,1E0,5E0,7.17E2,2E0,2.9E1,7.7E1],"tree_param":{"num_deleted":"0","num_feature":"199","num_nodes":"11","size_leaf_vector":"1"}},{"base_weights":[2.1473057E4,-1.16510336E5,1.6300446E7,-2.8192722E5,1.7315472E6,1.0325688E6,2.9133995E6,-4.9764074E4,7.3244844E5,4.4892766E4,3.6682784E5],"categories":[],"categories_nodes":[],"categories_segments":[],"categories_sizes":[],"default_left":[0,0,0,0,0,0,0,0,0,0,0],"id":4,"left_children":[1,3,5,7,9,-1,-1,-1,-1,-1,-1],"loss_changes":[1.8707608E15,2.5299629E14,4.4255746E13,1.5188466E14,6.184748E13,0E0,0E0,0E0,0E0,0E0,0E0],"parents":[2147483647,0,0,1,1,2,2,3,3,4,4],"right_children":[2,4,6,8,10,-1,-1,-1,-1,-1,-1],"split_conditions":[1E0,1.87001E11,2E3,1E0,6.724E0,1.0325688E6,2.9133995E6,-4.9764074E4,7.3244844E5,4.4892766E4,3.6682784E5],"split_indices":[188,4,0,157,7,0,0,0,0,0,0],"split_type":[0,0,0,0,0,0,0,0,0,0,0],"sum_hessian":[8.31E2,8.25E2,6E0,7.58E2,6.7E1,2E0,4E0,7.53E2,5E0,2.1E1,4.6E1],"tree_param":{"num_deleted":"0","num_feature":"199","num_nodes":"11","size_leaf_vector":"1"}},{"base_weights":[2.4206877E4,-9.7148016E4,1.4340626E7,-1.4034694E5,9.0257756E5,9.259984E5,2.5525728E6,-7.61388E4,6.7283414E4],"categories":[],"categories_nodes":[],"categories_segments":[],"categories_sizes":[],"default_left":[0,0,0,0,0,0,0,0,0],"id":5,"left_children":[1,3,5,7,-1,-1,-1,-1,-1],"loss_changes":[1.4468831E15,2.1231597E14,2.7034537E13,1.6611796E14,0E0,0E0,0E0,0E0,0E0],"parents":[2147483647,0,0,1,1,2,2,3,3],"right_children":[2,4,6,8,-1,-1,-1,-1,-1],"split_conditions":[1E0,1E0,2E3,1.3882E10,9.0257756E5,9.259984E5,2.5525728E6,-7.61388E4,6.7283414E4],"split_indices":[188,155,0,4,0,0,0,0,0],"split_type":[0,0,0,0,0,0,0,0,0],"sum_hessian":[8.31E2,8.25E2,6E0,8.2E2,5E0,2E0,4E0,5.09E2,3.11E2],"tree_param":{"num_deleted":"0","num_feature":"199","num_nodes":"9","size_leaf_vector":"1"}},{"base_weights":[2.5714488E4,-8.10262E4,1.2617443E7,-1.18630125E5,7.861349E5,8.3042706E5,2.2364345E6,-3.3190332E4,2.797415E5],"categories":[],"categories_nodes":[],"categories_segments":[],"categories_sizes":[],"default_left":[0,0,0,0,0,0,0,0,0],"id":6,"left_children":[1,3,5,7,-1,-1,-1,-1,-1],"loss_changes":[1.11927177E15,1.6084441E14,1.53533E13,1.5177356E14,0E0,0E0,0E0,0E0,0E0],"parents":[2147483647,0,0,1,1,2,2,3,3],"right_children":[2,4,6,8,-1,-1,-1,-1,-1],"split_conditions":[1E0,1E0,2E3,3.11851E11,7.861349E5,8.3042706E5,2.2364345E6,-3.3190332E4,2.797415E5],"split_indices":[188,155,0,4,0,0,0,0,0],"split_type":[0,0,0,0,0,0,0,0,0],"sum_hessian":[8.31E2,8.25E2,6E0,8.2E2,5E0,2E0,4E0,7.82E2,3.8E1],"tree_param":{"num_deleted":"0","num_feature":"199","num_nodes":"9","size_leaf_vector":"1"}},{"base_weights":[2.6660863E4,-6.723205E4,1.1102215E7,-3.82695E5,4.405072E5,7.447195E5,1.9594505E6,-8.101866E4,-1.4835866E4,5.612177E4,6.847146E5],"categories":[],"categories_nodes":[],"categories_segments":[],"categories_sizes":[],"default_left":[0,0,0,0,0,0,0,0,0,0,0],"id":7,"left_children":[1,3,5,7,9,-1,-1,-1,-1,-1,-1],"loss_changes":[8.659566E14,1.32471404E14,7.584912E12,2.052497E13,9.685754E13,0E0,0E0,0E0,0E0,0E0,0E0],"parents":[2147483647,0,0,1,1,2,2,3,3,4,4],"right_children":[2,4,6,8,10,-1,-1,-1,-1,-1,-1],"split_conditions":[1E0,1.3882E10,2E3,2.1114E1,1E0,7.447195E5,1.9594505E6,-8.101866E4,-1.4835866E4,5.612177E4,6.847146E5],"split_indices":[188,4,0,5,155,0,0,0,0,0,0],"split_type":[0,0,0,0,0,0,0,0,0,0,0],"sum_hessian":[8.31E2,8.25E2,6E0,5.09E2,3.16E2,2E0,4E0,3.41E2,1.68E2,3.11E2,5E0],"tree_param":{"num_deleted":"0","num_feature":"199","num_nodes":"11","size_leaf_vector":"1"}},{"base_weights":[2.6558832E4,-5.604276E4,9.769753E6,-1.754208E5,1.04410606E6,7.9190394E5,1.8549531E6,-3.147344E4,5.1038625E5,1.2358135E5,6.167995E5],"categories":[],"categories_nodes":[],"categories_segments":[],"categories_sizes":[],"default_left":[0,0,0,0,0,0,0,0,0,0,0],"id":8,"left_children":[1,3,5,7,9,-1,-1,-1,-1,-1,-1],"loss_changes":[6.701439E14,1.086647E14,1.0784529E13,7.288224E13,5.5366323E13,0E0,0E0,0E0,0E0,0E0,0E0],"parents":[2147483647,0,0,1,1,2,2,3,3,4,4],"right_children":[2,4,6,8,10,-1,-1,-1,-1,-1,-1],"split_conditions":[1E0,1.64622E11,2.005E3,1E0,1E0,7.9190394E5,1.8549531E6,-3.147344E4,5.1038625E5,1.2358135E5,6.167995E5],"split_indices":[188,4,0,186,53,0,0,0,0,0,0],"split_type":[0,0,0,0,0,0,0,0,0,0,0],"sum_hessian":[8.31E2,8.25E2,6E0,7.45E2,8E1,3E0,3E0,7.4E2,5E0,7.5E1,5E0],"tree_param":{"num_deleted":"0","num_feature":"199","num_nodes":"11","size_leaf_vector":"1"}},{"base_weights":[2.7093986E4,-4.5890434E4,8.635385E6,-7.573872E4,6.2637525E5,6.999559E5,1.6395741E6,-1.6153384E4,5.924376E5],"categories":[],"categories_nodes":[],"categories_segments":[],"categories_sizes":[],"default_left":[0,0,0,0,0,0,0,0,0],"id":9,"left_children":[1,3,5,7,-1,-1,-1,-1,-1],"loss_changes":[5.2311786E14,1.0119068E14,8.4254843E12,9.203985E13,0E0,0E0,0E0,0E0,0E0],"parents":[2147483647,0,0,1,1,2,2,3,3],"right_children":[2,4,6,8,-1,-1,-1,-1,-1],"split_conditions":[1E0,1E0,2.005E3,1E0,6.2637525E5,6.999559E5,1.6395741E6,-1.6153384E4,5.924376E5],"split_indices":[188,157,0,155,0,0,0,0,0],"split_type":[0,0,0,0,0,0,0,0,0],"sum_hessian":[8.31E2,8.25E2,6E0,8.2E2,5E0,3E0,3E0,8.15E2,5E0],"tree_param":{"num_deleted":"0","num_feature":"199","num_nodes":"9","size_leaf_vector":"1"}},{"base_weights":[2.715691E4,-3.732997E4,7.632729E6,-2.164093E5,4.8899994E5,6.186839E5,1.449203E6,-3.5687758E4,4.2552225E5,5.349262E5,5.957507E4],"categories":[],"categories_nodes":[],"categories_segments":[],"categories_sizes":[],"default_left":[0,0,0,0,0,0,0,0,0,0,0],"id":10,"left_children":[1,3,5,7,9,-1,-1,-1,-1,-1,-1],"loss_changes":[4.083473E14,7.79603E13,6.5825407E12,2.6449684E13,6.3567345E13,0E0,0E0,0E0,0E0,0E0,0E0],"parents":[2147483647,0,0,1,1,2,2,3,3,4,4],"right_children":[2,4,6,8,10,-1,-1,-1,-1,-1,-1],"split_conditions":[1E0,3.4443E10,2.005E3,1E0,2.9E0,6.186839E5,1.449203E6,-3.5687758E4,4.2552225E5,5.349262E5,5.957507E4],"split_indices":[188,4,0,186,7,0,0,0,0,0,0],"split_type":[0,0,0,0,0,0,0,0,0,0,0],"sum_hessian":[8.31E2,8.25E2,6E0,6.16E2,2.09E2,3E0,3E0,6.14E2,2E0,6E0,2.03E2],"tree_param":{"num_deleted":"0","num_feature":"199","num_nodes":"11","size_leaf_vector":"1"}},{"base_weights":[2.6621188E4,-3.0359094E4,6.7464915E6,-5.5639926E4,3.4339612E6,5.468484E5,1.2809356E6,-1.2520758E4,5.2416644E5,1.3167412E5,5.852787E5],"categories":[],"categories_nodes":[],"categories_segments":[],"categories_sizes":[],"default_left":[0,0,0,0,0,0,0,0,0,0,0],"id":11,"left_children":[1,3,5,7,9,-1,-1,-1,-1,-1,-1],"loss_changes":[3.187777E14,7.253289E13,5.1426865E12,7.157734E13,2.1566943E12,0E0,0E0,0E0,0E0,0E0,0E0],"parents":[2147483647,0,0,1,1,2,2,3,3,4,4],"right_children":[2,4,6,8,10,-1,-1,-1,-1,-1,-1],"split_conditions":[1E0,1E0,2.005E3,1E0,1.995E3,5.468484E5,1.2809356E6,-1.2520758E4,5.2416644E5,1.3167412E5,5.852787E5],"split_indices":[188,53,0,87,0,0,0,0,0,0,0],"split_type":[0,0,0,0,0,0,0,0,0,0,0],"sum_hessian":[8.31E2,8.25E2,6E0,8.2E2,5E0,3E0,3E0,8.15E2,5E0,1E0,4E0],"tree_param":{"num_deleted":"0","num_feature":"199","num_nodes":"11","size_leaf_vector":"1"}},{"base_weights":[2.6173398E4,-2.4171695E4,5.9631555E6,-4.839106E4,5.0993606E5,5.456216E5,1.2447104E6,-1.1269964E4,5.076159E5],"categories":[],"categories_nodes":[],"categories_segments":[],"categories_sizes":[],"default_left":[0,0,0,0,0,0,0,0,0],"id":12,"left_children":[1,3,5,7,-1,-1,-1,-1,-1],"loss_changes":[2.4882722E14,6.6537516E13,7.119546E12,6.6908355E13,0E0,0E0,0E0,0E0,0E0],"parents":[2147483647,0,0,1,1,2,2,3,3],"right_children":[2,4,6,8,-1,-1,-1,-1,-1],"split_conditions":[1E0,1E0,2.01E3,1E0,5.0993606E5,5.456216E5,1.2447104E6,-1.1269964E4,5.076159E5],"split_indices":[188,155,0,157,0,0,0,0,0],"split_type":[0,0,0,0,0,0,0,0,0],"sum_hessian":[8.31E2,8.25E2,6E0,8.2E2,5E0,4E0,2E0,8.15E2,5E0],"tree_param":{"num_deleted":"0","num_feature":"199","num_nodes":"9","size_leaf_vector":"1"}},{"base_weights":[2.5482713E4,-1.9211334E4,5.29574E6,-4.463431E4,4.585039E5,4.7804594E5,1.116245E6,-1.0722109E4,4.3737162E5],"categories":[],"categories_nodes":[],"categories_segments":[],"categories_sizes":[],"default_left":[0,0,0,0,0,0,0,0,0],"id":13,"left_children":[1,3,5,7,-1,-1,-1,-1,-1],"loss_changes":[1.9607863E14,6.272849E13,7.3244124E12,5.8141266E13,0E0,0E0,0E0,0E0,0E0],"parents":[2147483647,0,0,1,1,2,2,3,3],"right_children":[2,4,6,8,-1,-1,-1,-1,-1],"split_conditions":[1E0,1E0,2.01E3,1E0,4.585039E5,4.7804594E5,1.116245E6,-1.0722109E4,4.3737162E5],"split_indices":[188,66,0,36,0,0,0,0,0],"split_type":[0,0,0,0,0,0,0,0,0],"sum_hessian":[8.31E2,8.25E2,6E0,8.19E2,6E0,4E0,2E0,8.13E2,6E0],"tree_param":{"num_deleted":"0","num_feature":"199","num_nodes":"9","size_leaf_vector":"1"}},{"base_weights":[2.451775E4,-1.516554E4,4.7036435E6,-3.747585E4,3.0401565E6,4.1883953E5,1.00103844E6,-9.215114E3,4.593803E5,1.2318399E5,5.1551516E5],"categories":[],"categories_nodes":[],"categories_segments":[],"categories_sizes":[],"default_left":[0,0,0,0,0,0,0,0,0,0,0],"id":14,"left_children":[1,3,5,7,9,-1,-1,-1,-1,-1,-1],"loss_changes":[1.5455967E14,5.641837E13,7.158385E12,5.4567836E13,1.2524695E12,0E0,0E0,0E0,0E0,0E0,0E0],"parents":[2147483647,0,0,1,1,2,2,3,3,4,4],"right_children":[2,4,6,8,10,-1,-1,-1,-1,-1,-1],"split_conditions":[1E0,1E0,2.01E3,1E0,1.995E3,4.1883953E5,1.00103844E6,-9.215114E3,4.593803E5,1.2318399E5,5.1551516E5],"split_indices":[188,53,0,87,0,0,0,0,0,0,0],"split_type":[0,0,0,0,0,0,0,0,0,0,0],"sum_hessian":[8.31E2,8.25E2,6E0,8.2E2,5E0,4E0,2E0,8.15E2,5E0,1E0,4E0],"tree_param":{"num_deleted":"0","num_feature":"199","num_nodes":"11","size_leaf_vector":"1"}},{"base_weights":[2.3737379E4,-1.1499473E4,4.1782948E6,-3.26575E4,4.4672066E5,3.6696584E5,8.9772206E5,-8.356653E3,4.4469984E5],"categories":[],"categories_nodes":[],"categories_segments":[],"categories_sizes":[],"default_left":[0,0,0,0,0,0,0,0,0],"id":15,"left_children":[1,3,5,7,-1,-1,-1,-1,-1],"loss_changes":[1.2184747E14,5.0724436E13,6.762191E12,5.100908E13,0E0,0E0,0E0,0E0,0E0],"parents":[2147483647,0,0,1,1,2,2,3,3],"right_children":[2,4,6,8,-1,-1,-1,-1,-1],"split_conditions":[1E0,1E0,2.01E3,1E0,4.4672066E5,3.6696584E5,8.9772206E5,-8.356653E3,4.4469984E5],"split_indices":[188,155,0,157,0,0,0,0,0],"split_type":[0,0,0,0,0,0,0,0,0],"sum_hessian":[8.31E2,8.25E2,6E0,8.2E2,5E0,4E0,2E0,8.15E2,5E0],"tree_param":{"num_deleted":"0","num_feature":"199","num_nodes":"9","size_leaf_vector":"1"}},{"base_weights":[2.2643932E4,-4.825532E4,1.7966332E6,-6.933755E4,4.2677375E5,-2.9633934E5,2.6285068E6,-1.393767E4,4.1335388E5,-1.1184965E5,2.7393672E5,4.955828E5,-1.3807611E5],"categories":[],"categories_nodes":[],"categories_segments":[],"categories_sizes":[],"default_left":[0,0,0,0,0,0,0,0,0,0,0,0,0],"id":16,"left_children":[1,3,5,7,-1,9,11,-1,-1,-1,-1,-1,-1],"loss_changes":[1.0473109E14,4.755796E13,5.649377E13,4.535804E13,0E0,1.008162E13,4.922227E13,0E0,0E0,0E0,0E0,0E0,0E0],"parents":[2147483647,0,0,1,1,2,2,3,3,5,5,6,6],"right_children":[2,4,6,8,-1,10,12,-1,-1,-1,-1,-1,-1],"split_conditions":[3.94131E11,1E0,7.134E0,1E0,4.2677375E5,1E0,1E0,-1.393767E4,4.1335388E5,-1.1184965E5,2.7393672E5,4.955828E5,-1.3807611E5],"split_indices":[4,186,7,14,0,36,96,0,0,0,0,0,0],"split_type":[0,0,0,0,0,0,0,0,0,0,0,0,0],"sum_hessian":[8.31E2,8E2,3.1E1,7.95E2,5E0,9E0,2.2E1,7.9E2,5E0,8E0,1E0,1.9E1,3E0],"tree_param":{"num_deleted":"0","num_feature":"199","num_nodes":"13","size_leaf_vector":"1"}},{"base_weights":[2.0755873E4,-5.2529414E4,1.3036015E6,-6.865486E4,4.8382644E5,1.674374E6,-6.205181E5,-1.3703653E4,3.9088678E5,1.7426333E5,6.105387E5,1.2729582E5,-1.4615833E5],"categories":[],"categories_nodes":[],"categories_segments":[],"categories_sizes":[],"default_left":[0,0,0,0,0,0,0,0,0,0,0,0,0],"id":17,"left_children":[1,3,5,7,-1,9,11,-1,-1,-1,-1,-1,-1],"loss_changes":[7.828788E13,4.059375E13,3.314246E13,4.066179E13,0E0,4.2881197E13,4.511037E12,0E0,0E0,0E0,0E0,0E0,0E0],"parents":[2147483647,0,0,1,1,2,2,3,3,5,5,6,6],"right_children":[2,4,6,8,-1,10,12,-1,-1,-1,-1,-1,-1],"split_conditions":[3.11851E11,1E0,1.819E1,1E0,4.8382644E5,7.77073E11,4.196E0,-1.3703653E4,3.9088678E5,1.7426333E5,6.105387E5,1.2729582E5,-1.4615833E5],"split_indices":[4,87,5,155,0,4,1,0,0,0,0,0,0],"split_type":[0,0,0,0,0,0,0,0,0,0,0,0,0],"sum_hessian":[8.31E2,7.87E2,4.4E1,7.84E2,3E0,3.7E1,7E0,7.79E2,5E0,3.1E1,6E0,1E0,6E0],"tree_param":{"num_deleted":"0","num_feature":"199","num_nodes":"13","size_leaf_vector":"1"}},{"base_weights":[1.9498045E4,-4.8404326E3,2.8886528E6,-2.3322566E4,3.908946E5,1.366414E6,6.9090694E5,-6.688256E3,3.5522656E5,5.5888605E4,2.3647989E5],"categories":[],"categories_nodes":[],"categories_segments":[],"categories_sizes":[],"default_left":[0,0,0,0,0,0,0,0,0,0,0],"id":18,"left_children":[1,3,5,7,-1,9,-1,-1,-1,-1,-1],"loss_changes":[5.8113256E13,3.8679104E13,1.0675875E13,3.7929108E13,0E0,2.5841631E11,0E0,0E0,0E0,0E0,0E0],"parents":[2147483647,0,0,1,1,2,2,3,3,5,5],"right_children":[2,4,6,8,-1,10,-1,-1,-1,-1,-1],"split_conditions":[1E0,1E0,2.01E3,1E0,3.908946E5,1.995E3,6.9090694E5,-6.688256E3,3.5522656E5,5.5888605E4,2.3647989E5],"split_indices":[188,157,0,36,0,0,0,0,0,0,0],"split_type":[0,0,0,0,0,0,0,0,0,0,0],"sum_hessian":[8.31E2,8.25E2,6E0,8.2E2,5E0,4E0,2E0,8.14E2,6E0,1E0,3E0],"tree_param":{"num_deleted":"0","num_feature":"199","num_nodes":"11","size_leaf_vector":"1"}},{"base_weights":[1.8550041E4,-4.4814695E4,9.8977894E5,-6.3775234E4,3.7434594E5,2.3863553E4,1.5159188E6,-1.2755794E4,3.6265734E5,-7.266899E4,3.0822434E5,2.7702E5,-1.4150123E5],"categories":[],"categories_nodes":[],"categories_segments":[],"categories_sizes":[],"default_left":[0,0,0,0,0,0,0,0,0,0,0,0,0],"id":19,"left_children":[1,3,5,7,-1,9,11,-1,-1,-1,-1,-1,-1],"loss_changes":[5.124702E13,3.6671366E13,2.5882358E13,3.5005783E13,0E0,1.9369879E13,2.3563625E13,0E0,0E0,0E0,0E0,0E0,0E0],"parents":[2147483647,0,0,1,1,2,2,3,3,5,5,6,6],"right_children":[2,4,6,8,-1,10,12,-1,-1,-1,-1,-1,-1],"split_conditions":[2.88786E11,1E0,7.706E0,1E0,3.7434594E5,1E0,1E0,-1.2755794E4,3.6265734E5,-7.266899E4,3.0822434E5,2.7702E5,-1.4150123E5],"split_indices":[4,186,7,14,0,36,96,0,0,0,0,0,0],"split_type":[0,0,0,0,0,0,0,0,0,0,0,0,0],"sum_hessian":[8.31E2,7.81E2,5E1,7.76E2,5E0,1.8E1,3.2E1,7.71E2,5E0,1.5E1,3E0,2.9E1,3E0],"tree_param":{"num_deleted":"0","num_feature":"199","num_nodes":"13","size_leaf_vector":"1"}},{"base_weights":[1.699473E4,-2.619198E4,1.097481E6,-4.2112402E4,2.5167615E6,-2.9312622E5,1.6543762E6,-8.976649E3,3.8447747E5,4.2990694E5,1.1425781E5,-9.217488E4,1.8788745E5,3.195521E5,-1.2507151E5],"categories":[],"categories_nodes":[],"categories_segments":[],"categories_sizes":[],"default_left":[0,0,0,0,0,0,0,0,0,0,0,0,0,0,0],"id":20,"left_children":[1,3,5,7,9,11,13,-1,-1,-1,-1,-1,-1,-1,-1],"loss_changes":[3.885207E13,3.2534381E13,2.5266462E13,3.2091262E13,2.6440473E11,5.277036E12,2.4871594E13,0E0,0E0,0E0,0E0,0E0,0E0,0E0,0E0],"parents":[2147483647,0,0,1,1,2,2,3,3,4,4,5,5,6,6],"right_children":[2,4,6,8,10,12,14,-1,-1,-1,-1,-1,-1,-1,-1],"split_conditions":[3.94131E11,1E0,7.134E0,1E0,2.01E3,1E0,1E0,-8.976649E3,3.8447747E5,4.2990694E5,1.1425781E5,-9.217488E4,1.8788745E5,3.195521E5,-1.2507151E5],"split_indices":[4,87,7,142,0,36,96,0,0,0,0,0,0,0,0],"split_type":[0,0,0,0,0,0,0,0,0,0,0,0,0,0,0],"sum_hessian":[8.31E2,8E2,3.1E1,7.96E2,4E0,9E0,2.2E1,7.92E2,4E0,3E0,1E0,8E0,1E0,1.9E1,3E0],"tree_param":{"num_deleted":"0","num_feature":"199","num_nodes":"15","size_leaf_vector":"1"}},{"base_weights":[1.5817876E4,-1.5317892E5,2.4332394E5,-1.7310198E5,2.2338844E5,1.3943776E6,1.5938234E5,-2.844461E4,2.4056961E5,1.5287561E5,4.92614E5,1.6368021E4,3.209676E5],"categories":[],"categories_nodes":[],"categories_segments":[],"categories_sizes":[],"default_left":[0,0,0,0,0,0,0,0,0,0,0,0,0],"id":21,"left_children":[1,3,5,7,-1,9,11,-1,-1,-1,-1,-1,-1],"loss_changes":[3.2025839E13,1.5450082E13,3.407832E13,8.971219E12,0E0,1.4314686E13,3.3873453E13,0E0,0E0,0E0,0E0,0E0,0E0],"parents":[2147483647,0,0,1,1,2,2,3,3,5,5,6,6],"right_children":[2,4,6,8,-1,10,12,-1,-1,-1,-1,-1,-1],"split_conditions":[1.0498E10,1E0,3.995E0,1E0,2.2338844E5,8.7715E10,1.5E1,-2.844461E4,2.4056961E5,1.5287561E5,4.92614E5,1.6368021E4,3.209676E5],"split_indices":[4,40,7,97,0,4,7,0,0,0,0,0,0],"split_type":[0,0,0,0,0,0,0,0,0,0,0,0,0],"sum_hessian":[8.31E2,4.77E2,3.54E2,4.72E2,5E0,2.3E1,3.31E2,4.7E2,2E0,2E1,3E0,3.23E2,8E0],"tree_param":{"num_deleted":"0","num_feature":"199","num_nodes":"13","size_leaf_vector":"1"}},{"base_weights":[1.5073792E4,-2.2450251E3,2.0565409E6,-1.7833277E4,3.299264E5,7.229964E5,5.5633806E5,-5.366305E3,3.0098506E5,4.116801E3,1.3785361E5],"categories":[],"categories_nodes":[],"categories_segments":[],"categories_sizes":[],"default_left":[0,0,0,0,0,0,0,0,0,0,0],"id":22,"left_children":[1,3,5,7,-1,9,-1,-1,-1,-1,-1],"loss_changes":[2.942064E13,2.7507013E13,1.1750005E13,2.7176949E13,0E0,5.593967E11,0E0,0E0,0E0,0E0,0E0],"parents":[2147483647,0,0,1,1,2,2,3,3,5,5],"right_children":[2,4,6,8,-1,10,-1,-1,-1,-1,-1],"split_conditions":[1E0,1E0,2.01E3,1E0,3.299264E5,1.995E3,5.5633806E5,-5.366305E3,3.0098506E5,4.116801E3,1.3785361E5],"split_indices":[188,87,0,66,0,0,0,0,0,0,0],"split_type":[0,0,0,0,0,0,0,0,0,0,0],"sum_hessian":[8.31E2,8.25E2,6E0,8.2E2,5E0,4E0,2E0,8.14E2,6E0,1E0,3E0],"tree_param":{"num_deleted":"0","num_feature":"199","num_nodes":"11","size_leaf_vector":"1"}},{"base_weights":[1.4331336E4,-5.37505E2,3.191271E5,-1.5421367E4,3.1560922E5,-9.28419E3,1.020573E5],"categories":[],"categories_nodes":[],"categories_segments":[],"categories_sizes":[],"default_left":[0,0,0,0,0,0,0],"id":23,"left_children":[1,3,-1,5,-1,-1,-1],"loss_changes":[2.5324702E13,2.5131594E13,0E0,2.4744563E13,0E0,0E0,0E0],"parents":[2147483647,0,0,1,1,3,3],"right_children":[2,4,-1,6,-1,-1,-1],"split_conditions":[1E0,1E0,3.191271E5,2.88786E11,3.1560922E5,-9.28419E3,1.020573E5],"split_indices":[155,14,0,4,0,0,0],"split_type":[0,0,0,0,0,0,0],"sum_hessian":[8.31E2,8.26E2,5E0,8.21E2,5E0,7.71E2,5E1],"tree_param":{"num_deleted":"0","num_feature":"199","num_nodes":"7","size_leaf_vector":"1"}},{"base_weights":[1.29870625E4,-1.3639445E3,1.9888696E6,-1.4581581E4,3.366469E5,1.27626016E5,3.6613634E5,-4.439074E3,2.955502E5],"categories":[],"categories_nodes":[],"categories_segments":[],"categories_sizes":[],"default_left":[0,0,0,0,0,0,0,0,0],"id":24,"left_children":[1,3,5,7,-1,-1,-1,-1,-1],"loss_changes":[2.3594824E13,2.381639E13,6.784119E11,2.2364897E13,0E0,0E0,0E0,0E0,0E0],"parents":[2147483647,0,0,1,1,2,2,3,3],"right_children":[2,4,6,8,-1,-1,-1,-1,-1],"split_conditions":[1E0,1E0,2.005E3,1E0,3.366469E5,1.27626016E5,3.6613634E5,-4.439074E3,2.955502E5],"split_indices":[157,142,0,186,0,0,0,0,0],"split_type":[0,0,0,0,0,0,0,0,0],"sum_hessian":[8.31E2,8.26E2,5E0,8.22E2,4E0,2E0,3E0,8.17E2,5E0],"tree_param":{"num_deleted":"0","num_feature":"199","num_nodes":"9","size_leaf_vector":"1"}},{"base_weights":[1.2324464E4,1.0961452E6,-1.1627805E4,5.3823194E5,3.7760153E5,-2.6892941E4,1.7542469E6,3.2952266E4,1.2899142E5,-6.557155E3,2.7103028E5,8.690723E4,4.888439E5],"categories":[],"categories_nodes":[],"categories_segments":[],"categories_sizes":[],"default_left":[0,0,0,0,0,0,0,0,0,0,0,0,0],"id":25,"left_children":[1,3,5,7,-1,9,11,-1,-1,-1,-1,-1,-1],"loss_changes":[2.1611437E13,1.2173487E13,2.2016575E13,1.1663513E12,0E0,2.2309839E13,9.945886E12,0E0,0E0,0E0,0E0,0E0,0E0],"parents":[2147483647,0,0,1,1,2,2,3,3,5,5,6,6],"right_children":[2,4,6,8,-1,10,12,-1,-1,-1,-1,-1,-1],"split_conditions":[2.595E0,3.571E10,1E0,2.0122E10,3.7760153E5,1E0,2.01E3,3.2952266E4,1.2899142E5,-6.557155E3,2.7103028E5,8.690723E4,4.888439E5],"split_indices":[7,4,188,4,0,36,0,0,0,0,0,0,0],"split_type":[0,0,0,0,0,0,0,0,0,0,0,0,0],"sum_hessian":[8.31E2,1.7E1,8.14E2,1.3E1,4E0,8.08E2,6E0,7E0,6E0,8.02E2,6E0,4E0,2E0],"tree_param":{"num_deleted":"0","num_feature":"199","num_nodes":"13","size_leaf_vector":"1"}},{"base_weights":[1.2074839E4,-1.3122859E3,2.8721844E5,-1.4721505E4,1.8359694E6,-4.3447476E3,2.7937475E5,3.4213684E5,1.1228329E5],"categories":[],"categories_nodes":[],"categories_segments":[],"categories_sizes":[],"default_left":[0,0,0,0,0,0,0,0,0],"id":26,"left_children":[1,3,-1,5,7,-1,-1,-1,-1],"loss_changes":[2.0531928E13,2.0401424E13,0E0,2.0004576E13,8.89679E11,0E0,0E0,0E0,0E0],"parents":[2147483647,0,0,1,1,3,3,4,4],"right_children":[2,4,-1,6,8,-1,-1,-1,-1],"split_conditions":[1E0,1E0,2.8721844E5,1E0,2.01E3,-4.3447476E3,2.7937475E5,3.4213684E5,1.1228329E5],"split_indices":[97,87,0,155,0,0,0,0,0],"split_type":[0,0,0,0,0,0,0,0,0],"sum_hessian":[8.31E2,8.26E2,5E0,8.21E2,5E0,8.16E2,5E0,3E0,2E0],"tree_param":{"num_deleted":"0","num_feature":"199","num_nodes":"9","size_leaf_vector":"1"}},{"base_weights":[1.1427437E4,-1.478692E3,2.7687122E5,-1.5368156E4,2.5200055E5,-4.2042075E3,2.9630312E5],"categories":[],"categories_nodes":[],"categories_segments":[],"categories_sizes":[],"default_left":[0,0,0,0,0,0,0],"id":27,"left_children":[1,3,-1,5,-1,-1,-1],"loss_changes":[1.9083785E13,1.8739504E13,0E0,1.8724367E13,0E0,0E0,0E0],"parents":[2147483647,0,0,1,1,3,3],"right_children":[2,4,-1,6,-1,-1,-1],"split_conditions":[1E0,1E0,2.7687122E5,1E0,2.5200055E5,-4.2042075E3,2.9630312E5],"split_indices":[14,66,0,142,0,0,0],"split_type":[0,0,0,0,0,0,0],"sum_hessian":[8.31E2,8.26E2,5E0,8.2E2,6E0,8.16E2,4E0],"tree_param":{"num_deleted":"0","num_feature":"199","num_nodes":"7","size_leaf_vector":"1"}},{"base_weights":[1.0645053E4,5.995999E5,-2.4585889E4,1.0555517E5,1.3221101E6,-3.888488E4,1.5722422E6,-6.9637563E3,1.6373933E5,1.5153381E5,3.660972E5,-8.0667666E3,2.5936977E5,7.720227E4,4.39273E5],"categories":[],"categories_nodes":[],"categories_segments":[],"categories_sizes":[],"default_left":[0,0,0,0,0,0,0,0,0,0,0,0,0,0,0],"id":28,"left_children":[1,3,5,7,9,11,13,-1,-1,-1,-1,-1,-1,-1,-1],"loss_changes":[1.727827E13,1.6637206E13,1.8007896E13,4.2040306E12,4.4861395E12,1.776596E13,8.0928697E12,0E0,0E0,0E0,0E0,0E0,0E0,0E0,0E0],"parents":[2147483647,0,0,1,1,2,2,3,3,4,4,5,5,6,6],"right_children":[2,4,6,8,10,12,14,-1,-1,-1,-1,-1,-1,-1,-1],"split_conditions":[3.995E0,1.4578E10,1E0,1E0,8.7715E10,1E0,2.01E3,-6.9637563E3,1.6373933E5,1.5153381E5,3.660972E5,-8.0667666E3,2.5936977E5,7.720227E4,4.39273E5],"split_indices":[7,4,188,95,4,186,0,0,0,0,0,0,0,0,0],"split_type":[0,0,0,0,0,0,0,0,0,0,0,0,0,0,0],"sum_hessian":[8.31E2,4.6E1,7.85E2,2.8E1,1.8E1,7.79E2,6E0,2.5E1,3E0,1.5E1,3E0,7.74E2,5E0,4E0,2E0],"tree_param":{"num_deleted":"0","num_feature":"199","num_nodes":"15","size_leaf_vector":"1"}},{"base_weights":[1.0730455E4,-2.1798972E3,2.3727016E5,-1.4161741E4,1.637699E6,-4.0569446E3,2.5174712E5,3.0383606E5,1.0196111E5],"categories":[],"categories_nodes":[],"categories_segments":[],"categories_sizes":[],"default_left":[0,0,0,0,0,0,0,0,0],"id":29,"left_children":[1,3,-1,5,7,-1,-1,-1,-1],"loss_changes":[1.6350576E13,1.625308E13,0E0,1.626153E13,6.160384E11,0E0,0E0,0E0,0E0],"parents":[2147483647,0,0,1,1,3,3,4,4],"right_children":[2,4,-1,6,8,-1,-1,-1,-1],"split_conditions":[1E0,1E0,2.3727016E5,1E0,2.01E3,-4.0569446E3,2.5174712E5,3.0383606E5,1.0196111E5],"split_indices":[36,87,0,97,0,0,0,0,0],"split_type":[0,0,0,0,0,0,0,0,0],"sum_hessian":[8.31E2,8.25E2,6E0,8.2E2,5E0,8.15E2,5E0,3E0,2E0],"tree_param":{"num_deleted":"0","num_feature":"199","num_nodes":"9","size_leaf_vector":"1"}},{"base_weights":[1.0139852E4,-1.501135E3,1.6129659E6,-1.3082404E4,2.4543872E5,9.118965E4,3.0617116E5,-3.8202188E3,2.4271581E5],"categories":[],"categories_nodes":[],"categories_segments":[],"categories_sizes":[],"default_left":[0,0,0,0,0,0,0,0,0],"id":30,"left_children":[1,3,5,7,-1,-1,-1,-1,-1],"loss_changes":[1.5526273E13,1.5219457E13,1.07573936E12,1.5104684E13,0E0,0E0,0E0,0E0,0E0],"parents":[2147483647,0,0,1,1,2,2,3,3],"right_children":[2,4,6,8,-1,-1,-1,-1,-1],"split_conditions":[1E0,1E0,2E3,1E0,2.4543872E5,9.118965E4,3.0617116E5,-3.8202188E3,2.4271581E5],"split_indices":[53,155,0,14,0,0,0,0,0],"split_type":[0,0,0,0,0,0,0,0,0],"sum_hessian":[8.31E2,8.26E2,5E0,8.21E2,5E0,2E0,3E0,8.16E2,5E0],"tree_param":{"num_deleted":"0","num_feature":"199","num_nodes":"9","size_leaf_vector":"1"}},{"base_weights":[9.629798E3,-1.5431436E3,2.3965573E5,-1.1815823E4,2.6158042E5,-3.7334238E3,2.2067647E5],"categories":[],"categories_nodes":[],"categories_segments":[],"categories_sizes":[],"default_left":[0,0,0,0,0,0,0],"id":31,"left_children":[1,3,-1,5,-1,-1,-1],"loss_changes":[1.4303169E13,1.4387493E13,0E0,1.4583273E13,0E0,0E0,0E0],"parents":[2147483647,0,0,1,1,3,3],"right_children":[2,4,-1,6,-1,-1,-1],"split_conditions":[1E0,1E0,2.3965573E5,1E0,2.6158042E5,-3.7334238E3,2.2067647E5],"split_indices":[89,142,0,66,0,0,0],"split_type":[0,0,0,0,0,0,0],"sum_hessian":[8.31E2,8.26E2,5E0,8.22E2,4E0,8.16E2,6E0],"tree_param":{"num_deleted":"0","num_feature":"199","num_nodes":"7","size_leaf_vector":"1"}},{"base_weights":[9.002173E3,-2.9033752E3,1.4125709E6,5.324863E5,-3.5160316E4,4.462048E5,3.9513425E5,2.6426713E4,2.0016095E5,-7.2389727E3,2.2740605E5,-1.4900955E4,9.379864E4],"categories":[],"categories_nodes":[],"categories_segments":[],"categories_sizes":[],"default_left":[0,0,0,0,0,0,0,0,0,0,0,0,0],"id":32,"left_children":[1,3,5,7,9,11,-1,-1,-1,-1,-1,-1,-1],"loss_changes":[1.3907033E13,1.428377E13,6.5710703E12,1.2709609E13,1.3676271E13,4.9140446E11,0E0,0E0,0E0,0E0,0E0,0E0,0E0],"parents":[2147483647,0,0,1,1,2,2,3,3,4,4,5,5],"right_children":[2,4,6,8,10,12,-1,-1,-1,-1,-1,-1,-1],"split_conditions":[1E0,3.995E0,2.01E3,2.0122E10,1E0,1.995E3,3.9513425E5,2.6426713E4,2.0016095E5,-7.2389727E3,2.2740605E5,-1.4900955E4,9.379864E4],"split_indices":[188,7,0,4,186,0,0,0,0,0,0,0,0],"split_type":[0,0,0,0,0,0,0,0,0,0,0,0,0],"sum_hessian":[8.31E2,8.25E2,6E0,4.6E1,7.79E2,4E0,2E0,3.2E1,1.4E1,7.74E2,5E0,1E0,3E0],"tree_param":{"num_deleted":"0","num_feature":"199","num_nodes":"13","size_leaf_vector":"1"}},{"base_weights":[8.715231E3,-1.8544796E3,1.4641212E6,-1.3309529E4,2.0774798E5,2.7027522E5,9.296455E4,-3.7107603E3,2.22719E5],"categories":[],"categories_nodes":[],"categories_segments":[],"categories_sizes":[],"default_left":[0,0,0,0,0,0,0,0,0],"id":33,"left_children":[1,3,5,7,-1,-1,-1,-1,-1],"loss_changes":[1.2801555E13,1.2747912E13,4.1130394E11,1.2741272E13,0E0,0E0,0E0,0E0,0E0],"parents":[2147483647,0,0,1,1,2,2,3,3],"right_children":[2,4,6,8,-1,-1,-1,-1,-1],"split_conditions":[1E0,1E0,2.01E3,1E0,2.0774798E5,2.7027522E5,9.296455E4,-3.7107603E3,2.22719E5],"split_indices":[87,36,0,53,0,0,0,0,0],"split_type":[0,0,0,0,0,0,0,0,0],"sum_hessian":[8.31E2,8.26E2,5E0,8.2E2,6E0,3E0,2E0,8.15E2,5E0],"tree_param":{"num_deleted":"0","num_feature":"199","num_nodes":"9","size_leaf_vector":"1"}},{"base_weights":[8.315515E3,-2.0218401E3,2.2165605E5,-1.2202651E4,2.156686E5,-3.467138E3,2.1329705E5],"categories":[],"categories_nodes":[],"categories_segments":[],"categories_sizes":[],"default_left":[0,0,0,0,0,0,0],"id":34,"left_children":[1,3,-1,5,-1,-1,-1],"loss_changes":[1.2245498E13,1.1763156E13,0E0,1.167684E13,0E0,0E0,0E0],"parents":[2147483647,0,0,1,1,3,3],"right_children":[2,4,-1,6,-1,-1,-1],"split_conditions":[1E0,1E0,2.2165605E5,1E0,2.156686E5,-3.467138E3,2.1329705E5],"split_indices":[97,155,0,14,0,0,0],"split_type":[0,0,0,0,0,0,0],"sum_hessian":[8.31E2,8.26E2,5E0,8.21E2,5E0,8.16E2,5E0],"tree_param":{"num_deleted":"0","num_feature":"199","num_nodes":"7","size_leaf_vector":"1"}},{"base_weights":[7.8059897E3,-2.8810151E3,1.2677574E6,-8.8212766E4,1.6748375E5,3.986484E5,3.5509372E5,-2.1334875E4,5.8893492E4,1.0127939E5,1.4204153E4,-1.3191969E4,8.374119E4],"categories":[],"categories_nodes":[],"categories_segments":[],"categories_sizes":[],"default_left":[0,0,0,0,0,0,0,0,0,0,0,0,0],"id":35,"left_children":[1,3,5,7,9,11,-1,-1,-1,-1,-1,-1,-1],"loss_changes":[1.1206621E13,1.2022769E13,5.327135E12,1.285918E13,1.011361E13,3.9028202E11,0E0,0E0,0E0,0E0,0E0,0E0,0E0],"parents":[2147483647,0,0,1,1,2,2,3,3,4,4,5,5],"right_children":[2,4,6,8,10,12,-1,-1,-1,-1,-1,-1,-1],"split_conditions":[1E0,2.1114E1,2.01E3,1.82921E11,4.348E0,1.995E3,3.5509372E5,-2.1334875E4,5.8893492E4,1.0127939E5,1.4204153E4,-1.3191969E4,8.374119E4],"split_indices":[188,5,0,4,7,0,0,0,0,0,0,0,0],"split_type":[0,0,0,0,0,0,0,0,0,0,0,0,0],"sum_hessian":[8.31E2,8.25E2,6E0,5.5E2,2.75E2,4E0,2E0,4.98E2,5.2E1,3.6E1,2.39E2,1E0,3E0],"tree_param":{"num_deleted":"0","num_feature":"199","num_nodes":"13","size_leaf_vector":"1"}},{"base_weights":[7.2930596E3,-2.5752693E3,2.1151586E5,-1.1669013E4,2.314106E5,-3.4175337E3,1.8647975E5],"categories":[],"categories_nodes":[],"categories_segments":[],"categories_sizes":[],"default_left":[0,0,0,0,0,0,0],"id":36,"left_children":[1,3,-1,5,-1,-1,-1],"loss_changes":[1.1161266E13,1.1278265E13,0E0,1.0442561E13,0E0,0E0,0E0],"parents":[2147483647,0,0,1,1,3,3],"right_children":[2,4,-1,6,-1,-1,-1],"split_conditions":[1E0,1E0,2.1151586E5,1E0,2.314106E5,-3.4175337E3,1.8647975E5],"split_indices":[89,142,0,66,0,0,0],"split_type":[0,0,0,0,0,0,0],"sum_hessian":[8.31E2,8.26E2,5E0,8.22E2,4E0,8.16E2,6E0],"tree_param":{"num_deleted":"0","num_feature":"199","num_nodes":"7","size_leaf_vector":"1"}},{"base_weights":[6.916382E3,-2.507685E3,2.0198738E5,-1.1984938E4,1.296294E6,-3.3314355E3,1.9943653E5,2.2248131E5,4.5848176E4],"categories":[],"categories_nodes":[],"categories_segments":[],"categories_sizes":[],"default_left":[0,0,0,0,0,0,0,0,0],"id":37,"left_children":[1,3,-1,5,7,-1,-1,-1,-1],"loss_changes":[1.0179076E13,1.0195138E13,0E0,1.0217588E13,4.1931506E11,0E0,0E0,0E0,0E0],"parents":[2147483647,0,0,1,1,3,3,4,4],"right_children":[2,4,-1,6,8,-1,-1,-1,-1],"split_conditions":[1E0,1E0,2.0198738E5,1E0,6.79396E0,-3.3314355E3,1.9943653E5,2.2248131E5,4.5848176E4],"split_indices":[40,87,0,186,3,0,0,0,0],"split_type":[0,0,0,0,0,0,0,0,0],"sum_hessian":[8.31E2,8.26E2,5E0,8.21E2,5E0,8.16E2,5E0,4E0,1E0],"tree_param":{"num_deleted":"0","num_feature":"199","num_nodes":"9","size_leaf_vector":"1"}},{"base_weights":[6.646625E3,-2.3585977E3,1.9301511E5,-1.2138774E4,1.7726973E5,-3.4063748E3,1.7619061E5],"categories":[],"categories_nodes":[],"categories_segments":[],"categories_sizes":[],"default_left":[0,0,0,0,0,0,0],"id":38,"left_children":[1,3,-1,5,-1,-1,-1],"loss_changes":[9.294288E12,9.294405E12,0E0,9.340224E12,0E0,0E0,0E0],"parents":[2147483647,0,0,1,1,3,3],"right_children":[2,4,-1,6,-1,-1,-1],"split_conditions":[1E0,1E0,1.9301511E5,1E0,1.7726973E5,-3.4063748E3,1.7619061E5],"split_indices":[97,36,0,188,0,0,0],"split_type":[0,0,0,0,0,0,0],"sum_hessian":[8.31E2,8.26E2,5E0,8.2E2,6E0,8.14E2,6E0],"tree_param":{"num_deleted":"0","num_feature":"199","num_nodes":"7","size_leaf_vector":"1"}},{"base_weights":[6.270358E3,-2.5641514E3,1.2229151E6,-1.15049375E4,1.2227509E6,7.224924E4,2.2979875E5,-3.1710056E3,1.8777184E5,5.755773E4,2.4077925E5],"categories":[],"categories_nodes":[],"categories_segments":[],"categories_sizes":[],"default_left":[0,0,0,0,0,0,0,0,0,0,0],"id":39,"left_children":[1,3,5,7,9,-1,-1,-1,-1,-1,-1],"loss_changes":[8.945855E12,9.074083E12,4.9353746E11,9.060584E12,1.1196149E12,0E0,0E0,0E0,0E0,0E0,0E0],"parents":[2147483647,0,0,1,1,2,2,3,3,4,4],"right_children":[2,4,6,8,10,-1,-1,-1,-1,-1,-1],"split_conditions":[1E0,1E0,2.005E3,1E0,2E3,7.224924E4,2.2979875E5,-3.1710056E3,1.8777184E5,5.755773E4,2.4077925E5],"split_indices":[157,53,0,14,0,0,0,0,0,0,0],"split_type":[0,0,0,0,0,0,0,0,0,0,0],"sum_hessian":[8.31E2,8.26E2,5E0,8.21E2,5E0,2E0,3E0,8.16E2,5E0,2E0,3E0],"tree_param":{"num_deleted":"0","num_feature":"199","num_nodes":"11","size_leaf_vector":"1"}},{"base_weights":[6.2431177E3,-1.6830541E3,2.039774E5,-1.1148675E4,1.718572E5,-3.0988755E3,1.8550627E5],"categories":[],"categories_nodes":[],"categories_segments":[],"categories_sizes":[],"default_left":[0,0,0,0,0,0,0],"id":40,"left_children":[1,3,-1,5,-1,-1,-1],"loss_changes":[8.649852E12,8.725949E12,0E0,8.840089E12,0E0,0E0,0E0],"parents":[2147483647,0,0,1,1,3,3],"right_children":[2,4,-1,6,-1,-1,-1],"split_conditions":[1E0,1E0,2.039774E5,1E0,1.718572E5,-3.0988755E3,1.8550627E5],"split_indices":[142,95,0,89,0,0,0],"split_type":[0,0,0,0,0,0,0],"sum_hessian":[8.31E2,8.27E2,4E0,8.21E2,6E0,8.16E2,5E0],"tree_param":{"num_deleted":"0","num_feature":"199","num_nodes":"7","size_leaf_vector":"1"}},{"base_weights":[5.947575E3,-2.7249307E3,1.8582523E5,6.50703E3,-1.6799011E5,-2.9370953E2,1.7778712E5],"categories":[],"categories_nodes":[],"categories_segments":[],"categories_sizes":[],"default_left":[0,0,0,0,0,0,0],"id":41,"left_children":[1,3,-1,5,-1,-1,-1],"loss_changes":[8.62127E12,8.270909E12,0E0,7.8810464E12,0E0,0E0,0E0],"parents":[2147483647,0,0,1,1,3,3],"right_children":[2,4,-1,6,-1,-1,-1],"split_conditions":[1E0,1E0,1.8582523E5,1E0,-1.6799011E5,-2.9370953E2,1.7778712E5],"split_indices":[155,102,0,87,0,0,0],"split_type":[0,0,0,0,0,0,0],"sum_hessian":[8.31E2,8.26E2,5E0,8.2E2,6E0,8.15E2,5E0],"tree_param":{"num_deleted":"0","num_feature":"199","num_nodes":"7","size_leaf_vector":"1"}},{"base_weights":[5.2615703E3,-3.011573E3,1.7721497E5,-1.2038138E4,1.6349944E5,-3.1618008E3,1.7499322E5],"categories":[],"categories_nodes":[],"categories_segments":[],"categories_sizes":[],"default_left":[0,0,0,0,0,0,0],"id":42,"left_children":[1,3,-1,5,-1,-1,-1],"loss_changes":[7.8464905E12,7.918991E12,0E0,7.8875124E12,0E0,0E0,0E0],"parents":[2147483647,0,0,1,1,3,3],"right_children":[2,4,-1,6,-1,-1,-1],"split_conditions":[1E0,1E0,1.7721497E5,1E0,1.6349944E5,-3.1618008E3,1.7499322E5],"split_indices":[40,66,0,186,0,0,0],"split_type":[0,0,0,0,0,0,0],"sum_hessian":[8.31E2,8.26E2,5E0,8.2E2,6E0,8.15E2,5E0],"tree_param":{"num_deleted":"0","num_feature":"199","num_nodes":"7","size_leaf_vector":"1"}},{"base_weights":[5.063047E3,1.2555528E4,-1.9145856E5,5.543495E1,1.47863E6,-1.1676785E4,2.3680012E4,5.3968094E4,2.880958E5],"categories":[],"categories_nodes":[],"categories_segments":[],"categories_sizes":[],"default_left":[0,0,0,0,0,0,0,0,0],"id":43,"left_children":[1,3,-1,5,7,-1,-1,-1,-1],"loss_changes":[7.756389E12,1.5173902E13,0E0,9.498364E12,2.3752857E12,0E0,0E0,0E0,0E0],"parents":[2147483647,0,0,1,1,3,3,4,4],"right_children":[2,4,-1,6,8,-1,-1,-1,-1],"split_conditions":[1E0,7.77073E11,-1.9145856E5,2.1114E1,2.72E0,-1.1676785E4,2.3680012E4,5.3968094E4,2.880958E5],"split_indices":[39,4,0,5,5,0,0,0,0],"split_type":[0,0,0,0,0,0,0,0,0],"sum_hessian":[8.31E2,8.27E2,4E0,8.21E2,6E0,5.5E2,2.71E2,2E0,4E0],"tree_param":{"num_deleted":"0","num_feature":"199","num_nodes":"9","size_leaf_vector":"1"}},{"base_weights":[4.474666E3,-4.0644648E3,1.5658658E5,6.2711625E5,-1.8103018E4,5.0237383E4,3.1458375E5,-4.0679758E3,1.6722595E5],"categories":[],"categories_nodes":[],"categories_segments":[],"categories_sizes":[],"default_left":[0,0,0,0,0,0,0,0,0],"id":44,"left_children":[1,3,-1,5,7,-1,-1,-1,-1],"loss_changes":[7.158245E12,7.330426E12,0E0,6.9931657E12,7.2906955E12,0E0,0E0,0E0,0E0],"parents":[2147483647,0,0,1,1,3,3,4,4],"right_children":[2,4,-1,6,8,-1,-1,-1,-1],"split_conditions":[1E0,2.595E0,1.5658658E5,1.14324E11,1E0,5.0237383E4,3.1458375E5,-4.0679758E3,1.6722595E5],"split_indices":[36,7,0,4,97,0,0,0,0],"split_type":[0,0,0,0,0,0,0,0,0],"sum_hessian":[8.31E2,8.25E2,6E0,1.7E1,8.08E2,1.5E1,2E0,8.03E2,5E0],"tree_param":{"num_deleted":"0","num_feature":"199","num_nodes":"9","size_leaf_vector":"1"}},{"base_weights":[4.604727E3,-3.166684E3,1.6642403E5,-1.0202756E4,1.7890311E5,-2.7791035E3,1.6222634E5],"categories":[],"categories_nodes":[],"categories_segments":[],"categories_sizes":[],"default_left":[0,0,0,0,0,0,0],"id":45,"left_children":[1,3,-1,5,-1,-1,-1],"loss_changes":[6.92436E12,6.754482E12,0E0,6.7662727E12,0E0,0E0,0E0],"parents":[2147483647,0,0,1,1,3,3],"right_children":[2,4,-1,6,-1,-1,-1],"split_conditions":[1E0,1E0,1.6642403E5,1E0,1.7890311E5,-2.7791035E3,1.6222634E5],"split_indices":[14,142,0,89,0,0,0],"split_type":[0,0,0,0,0,0,0],"sum_hessian":[8.31E2,8.26E2,5E0,8.22E2,4E0,8.17E2,5E0],"tree_param":{"num_deleted":"0","num_feature":"199","num_nodes":"7","size_leaf_vector":"1"}},{"base_weights":[4.498555E3,1.212591E4,-1.04755494E6,4.5656855E3,1.619126E5,-3.879878E4,-2.141644E5,-1.6497856E3,7.913303E4],"categories":[],"categories_nodes":[],"categories_segments":[],"categories_sizes":[],"default_left":[0,0,0,0,0,0,0,0,0],"id":46,"left_children":[1,3,5,7,-1,-1,-1,-1,-1],"loss_changes":[6.6889916E12,6.458419E12,1.2590498E12,6.3442036E12,0E0,0E0,0E0,0E0,0E0],"parents":[2147483647,0,0,1,1,2,2,3,3],"right_children":[2,4,6,8,-1,-1,-1,-1,-1],"split_conditions":[1E0,1E0,2E3,4.63872E11,1.619126E5,-3.879878E4,-2.141644E5,-1.6497856E3,7.913303E4],"split_indices":[137,155,0,4,0,0,0,0,0],"split_type":[0,0,0,0,0,0,0,0,0],"sum_hessian":[8.31E2,8.26E2,5E0,8.21E2,5E0,2E0,3E0,7.98E2,2.3E1],"tree_param":{"num_deleted":"0","num_feature":"199","num_nodes":"9","size_leaf_vector":"1"}},{"base_weights":[3.7858137E3,1.0598848E4,-1.7419769E5,1.4533607E2,1.2366258E6,-9.600327E3,1.9515717E4,1.0938008E5,3.4192206E5],"categories":[],"categories_nodes":[],"categories_segments":[],"categories_sizes":[],"default_left":[0,0,0,0,0,0,0,0,0],"id":47,"left_children":[1,3,-1,5,7,-1,-1,-1,-1],"loss_changes":[6.4115756E12,1.0611707E13,0E0,6.441213E12,2.0462688E12,0E0,0E0,0E0,0E0],"parents":[2147483647,0,0,1,1,3,3,4,4],"right_children":[2,4,-1,6,8,-1,-1,-1,-1],"split_conditions":[1E0,7.77073E11,-1.7419769E5,2.1114E1,2.015E3,-9.600327E3,1.9515717E4,1.0938008E5,3.4192206E5],"split_indices":[39,4,0,5,0,0,0,0,0],"split_type":[0,0,0,0,0,0,0,0,0],"sum_hessian":[8.31E2,8.27E2,4E0,8.21E2,6E0,5.5E2,2.71E2,5E0,1E0],"tree_param":{"num_deleted":"0","num_feature":"199","num_nodes":"9","size_leaf_vector":"1"}},{"base_weights":[3.5446948E3,1.145098E4,-1.4396162E5,-9.4086E3,3.6536144E5,-2.4738757E3,1.9677186E5,7.532945E4,-2.3753433E5],"categories":[],"categories_nodes":[],"categories_segments":[],"categories_sizes":[],"default_left":[0,0,0,0,0,0,0,0,0],"id":48,"left_children":[1,3,-1,5,7,-1,-1,-1,-1],"loss_changes":[6.150898E12,6.1013203E12,0E0,6.5915474E12,1.1339496E13,0E0,0E0,0E0,0E0],"parents":[2147483647,0,0,1,1,3,3,4,4],"right_children":[2,4,-1,6,8,-1,-1,-1,-1],"split_conditions":[1E0,2.88786E11,-1.4396162E5,1E0,1E0,-2.4738757E3,1.9677186E5,7.532945E4,-2.3753433E5],"split_indices":[96,4,0,87,18,0,0,0,0],"split_type":[0,0,0,0,0,0,0,0,0],"sum_hessian":[8.31E2,8.25E2,6E0,7.8E2,4.5E1,7.77E2,3E0,4.3E1,2E0],"tree_param":{"num_deleted":"0","num_feature":"199","num_nodes":"9","size_leaf_vector":"1"}},{"base_weights":[2.8614778E3,1.078904E4,-1.4444095E5,2.8595918E3,9.38126E5,-6.9474695E2,1.5487261E5,5.8564316E4,1.6818983E5],"categories":[],"categories_nodes":[],"categories_segments":[],"categories_sizes":[],"default_left":[0,0,0,0,0,0,0,0,0],"id":49,"left_children":[1,3,-1,5,7,-1,-1,-1,-1],"loss_changes":[6.1827554E12,6.071119E12,0E0,6.014289E12,1.701E11,0E0,0E0,0E0,0E0],"parents":[2147483647,0,0,1,1,3,3,4,4],"right_children":[2,4,-1,6,8,-1,-1,-1,-1],"split_conditions":[1E0,1E0,-1.4444095E5,1E0,2E3,-6.9474695E2,1.5487261E5,5.8564316E4,1.6818983E5],"split_indices":[102,95,0,157,0,0,0,0,0],"split_type":[0,0,0,0,0,0,0,0,0],"sum_hessian":[8.31E2,8.25E2,6E0,8.19E2,6E0,8.14E2,5E0,2E0,4E0],"tree_param":{"num_deleted":"0","num_feature":"199","num_nodes":"9","size_leaf_vector":"1"}},{"base_weights":[2.702726E3,-4.389058E3,1.5167645E5,-1.1501488E4,1.5028452E5,-2.8696738E3,1.4681364E5],"categories":[],"categories_nodes":[],"categories_segments":[],"categories_sizes":[],"default_left":[0,0,0,0,0,0,0],"id":50,"left_children":[1,3,-1,5,-1,-1,-1],"loss_changes":[5.769155E12,5.746887E12,0E0,5.56791E12,0E0,0E0,0E0],"parents":[2147483647,0,0,1,1,3,3],"right_children":[2,4,-1,6,-1,-1,-1],"split_conditions":[1E0,1E0,1.5167645E5,1E0,1.5028452E5,-2.8696738E3,1.4681364E5],"split_indices":[186,40,0,14,0,0,0],"split_type":[0,0,0,0,0,0,0],"sum_hessian":[8.31E2,8.26E2,5E0,8.21E2,5E0,8.16E2,5E0],"tree_param":{"num_deleted":"0","num_feature":"199","num_nodes":"7","size_leaf_vector":"1"}},{"base_weights":[2.8202466E3,9.695543E3,-9.4529475E5,1.5986306E4,-1.5910233E5,-3.468288E4,-1.9350445E5,7.3844886E-1,9.696412E4],"categories":[],"categories_nodes":[],"categories_segments":[],"categories_sizes":[],"default_left":[0,0,0,0,0,0,0,0,0],"id":51,"left_children":[1,3,5,7,-1,-1,-1,-1,-1],"loss_changes":[5.4326167E12,5.413455E12,1.0382711E12,8.027708E12,0E0,0E0,0E0,0E0,0E0],"parents":[2147483647,0,0,1,1,2,2,3,3],"right_children":[2,4,6,8,-1,-1,-1,-1,-1],"split_conditions":[1E0,1E0,2E3,4.63872E11,-1.5910233E5,-3.468288E4,-1.9350445E5,7.3844886E-1,9.696412E4],"split_indices":[137,39,0,4,0,0,0,0,0],"split_type":[0,0,0,0,0,0,0,0,0],"sum_hessian":[8.31E2,8.26E2,5E0,8.22E2,4E0,2E0,3E0,8.02E2,2E1],"tree_param":{"num_deleted":"0","num_feature":"199","num_nodes":"9","size_leaf_vector":"1"}},{"base_weights":[2.0346896E3,-4.759296E3,1.452357E5,-1.2135907E4,1.3330862E5,8.1945734E4,-3.7531343E3],"categories":[],"categories_nodes":[],"categories_segments":[],"categories_sizes":[],"default_left":[0,0,0,0,0,0,0],"id":52,"left_children":[1,3,-1,5,-1,-1,-1],"loss_changes":[5.295852E12,5.292537E12,0E0,5.394825E12,0E0,0E0,0E0],"parents":[2147483647,0,0,1,1,3,3],"right_children":[2,4,-1,6,-1,-1,-1],"split_conditions":[1E0,1E0,1.452357E5,2.595E0,1.3330862E5,8.1945734E4,-3.7531343E3],"split_indices":[97,36,0,7,0,0,0],"split_type":[0,0,0,0,0,0,0],"sum_hessian":[8.31E2,8.26E2,5E0,8.2E2,6E0,1.7E1,8.03E2],"tree_param":{"num_deleted":"0","num_feature":"199","num_nodes":"7","size_leaf_vector":"1"}},{"base_weights":[2.148462E3,-3.9864973E3,1.5754877E5,-1.0721693E4,1.4250928E5,-2.7062327E3,1.4127188E5],"categories":[],"categories_nodes":[],"categories_segments":[],"categories_sizes":[],"default_left":[0,0,0,0,0,0,0],"id":53,"left_children":[1,3,-1,5,-1,-1,-1],"loss_changes":[5.187559E12,5.1656167E12,0E0,5.1516083E12,0E0,0E0,0E0],"parents":[2147483647,0,0,1,1,3,3],"right_children":[2,4,-1,6,-1,-1,-1],"split_conditions":[1E0,1E0,1.5754877E5,1E0,1.4250928E5,-2.7062327E3,1.4127188E5],"split_indices":[142,89,0,155,0,0,0],"split_type":[0,0,0,0,0,0,0],"sum_hessian":[8.31E2,8.27E2,4E0,8.22E2,5E0,8.17E2,5E0],"tree_param":{"num_deleted":"0","num_feature":"199","num_nodes":"7","size_leaf_vector":"1"}},{"base_weights":[2.3430413E3,9.47423E3,-1.2996161E5,2.4301838E3,8.3328056E5,-6.3702637E2,1.3794688E5,3.294896E4,1.3952062E5],"categories":[],"categories_nodes":[],"categories_segments":[],"categories_sizes":[],"default_left":[0,0,0,0,0,0,0,0,0],"id":54,"left_children":[1,3,-1,5,7,-1,-1,-1,-1],"loss_changes":[5.002568E12,4.7911954E12,0E0,4.7727976E12,1.032538E11,0E0,0E0,0E0,0E0],"parents":[2147483647,0,0,1,1,3,3,4,4],"right_children":[2,4,-1,6,8,-1,-1,-1,-1],"split_conditions":[1E0,1E0,-1.2996161E5,1E0,1.995E3,-6.3702637E2,1.3794688E5,3.294896E4,1.3952062E5],"split_indices":[96,95,0,87,0,0,0,0,0],"split_type":[0,0,0,0,0,0,0,0,0],"sum_hessian":[8.31E2,8.25E2,6E0,8.19E2,6E0,8.14E2,5E0,1E0,5E0],"tree_param":{"num_deleted":"0","num_feature":"199","num_nodes":"9","size_leaf_vector":"1"}},{"base_weights":[2.1964272E3,-4.667111E3,8.117801E5,-1.097509E4,1.330239E5,2.8015934E5,1.4992089E5,-2.684945E3,1.3266006E5,1.0376066E4,5.468261E4],"categories":[],"categories_nodes":[],"categories_segments":[],"categories_sizes":[],"default_left":[0,0,0,0,0,0,0,0,0,0,0],"id":55,"left_children":[1,3,5,7,-1,9,-1,-1,-1,-1,-1],"loss_changes":[4.626887E12,4.5107894E12,3.1151882E11,4.5522365E12,0E0,2.3039492E10,0E0,0E0,0E0,0E0,0E0],"parents":[2147483647,0,0,1,1,2,2,3,3,5,5],"right_children":[2,4,6,8,-1,10,-1,-1,-1,-1,-1],"split_conditions":[1E0,1E0,8.573E0,1E0,1.330239E5,2.01E3,1.4992089E5,-2.684945E3,1.3266006E5,1.0376066E4,5.468261E4],"split_indices":[66,186,7,69,0,0,0,0,0,0,0],"split_type":[0,0,0,0,0,0,0,0,0,0,0],"sum_hessian":[8.31E2,8.25E2,6E0,8.2E2,5E0,2E0,4E0,8.15E2,5E0,1E0,1E0],"tree_param":{"num_deleted":"0","num_feature":"199","num_nodes":"11","size_leaf_vector":"1"}},{"base_weights":[2.4308804E3,9.214216E3,-7.9835E5,3.0316555E3,1.3215792E5,-3.511392E4,-1.3248995E5,-4.9912012E2,1.3210188E5],"categories":[],"categories_nodes":[],"categories_segments":[],"categories_sizes":[],"default_left":[0,0,0,0,0,0,0,0,0],"id":56,"left_children":[1,3,5,7,-1,-1,-1,-1,-1],"loss_changes":[4.5267514E12,4.3098178E12,3.57491E10,4.3696277E12,0E0,0E0,0E0,0E0,0E0],"parents":[2147483647,0,0,1,1,2,2,3,3],"right_children":[2,4,6,8,-1,-1,-1,-1,-1],"split_conditions":[1E0,1E0,1.995E3,1E0,1.3215792E5,-3.511392E4,-1.3248995E5,-4.9912012E2,1.3210188E5],"split_indices":[102,40,0,157,0,0,0,0,0],"split_type":[0,0,0,0,0,0,0,0,0],"sum_hessian":[8.31E2,8.25E2,6E0,8.2E2,5E0,1E0,5E0,8.15E2,5E0],"tree_param":{"num_deleted":"0","num_feature":"199","num_nodes":"9","size_leaf_vector":"1"}},{"base_weights":[2.1701194E3,-4.4452227E3,7.8247044E5,-1.0571301E4,1.2919922E5,-8.089983E4,2.2451414E5,-2.5829375E3,1.27340766E5,-2.9571295E4,1.9308168E4],"categories":[],"categories_nodes":[],"categories_segments":[],"categories_sizes":[],"default_left":[0,0,0,0,0,0,0,0,0,0,0],"id":57,"left_children":[1,3,5,7,-1,9,-1,-1,-1,-1,-1],"loss_changes":[4.2982236E12,4.2542432E12,4.1529476E12,4.1948558E12,0E0,1.1438763E11,0E0,0E0,0E0,0E0,0E0],"parents":[2147483647,0,0,1,1,2,2,3,3,5,5],"right_children":[2,4,6,8,-1,10,-1,-1,-1,-1,-1],"split_conditions":[1E0,1E0,2.005E3,1E0,1.2919922E5,2E3,2.2451414E5,-2.5829375E3,1.27340766E5,-2.9571295E4,1.9308168E4],"split_indices":[61,14,0,97,0,0,0,0,0,0,0],"split_type":[0,0,0,0,0,0,0,0,0,0,0],"sum_hessian":[8.31E2,8.25E2,6E0,8.2E2,5E0,3E0,3E0,8.15E2,5E0,2E0,1E0],"tree_param":{"num_deleted":"0","num_feature":"199","num_nodes":"11","size_leaf_vector":"1"}},{"base_weights":[2.3969128E3,8.40605E3,-8.26262E5,1.3854746E4,-1.3780422E5,-2.977567E4,-1.6954303E5,8.659873E2,1.511061E5],"categories":[],"categories_nodes":[],"categories_segments":[],"categories_sizes":[],"default_left":[0,0,0,0,0,0,0,0,0],"id":58,"left_children":[1,3,5,7,-1,-1,-1,-1,-1],"loss_changes":[4.1499107E12,4.0612022E12,8.120804E11,6.536332E12,0E0,0E0,0E0,0E0,0E0],"parents":[2147483647,0,0,1,1,2,2,3,3],"right_children":[2,4,6,8,-1,-1,-1,-1,-1],"split_conditions":[1E0,1E0,2E3,7.77073E11,-1.3780422E5,-2.977567E4,-1.6954303E5,8.659873E2,1.511061E5],"split_indices":[137,39,0,4,0,0,0,0,0],"split_type":[0,0,0,0,0,0,0,0,0],"sum_hessian":[8.31E2,8.26E2,5E0,8.22E2,4E0,2E0,3E0,8.16E2,6E0],"tree_param":{"num_deleted":"0","num_feature":"199","num_nodes":"9","size_leaf_vector":"1"}},{"base_weights":[1.8032886E3,-3.598987E3,1.3872211E5,-1.0045275E4,1.16712914E5,-2.4814683E3,1.2483847E5],"categories":[],"categories_nodes":[],"categories_segments":[],"categories_sizes":[],"default_left":[0,0,0,0,0,0,0],"id":59,"left_children":[1,3,-1,5,-1,-1,-1],"loss_changes":[4.0226322E12,4.0507096E12,0E0,4.0284476E12,0E0,0E0,0E0],"parents":[2147483647,0,0,1,1,3,3],"right_children":[2,4,-1,6,-1,-1,-1],"split_conditions":[1E0,1E0,1.3872211E5,1E0,1.16712914E5,-2.4814683E3,1.2483847E5],"split_indices":[142,36,0,89,0,0,0],"split_type":[0,0,0,0,0,0,0],"sum_hessian":[8.31E2,8.27E2,4E0,8.21E2,6E0,8.16E2,5E0],"tree_param":{"num_deleted":"0","num_feature":"199","num_nodes":"7","size_leaf_vector":"1"}},{"base_weights":[1.9781849E3,-3.8247415E3,1.24080734E5,2.4871695E5,-2.249018E4,2.5779793E4,2.5896064E5,-4.459662E3,1.2194099E5],"categories":[],"categories_nodes":[],"categories_segments":[],"categories_sizes":[],"default_left":[0,0,0,0,0,0,0,0,0],"id":60,"left_children":[1,3,-1,5,7,-1,-1,-1,-1],"loss_changes":[3.8631128E12,3.9039072E12,0E0,6.393133E12,3.968153E12,0E0,0E0,0E0,0E0],"parents":[2147483647,0,0,1,1,3,3,4,4],"right_children":[2,4,-1,6,8,-1,-1,-1,-1],"split_conditions":[1E0,4.348E0,1.24080734E5,1.14324E11,1E0,2.5779793E4,2.5896064E5,-4.459662E3,1.2194099E5],"split_indices":[155,7,0,4,12,0,0,0,0],"split_type":[0,0,0,0,0,0,0,0,0],"sum_hessian":[8.31E2,8.26E2,5E0,5.6E1,7.7E2,5.4E1,2E0,7.65E2,5E0],"tree_param":{"num_deleted":"0","num_feature":"199","num_nodes":"9","size_leaf_vector":"1"}},{"base_weights":[2.304513E3,-3.3838352E3,7.8596444E5,-9.587201E3,7.246658E5,1.910134E5,3.9256816E4,-2.4434172E3,1.1040478E5,4.0960227E4,1.3248714E5],"categories":[],"categories_nodes":[],"categories_segments":[],"categories_sizes":[],"default_left":[0,0,0,0,0,0,0,0,0,0,0],"id":61,"left_children":[1,3,5,7,9,-1,-1,-1,-1,-1,-1],"loss_changes":[3.711491E12,3.741976E12,1.1177626E12,3.687606E12,1.9586404E11,0E0,0E0,0E0,0E0,0E0,0E0],"parents":[2147483647,0,0,1,1,2,2,3,3,4,4],"right_children":[2,4,6,8,10,-1,-1,-1,-1,-1,-1],"split_conditions":[1E0,1E0,2.005E3,1E0,8.573E0,1.910134E5,3.9256816E4,-2.4434172E3,1.1040478E5,4.0960227E4,1.3248714E5],"split_indices":[87,66,0,95,7,0,0,0,0,0,0],"split_type":[0,0,0,0,0,0,0,0,0,0,0],"sum_hessian":[8.31E2,8.26E2,5E0,8.2E2,6E0,2E0,3E0,8.14E2,6E0,2E0,4E0],"tree_param":{"num_deleted":"0","num_feature":"199","num_nodes":"11","size_leaf_vector":"1"}},{"base_weights":[2.5627478E3,8.647732E3,-1.108204E5,1.368254E4,-8.208042E5,-9.224663E2,4.1456934E4,-2.6160436E4,-1.4575925E5],"categories":[],"categories_nodes":[],"categories_segments":[],"categories_sizes":[],"default_left":[0,0,0,0,0,0,0,0,0],"id":62,"left_children":[1,3,-1,5,7,-1,-1,-1,-1],"loss_changes":[3.6432102E12,3.4607145E12,0E0,4.1040976E12,2.3431374E11,0E0,0E0,0E0,0E0],"parents":[2147483647,0,0,1,1,3,3,4,4],"right_children":[2,4,-1,6,8,-1,-1,-1,-1],"split_conditions":[1E0,1E0,-1.108204E5,2.02653E11,2E3,-9.224663E2,4.1456934E4,-2.6160436E4,-1.4575925E5],"split_indices":[96,119,0,4,0,0,0,0,0],"split_type":[0,0,0,0,0,0,0,0,0],"sum_hessian":[8.31E2,8.25E2,6E0,8.21E2,4E0,7.63E2,5.8E1,1E0,3E0],"tree_param":{"num_deleted":"0","num_feature":"199","num_nodes":"9","size_leaf_vector":"1"}},{"base_weights":[1.8748898E3,7.8762573E3,-7.065543E5,1.2882727E4,-8.167625E5,-3.146513E4,-1.1712648E5,2.8526987E3,-1.15206914E5,3.9796135E3,-2.1472272E5],"categories":[],"categories_nodes":[],"categories_segments":[],"categories_sizes":[],"default_left":[0,0,0,0,0,0,0,0,0,0,0],"id":63,"left_children":[1,3,5,7,9,-1,-1,-1,-1,-1,-1],"loss_changes":[3.5428497E12,3.4206864E12,2.2427206E10,3.4636793E12,2.4375903E12,0E0,0E0,0E0,0E0,0E0,0E0],"parents":[2147483647,0,0,1,1,2,2,3,3,4,4],"right_children":[2,4,6,8,10,-1,-1,-1,-1,-1,-1],"split_conditions":[1E0,1E0,1.995E3,1E0,2.005E3,-3.146513E4,-1.1712648E5,2.8526987E3,-1.15206914E5,3.9796135E3,-2.1472272E5],"split_indices":[102,18,0,137,0,0,0,0,0,0,0],"split_type":[0,0,0,0,0,0,0,0,0,0,0],"sum_hessian":[8.31E2,8.25E2,6E0,8.21E2,4E0,1E0,5E0,8.16E2,5E0,2E0,2E0],"tree_param":{"num_deleted":"0","num_feature":"199","num_nodes":"11","size_leaf_vector":"1"}},{"base_weights":[1.0177066E3,-4.464348E3,7.56458E5,-9.974496E3,1.16291266E5,1.270459E5,3.3715016E4,-2.4578567E3,1.0518421E5],"categories":[],"categories_nodes":[],"categories_segments":[],"categories_sizes":[],"default_left":[0,0,0,0,0,0,0,0,0],"id":64,"left_children":[1,3,5,7,-1,-1,-1,-1,-1],"loss_changes":[3.4489932E12,3.4508371E12,2.87184E10,3.3552264E12,0E0,0E0,0E0,0E0,0E0],"parents":[2147483647,0,0,1,1,2,2,3,3],"right_children":[2,4,6,8,-1,-1,-1,-1,-1],"split_conditions":[1E0,1E0,2.484E1,1E0,1.16291266E5,1.270459E5,3.3715016E4,-2.4578567E3,1.0518421E5],"split_indices":[186,40,1,61,0,0,0,0,0],"split_type":[0,0,0,0,0,0,0,0,0],"sum_hessian":[8.31E2,8.26E2,5E0,8.21E2,5E0,4E0,1E0,8.15E2,6E0],"tree_param":{"num_deleted":"0","num_feature":"199","num_nodes":"9","size_leaf_vector":"1"}},{"base_weights":[1.3166141E3,6.189284E3,-1.2475816E5,-7.3746204E2,8.18703E5,-3.39534E4,3.229245E3,5.1477375E4,2.8917988E5],"categories":[],"categories_nodes":[],"categories_segments":[],"categories_sizes":[],"default_left":[0,0,0,0,0,0,0,0,0],"id":65,"left_children":[1,3,-1,5,7,-1,-1,-1,-1],"loss_changes":[3.2773348E12,4.660651E12,0E0,3.8848703E12,2.9497444E12,0E0,0E0,0E0,0E0],"parents":[2147483647,0,0,1,1,3,3,4,4],"right_children":[2,4,-1,6,8,-1,-1,-1,-1],"split_conditions":[1E0,7.77073E11,-1.2475816E5,1.602E1,2.015E3,-3.39534E4,3.229245E3,5.1477375E4,2.8917988E5],"split_indices":[39,4,0,6,0,0,0,0,0],"split_type":[0,0,0,0,0,0,0,0,0],"sum_hessian":[8.31E2,8.27E2,4E0,8.21E2,6E0,7.3E1,7.48E2,5E0,1E0],"tree_param":{"num_deleted":"0","num_feature":"199","num_nodes":"9","size_leaf_vector":"1"}},{"base_weights":[1.3353582E3,-4.0103247E3,1.1424093E5,-9.324129E3,7.246492E5,-2.2723804E3,1.1166282E5,-9.692545E3,1.3849961E5],"categories":[],"categories_nodes":[],"categories_segments":[],"categories_sizes":[],"default_left":[0,0,0,0,0,0,0,0,0],"id":66,"left_children":[1,3,-1,5,7,-1,-1,-1,-1],"loss_changes":[3.279026E12,3.2088628E12,0E0,3.225967E12,8.588847E11,0E0,0E0,0E0,0E0],"parents":[2147483647,0,0,1,1,3,3,4,4],"right_children":[2,4,-1,6,8,-1,-1,-1,-1],"split_conditions":[1E0,1E0,1.1424093E5,1E0,1.995E3,-2.2723804E3,1.1166282E5,-9.692545E3,1.3849961E5],"split_indices":[14,69,0,97,0,0,0,0,0],"split_type":[0,0,0,0,0,0,0,0,0],"sum_hessian":[8.31E2,8.26E2,5E0,8.21E2,5E0,8.16E2,5E0,1E0,4E0],"tree_param":{"num_deleted":"0","num_feature":"199","num_nodes":"9","size_leaf_vector":"1"}},{"base_weights":[1.5522323E3,-3.2123767E3,1.2234309E5,-8.391619E3,1.09568086E5,6.2085453E4,-2.7130608E3],"categories":[],"categories_nodes":[],"categories_segments":[],"categories_sizes":[],"default_left":[0,0,0,0,0,0,0],"id":67,"left_children":[1,3,-1,5,-1,-1,-1],"loss_changes":[3.1291023E12,3.0548065E12,0E0,3.0844857E12,0E0,0E0,0E0],"parents":[2147483647,0,0,1,1,3,3],"right_children":[2,4,-1,6,-1,-1,-1],"split_conditions":[1E0,1E0,1.2234309E5,2.595E0,1.09568086E5,6.2085453E4,-2.7130608E3],"split_indices":[142,89,0,7,0,0,0],"split_type":[0,0,0,0,0,0,0],"sum_hessian":[8.31E2,8.27E2,4E0,8.22E2,5E0,1.7E1,8.05E2],"tree_param":{"num_deleted":"0","num_feature":"199","num_nodes":"7","size_leaf_vector":"1"}},{"base_weights":[1.6620164E3,-3.4598833E3,1.0950788E5,-8.61275E3,7.030595E5,-2.203935E3,1.00340125E5,1.2639599E5,1.0539355E4],"categories":[],"categories_nodes":[],"categories_segments":[],"categories_sizes":[],"default_left":[0,0,0,0,0,0,0,0,0],"id":68,"left_children":[1,3,-1,5,7,-1,-1,-1,-1],"loss_changes":[3.0096954E12,3.0168315E12,0E0,3.0449567E12,3.7638714E11,0E0,0E0,0E0,0E0],"parents":[2147483647,0,0,1,1,3,3,4,4],"right_children":[2,4,-1,6,8,-1,-1,-1,-1],"split_conditions":[1E0,1E0,1.0950788E5,1E0,1.819E1,-2.203935E3,1.00340125E5,1.2639599E5,1.0539355E4],"split_indices":[155,53,0,36,5,0,0,0,0],"split_type":[0,0,0,0,0,0,0,0,0],"sum_hessian":[8.31E2,8.26E2,5E0,8.21E2,5E0,8.15E2,6E0,4E0,1E0],"tree_param":{"num_deleted":"0","num_feature":"199","num_nodes":"9","size_leaf_vector":"1"}},{"base_weights":[1.8188749E3,-3.237667E3,6.9847575E5,-8.307158E3,1.0710343E5,1.7176234E5,3.3378473E4,-2.1220474E3,9.634987E4],"categories":[],"categories_nodes":[],"categories_segments":[],"categories_sizes":[],"default_left":[0,0,0,0,0,0,0,0,0],"id":69,"left_children":[1,3,5,7,-1,-1,-1,-1,-1],"loss_changes":[2.9331269E12,2.9197646E12,9.5156175E11,2.8079198E12,0E0,0E0,0E0,0E0,0E0],"parents":[2147483647,0,0,1,1,2,2,3,3],"right_children":[2,4,6,8,-1,-1,-1,-1,-1],"split_conditions":[1E0,1E0,2.005E3,1E0,1.0710343E5,1.7176234E5,3.3378473E4,-2.1220474E3,9.634987E4],"split_indices":[87,12,0,95,0,0,0,0,0],"split_type":[0,0,0,0,0,0,0,0,0],"sum_hessian":[8.31E2,8.26E2,5E0,8.21E2,5E0,2E0,3E0,8.15E2,6E0],"tree_param":{"num_deleted":"0","num_feature":"199","num_nodes":"9","size_leaf_vector":"1"}},{"base_weights":[2.02584E3,-2.839609E3,6.7230925E5,-7.756225E3,1.0391239E5,5.2115723E4,1.8195836E5,-1.9577354E3,1.0207303E5],"categories":[],"categories_nodes":[],"categories_segments":[],"categories_sizes":[],"default_left":[0,0,0,0,0,0,0,0,0],"id":70,"left_children":[1,3,5,7,-1,-1,-1,-1,-1],"loss_changes":[2.7152524E12,2.7459204E12,6.174626E11,2.689488E12,0E0,0E0,0E0,0E0,0E0],"parents":[2147483647,0,0,1,1,2,2,3,3],"right_children":[2,4,6,8,-1,-1,-1,-1,-1],"split_conditions":[1E0,1E0,2.015E3,1E0,1.0391239E5,5.2115723E4,1.8195836E5,-1.9577354E3,1.0207303E5],"split_indices":[157,186,0,40,0,0,0,0,0],"split_type":[0,0,0,0,0,0,0,0,0],"sum_hessian":[8.31E2,8.26E2,5E0,8.21E2,5E0,4E0,1E0,8.16E2,5E0],"tree_param":{"num_deleted":"0","num_feature":"199","num_nodes":"9","size_leaf_vector":"1"}},{"base_weights":[2.2387756E3,7.460883E3,-9.510034E4,1.190149E4,-7.2406706E5,-5.670642E2,5.1570785E4,4.6523394E3,-1.9147794E5],"categories":[],"categories_nodes":[],"categories_segments":[],"categories_sizes":[],"default_left":[0,0,0,0,0,0,0,0,0],"id":71,"left_children":[1,3,-1,5,7,-1,-1,-1,-1],"loss_changes":[2.683272E12,2.691819E12,0E0,4.1108056E12,1.9705863E12,0E0,0E0,0E0,0E0],"parents":[2147483647,0,0,1,1,3,3,4,4],"right_children":[2,4,-1,6,8,-1,-1,-1,-1],"split_conditions":[1E0,1E0,-9.510034E4,3.11851E11,2.005E3,-5.670642E2,5.1570785E4,4.6523394E3,-1.9147794E5],"split_indices":[96,18,0,4,0,0,0,0,0],"split_type":[0,0,0,0,0,0,0,0,0],"sum_hessian":[8.31E2,8.25E2,6E0,8.21E2,4E0,7.84E2,3.7E1,2E0,2E0],"tree_param":{"num_deleted":"0","num_feature":"199","num_nodes":"9","size_leaf_vector":"1"}},{"base_weights":[1.6146256E3,6.017765E3,-1.1268383E5,1.711061E3,8.92771E5,-2.8604922E4,3.105456E3,8.500294E3,2.636756E5],"categories":[],"categories_nodes":[],"categories_segments":[],"categories_sizes":[],"default_left":[0,0,0,0,0,0,0,0,0],"id":72,"left_children":[1,3,-1,5,7,-1,-1,-1,-1],"loss_changes":[2.6767762E12,3.1605908E12,0E0,2.8265336E12,2.6225415E12,0E0,0E0,0E0,0E0],"parents":[2147483647,0,0,1,1,3,3,4,4],"right_children":[2,4,-1,6,8,-1,-1,-1,-1],"split_conditions":[1E0,1.396247E12,-1.1268383E5,1.602E1,2.015E3,-2.8604922E4,3.105456E3,8.500294E3,2.636756E5],"split_indices":[39,4,0,6,0,0,0,0,0],"split_type":[0,0,0,0,0,0,0,0,0],"sum_hessian":[8.31E2,8.27E2,4E0,8.24E2,3E0,7.3E1,7.51E2,2E0,1E0],"tree_param":{"num_deleted":"0","num_feature":"199","num_nodes":"9","size_leaf_vector":"1"}},{"base_weights":[1.5257054E3,5.9052456E3,-7.240313E5,1.0744814E4,-6.589065E5,-2.3740145E4,-1.2824221E5,2.467467E3,-9.2415336E4,-3.06997E4,-1.6308233E5],"categories":[],"categories_nodes":[],"categories_segments":[],"categories_sizes":[],"default_left":[0,0,0,0,0,0,0,0,0,0,0],"id":73,"left_children":[1,3,5,7,9,-1,-1,-1,-1,-1,-1],"loss_changes":[2.6480437E12,2.671089E12,1.7068327E11,2.6069398E12,8.8137427E11,0E0,0E0,0E0,0E0,0E0,0E0],"parents":[2147483647,0,0,1,1,2,2,3,3,4,4],"right_children":[2,4,6,8,10,-1,-1,-1,-1,-1,-1],"split_conditions":[1E0,1E0,2E3,1E0,2.005E3,-2.3740145E4,-1.2824221E5,2.467467E3,-9.2415336E4,-3.06997E4,-1.6308233E5],"split_indices":[119,137,0,102,0,0,0,0,0,0,0],"split_type":[0,0,0,0,0,0,0,0,0,0,0],"sum_hessian":[8.31E2,8.27E2,4E0,8.22E2,5E0,1E0,3E0,8.16E2,6E0,3E0,2E0],"tree_param":{"num_deleted":"0","num_feature":"199","num_nodes":"11","size_leaf_vector":"1"}},{"base_weights":[7.6581213E2,-3.9550906E3,1.008356E5,-8.187004E3,6.934089E5,-1.9923595E3,9.777192E4,1.1978007E5,2.8812518E4],"categories":[],"categories_nodes":[],"categories_segments":[],"categories_sizes":[],"default_left":[0,0,0,0,0,0,0,0,0],"id":74,"left_children":[1,3,-1,5,7,-1,-1,-1,-1],"loss_changes":[2.5578795E12,2.4463058E12,0E0,2.4734207E12,5.9676295E10,0E0,0E0,0E0,0E0],"parents":[2147483647,0,0,1,1,3,3,4,4],"right_children":[2,4,-1,6,8,-1,-1,-1,-1],"split_conditions":[1E0,1E0,1.008356E5,1E0,3.027E1,-1.9923595E3,9.777192E4,1.1978007E5,2.8812518E4],"split_indices":[14,142,0,97,1,0,0,0,0],"split_type":[0,0,0,0,0,0,0,0,0],"sum_hessian":[8.31E2,8.26E2,5E0,8.22E2,4E0,8.17E2,5E0,3E0,1E0],"tree_param":{"num_deleted":"0","num_feature":"199","num_nodes":"9","size_leaf_vector":"1"}},{"base_weights":[1.06217E3,-3.088103E3,1.0653259E5,-7.6819995E3,6.27556E5,-1.9655895E3,8.9587336E4,3.9594793E4,1.16035125E5],"categories":[],"categories_nodes":[],"categories_segments":[],"categories_sizes":[],"default_left":[0,0,0,0,0,0,0,0,0],"id":75,"left_children":[1,3,-1,5,7,-1,-1,-1,-1],"loss_changes":[2.374606E12,2.4036308E12,0E0,2.4272196E12,8.037125E10,0E0,0E0,0E0,0E0],"parents":[2147483647,0,0,1,1,3,3,4,4],"right_children":[2,4,-1,6,8,-1,-1,-1,-1],"split_conditions":[1E0,1E0,1.0653259E5,1E0,2.005E3,-1.9655895E3,8.9587336E4,3.9594793E4,1.16035125E5],"split_indices":[189,155,0,61,0,0,0,0,0],"split_type":[0,0,0,0,0,0,0,0,0],"sum_hessian":[8.31E2,8.27E2,4E0,8.22E2,5E0,8.16E2,6E0,2E0,3E0],"tree_param":{"num_deleted":"0","num_feature":"199","num_nodes":"9","size_leaf_vector":"1"}},{"base_weights":[1.3181329E3,-3.5670664E3,5.775834E5,5.366398E5,-8.839457E3,1.7927283E5,1.0853248E5,1.1590358E4,1.23654266E5,-2.0852864E3,9.610804E4,3.769322E2,4.125385E4],"categories":[],"categories_nodes":[],"categories_segments":[],"categories_sizes":[],"default_left":[0,0,0,0,0,0,0,0,0,0,0,0,0],"id":76,"left_children":[1,3,5,7,9,11,-1,-1,-1,-1,-1,-1,-1],"loss_changes":[2.3442822E12,2.3573417E12,2.1857488E11,9.084134E11,2.3960386E12,4.5612933E10,0E0,0E0,0E0,0E0,0E0,0E0,0E0],"parents":[2147483647,0,0,1,1,2,2,3,3,4,4,5,5],"right_children":[2,4,6,8,10,12,-1,-1,-1,-1,-1,-1,-1],"split_conditions":[1E0,1.883E0,8.573E0,2.3403E10,1E0,2.01E3,1.0853248E5,1.1590358E4,1.23654266E5,-2.0852864E3,9.610804E4,3.769322E2,4.125385E4],"split_indices":[66,7,7,4,89,0,0,0,0,0,0,0,0],"split_type":[0,0,0,0,0,0,0,0,0,0,0,0,0],"sum_hessian":[8.31E2,8.25E2,6E0,7E0,8.18E2,2E0,4E0,3E0,4E0,8.13E2,5E0,1E0,1E0],"tree_param":{"num_deleted":"0","num_feature":"199","num_nodes":"13","size_leaf_vector":"1"}},{"base_weights":[1.5701156E3,-2.9295278E3,6.215093E5,-7.435916E3,6.1493394E5,-8.1656E3,1.1872788E5,-1.8496038E3,9.414268E4,1.5434402E5,2.704211E4],"categories":[],"categories_nodes":[],"categories_segments":[],"categories_sizes":[],"default_left":[0,0,0,0,0,0,0,0,0,0,0],"id":77,"left_children":[1,3,5,7,9,-1,-1,-1,-1,-1,-1],"loss_changes":[2.3226892E12,2.3072156E12,6.28669E11,2.289907E12,8.3501515E11,0E0,0E0,0E0,0E0,0E0,0E0],"parents":[2147483647,0,0,1,1,2,2,3,3,4,4],"right_children":[2,4,6,8,10,-1,-1,-1,-1,-1,-1],"split_conditions":[1E0,1E0,1.995E3,1E0,2.005E3,-8.1656E3,1.1872788E5,-1.8496038E3,9.414268E4,1.5434402E5,2.704211E4],"split_indices":[69,87,0,157,0,0,0,0,0,0,0],"split_type":[0,0,0,0,0,0,0,0,0,0,0],"sum_hessian":[8.31E2,8.26E2,5E0,8.21E2,5E0,1E0,4E0,8.16E2,5E0,2E0,3E0],"tree_param":{"num_deleted":"0","num_feature":"199","num_nodes":"11","size_leaf_vector":"1"}},{"base_weights":[1.7888641E3,6.269174E3,-6.1604525E5,1.879521E3,9.391092E4,-5.1222227E4,-1.2244797E5,-4.4371283E2,8.589305E4],"categories":[],"categories_nodes":[],"categories_segments":[],"categories_sizes":[],"default_left":[0,0,0,0,0,0,0,0,0],"id":78,"left_children":[1,3,5,7,-1,-1,-1,-1,-1],"loss_changes":[2.3069115E12,2.178231E12,3.756471E10,2.1585466E12,0E0,0E0,0E0,0E0,0E0],"parents":[2147483647,0,0,1,1,2,2,3,3],"right_children":[2,4,6,8,-1,-1,-1,-1,-1],"split_conditions":[1E0,1E0,2.01E3,1E0,9.391092E4,-5.1222227E4,-1.2244797E5,-4.4371283E2,8.589305E4],"split_indices":[52,12,0,36,0,0,0,0,0],"split_type":[0,0,0,0,0,0,0,0,0],"sum_hessian":[8.31E2,8.26E2,5E0,8.21E2,5E0,3E0,2E0,8.15E2,6E0],"tree_param":{"num_deleted":"0","num_feature":"199","num_nodes":"9","size_leaf_vector":"1"}},{"base_weights":[1.5187625E3,5.4392905E3,-6.480245E5,9.392431E3,-6.47126E5,-2.995658E4,-1.1042539E5,-1.0383254E4,6.7171704E3,4.45741E3,-1.714305E5],"categories":[],"categories_nodes":[],"categories_segments":[],"categories_sizes":[],"default_left":[0,0,0,0,0,0,0,0,0,0,0],"id":79,"left_children":[1,3,5,7,9,-1,-1,-1,-1,-1,-1],"loss_changes":[2.1222566E12,2.1420549E12,1.0280501E10,2.1448357E12,1.5872022E12,0E0,0E0,0E0,0E0,0E0,0E0],"parents":[2147483647,0,0,1,1,2,2,3,3,4,4],"right_children":[2,4,6,8,10,-1,-1,-1,-1,-1,-1],"split_conditions":[1E0,1E0,2.005E3,2.283E9,2.005E3,-2.995658E4,-1.1042539E5,-1.0383254E4,6.7171704E3,4.45741E3,-1.714305E5],"split_indices":[192,18,0,4,0,0,0,0,0,0,0],"split_type":[0,0,0,0,0,0,0,0,0,0,0],"sum_hessian":[8.31E2,8.27E2,4E0,8.23E2,4E0,1E0,3E0,2.53E2,5.7E2,2E0,2E0],"tree_param":{"num_deleted":"0","num_feature":"199","num_nodes":"11","size_leaf_vector":"1"}},{"base_weights":[9.0982263E2,5.1802314E3,-5.878465E5,9.099955E3,-6.410423E5,-9.59129E3,-8.353044E5,2.0190519E3,-9.883287E4,-2.1777148E4,-1.13163945E5,-3.9507277E4,-1.4608369E5],"categories":[],"categories_nodes":[],"categories_segments":[],"categories_sizes":[],"default_left":[0,0,0,0,0,0,0,0,0,0,0,0,0],"id":80,"left_children":[1,3,5,7,9,-1,11,-1,-1,-1,-1,-1,-1],"loss_changes":[2.0948846E12,2.1006362E12,7.290674E11,2.1089207E12,1.2216317E11,0E0,1.0516431E10,0E0,0E0,0E0,0E0,0E0,0E0],"parents":[2147483647,0,0,1,1,2,2,3,3,4,4,6,6],"right_children":[2,4,6,8,10,-1,12,-1,-1,-1,-1,-1,-1],"split_conditions":[1E0,1E0,2E3,1E0,2E3,-9.59129E3,2.005E3,2.0190519E3,-9.883287E4,-2.1777148E4,-1.13163945E5,-3.9507277E4,-1.4608369E5],"split_indices":[137,119,0,39,0,0,0,0,0,0,0,0,0],"split_type":[0,0,0,0,0,0,0,0,0,0,0,0,0],"sum_hessian":[8.31E2,8.26E2,5E0,8.22E2,4E0,2E0,3E0,8.18E2,4E0,1E0,3E0,1E0,2E0],"tree_param":{"num_deleted":"0","num_feature":"199","num_nodes":"13","size_leaf_vector":"1"}},{"base_weights":[2.558213E2,4.8161084E3,-8.327336E4,9.361162E3,-5.282925E5,7.96954E2,8.9809125E4,-5.740744E3,-9.3504375E4],"categories":[],"categories_nodes":[],"categories_segments":[],"categories_sizes":[],"default_left":[0,0,0,0,0,0,0,0,0],"id":81,"left_children":[1,3,-1,5,7,-1,-1,-1,-1],"loss_changes":[2.0444189E12,2.0063494E12,0E0,1.9689172E12,2.3785557E11,0E0,0E0,0E0,0E0],"parents":[2147483647,0,0,1,1,3,3,4,4],"right_children":[2,4,-1,6,8,-1,-1,-1,-1],"split_conditions":[1E0,1E0,-8.327336E4,1E0,1.995E3,7.96954E2,8.9809125E4,-5.740744E3,-9.3504375E4],"split_indices":[96,86,0,186,0,0,0,0,0],"split_type":[0,0,0,0,0,0,0,0,0],"sum_hessian":[8.31E2,8.25E2,6E0,8.19E2,6E0,8.14E2,5E0,1E0,5E0],"tree_param":{"num_deleted":"0","num_feature":"199","num_nodes":"9","size_leaf_vector":"1"}},{"base_weights":[1.0574402E2,-4.4370215E3,5.3613694E5,-8.643011E3,5.7182206E5,2.1369887E4,1.0337981E5,-2.0473845E3,8.143933E4,2.0862127E4,1.17142086E5],"categories":[],"categories_nodes":[],"categories_segments":[],"categories_sizes":[],"default_left":[0,0,0,0,0,0,0,0,0,0,0],"id":82,"left_children":[1,3,5,7,9,-1,-1,-1,-1,-1,-1],"loss_changes":[2.0283522E12,2.0069514E12,2.7464565E11,2.0182954E12,3.8276733E11,0E0,0E0,0E0,0E0,0E0,0E0],"parents":[2147483647,0,0,1,1,2,2,3,3,4,4],"right_children":[2,4,6,8,10,-1,-1,-1,-1,-1,-1],"split_conditions":[1E0,1E0,2E3,1E0,2E3,2.1369887E4,1.0337981E5,-2.0473845E3,8.143933E4,2.0862127E4,1.17142086E5],"split_indices":[95,53,0,176,0,0,0,0,0,0,0],"split_type":[0,0,0,0,0,0,0,0,0,0,0],"sum_hessian":[8.31E2,8.25E2,6E0,8.2E2,5E0,2E0,4E0,8.14E2,6E0,2E0,3E0],"tree_param":{"num_deleted":"0","num_feature":"199","num_nodes":"11","size_leaf_vector":"1"}},{"base_weights":[5.006141E2,-3.6376333E3,8.836842E4,-7.793738E3,8.76794E4,-1.7973419E3,9.568406E4],"categories":[],"categories_nodes":[],"categories_segments":[],"categories_sizes":[],"default_left":[0,0,0,0,0,0,0],"id":83,"left_children":[1,3,-1,5,-1,-1,-1],"loss_changes":[1.965649E12,1.9635343E12,0E0,1.9703159E12,0E0,0E0,0E0],"parents":[2147483647,0,0,1,1,3,3],"right_children":[2,4,-1,6,-1,-1,-1],"split_conditions":[1E0,1E0,8.836842E4,1E0,8.76794E4,-1.7973419E3,9.568406E4],"split_indices":[40,14,0,11,0,0,0],"split_type":[0,0,0,0,0,0,0],"sum_hessian":[8.31E2,8.26E2,5E0,8.21E2,5E0,8.17E2,4E0],"tree_param":{"num_deleted":"0","num_feature":"199","num_nodes":"7","size_leaf_vector":"1"}},{"base_weights":[7.475477E2,-2.9704758E3,6.1630275E5,-7.056639E3,8.638749E4,1.0594851E5,2.6632975E4,-1.7296539E3,8.595997E4],"categories":[],"categories_nodes":[],"categories_segments":[],"categories_sizes":[],"default_left":[0,0,0,0,0,0,0,0,0],"id":84,"left_children":[1,3,5,7,-1,-1,-1,-1,-1],"loss_changes":[1.9059866E12,1.9019271E12,3.3451016E10,1.9109298E12,0E0,0E0,0E0,0E0,0E0],"parents":[2147483647,0,0,1,1,2,2,3,3],"right_children":[2,4,6,8,-1,-1,-1,-1,-1],"split_conditions":[1E0,1E0,3.027E1,1E0,8.638749E4,1.0594851E5,2.6632975E4,-1.7296539E3,8.595997E4],"split_indices":[142,92,1,155,0,0,0,0,0],"split_type":[0,0,0,0,0,0,0,0,0],"sum_hessian":[8.31E2,8.27E2,4E0,8.22E2,5E0,3E0,1E0,8.17E2,5E0],"tree_param":{"num_deleted":"0","num_feature":"199","num_nodes":"9","size_leaf_vector":"1"}},{"base_weights":[9.9622754E2,5.3592324E3,-5.1398066E5,9.432679E3,-5.529172E5,-2.0920969E4,-8.585935E4,8.4082794E2,8.546595E4,-4.5734465E4,-1.1021881E5],"categories":[],"categories_nodes":[],"categories_segments":[],"categories_sizes":[],"default_left":[0,0,0,0,0,0,0,0,0,0,0],"id":85,"left_children":[1,3,5,7,9,-1,-1,-1,-1,-1,-1],"loss_changes":[1.872131E12,1.8836293E12,3.2768393E10,1.7796265E12,3.5379085E10,0E0,0E0,0E0,0E0,0E0,0E0],"parents":[2147483647,0,0,1,1,2,2,3,3,4,4],"right_children":[2,4,6,8,10,-1,-1,-1,-1,-1,-1],"split_conditions":[1E0,1E0,1.995E3,1E0,2.01E3,-2.0920969E4,-8.585935E4,8.4082794E2,8.546595E4,-4.5734465E4,-1.1021881E5],"split_indices":[102,52,0,97,0,0,0,0,0,0,0],"split_type":[0,0,0,0,0,0,0,0,0,0,0],"sum_hessian":[8.31E2,8.25E2,6E0,8.2E2,5E0,1E0,5E0,8.15E2,5E0,3E0,2E0],"tree_param":{"num_deleted":"0","num_feature":"199","num_nodes":"11","size_leaf_vector":"1"}},{"base_weights":[6.2994946E2,-3.0057275E3,9.32863E4,-7.34918E3,5.0746906E5,-1.7658661E3,8.458003E4,2.5346816E4,9.478021E4],"categories":[],"categories_nodes":[],"categories_segments":[],"categories_sizes":[],"default_left":[0,0,0,0,0,0,0,0,0],"id":86,"left_children":[1,3,-1,5,7,-1,-1,-1,-1],"loss_changes":[1.8226158E12,1.83959E12,0E0,1.8527913E12,1.5182122E11,0E0,0E0,0E0,0E0],"parents":[2147483647,0,0,1,1,3,3,4,4],"right_children":[2,4,-1,6,8,-1,-1,-1,-1],"split_conditions":[1E0,1E0,9.32863E4,1E0,8.573E0,-1.7658661E3,8.458003E4,2.5346816E4,9.478021E4],"split_indices":[189,66,0,87,7,0,0,0,0],"split_type":[0,0,0,0,0,0,0,0,0],"sum_hessian":[8.31E2,8.27E2,4E0,8.21E2,6E0,8.16E2,5E0,2E0,4E0],"tree_param":{"num_deleted":"0","num_feature":"199","num_nodes":"9","size_leaf_vector":"1"}},{"base_weights":[8.884655E2,-3.368154E3,5.0304266E5,-7.346473E3,5.415599E5,-6.862585E4,1.9942189E5,-1.7591074E3,8.36135E4,-7.7340186E3,1.0370255E5,-4.5283914E4,2.75769E4],"categories":[],"categories_nodes":[],"categories_segments":[],"categories_sizes":[],"default_left":[0,0,0,0,0,0,0,0,0,0,0,0,0],"id":87,"left_children":[1,3,5,7,9,11,-1,-1,-1,-1,-1,-1,-1],"loss_changes":[1.780077E12,1.794662E12,3.2301177E12,1.8112402E12,4.887954E11,3.2832278E11,0E0,0E0,0E0,0E0,0E0,0E0,0E0],"parents":[2147483647,0,0,1,1,2,2,3,3,4,4,5,5],"right_children":[2,4,6,8,10,12,-1,-1,-1,-1,-1,-1,-1],"split_conditions":[1E0,1E0,2.01E3,1E0,1.995E3,2E3,1.9942189E5,-1.7591074E3,8.36135E4,-7.7340186E3,1.0370255E5,-4.5283914E4,2.75769E4],"split_indices":[61,69,0,89,0,0,0,0,0,0,0,0,0],"split_type":[0,0,0,0,0,0,0,0,0,0,0,0,0],"sum_hessian":[8.31E2,8.25E2,6E0,8.2E2,5E0,4E0,2E0,8.15E2,5E0,1E0,4E0,2E0,2E0],"tree_param":{"num_deleted":"0","num_feature":"199","num_nodes":"13","size_leaf_vector":"1"}},{"base_weights":[1.1830548E3,-2.6474648E3,5.289592E5,-6.512367E3,8.16309E4,2.197943E5,1.6060227E5,-1.6532174E3,7.432615E4,7.835112E3,3.8616355E4],"categories":[],"categories_nodes":[],"categories_segments":[],"categories_sizes":[],"default_left":[0,0,0,0,0,0,0,0,0,0,0],"id":88,"left_children":[1,3,5,7,-1,9,-1,-1,-1,-1,-1],"loss_changes":[1.6834189E12,1.6972446E12,7.1512424E11,1.6716713E12,0E0,1.2452086E10,0E0,0E0,0E0,0E0,0E0],"parents":[2147483647,0,0,1,1,2,2,3,3,5,5],"right_children":[2,4,6,8,-1,10,-1,-1,-1,-1,-1],"split_conditions":[1E0,1E0,2.015E3,1E0,8.16309E4,2E3,1.6060227E5,-1.6532174E3,7.432615E4,7.835112E3,3.8616355E4],"split_indices":[157,12,0,36,0,0,0,0,0,0,0],"split_type":[0,0,0,0,0,0,0,0,0,0,0],"sum_hessian":[8.31E2,8.26E2,5E0,8.21E2,5E0,4E0,1E0,8.15E2,6E0,1E0,3E0],"tree_param":{"num_deleted":"0","num_feature":"199","num_nodes":"11","size_leaf_vector":"1"}},{"base_weights":[1.4342147E3,4.9113135E3,-5.746602E5,8.745098E3,-5.2177466E5,3.0551E4,-1.5300498E5,-9.7865753E2,2.6072611E4,-7.660663E3,-1.1542116E5,3.4760715E4,-2.7666152E4],"categories":[],"categories_nodes":[],"categories_segments":[],"categories_sizes":[],"default_left":[0,0,0,0,0,0,0,0,0,0,0,0,0],"id":89,"left_children":[1,3,5,7,9,11,-1,-1,-1,-1,-1,-1,-1],"loss_changes":[1.6694326E12,1.6764608E12,1.2819456E12,1.9809197E12,5.972298E11,1.6190177E11,0E0,0E0,0E0,0E0,0E0,0E0,0E0],"parents":[2147483647,0,0,1,1,2,2,3,3,4,4,5,5],"right_children":[2,4,6,8,10,12,-1,-1,-1,-1,-1,-1,-1],"split_conditions":[1E0,1E0,2.005E3,1.82921E11,2E3,2E3,-1.5300498E5,-9.7865753E2,2.6072611E4,-7.660663E3,-1.1542116E5,3.4760715E4,-2.7666152E4],"split_indices":[18,137,0,4,0,0,0,0,0,0,0,0,0],"split_type":[0,0,0,0,0,0,0,0,0,0,0,0,0],"sum_hessian":[8.31E2,8.27E2,4E0,8.22E2,5E0,2E0,2E0,7.52E2,7E1,2E0,3E0,1E0,1E0],"tree_param":{"num_deleted":"0","num_feature":"199","num_nodes":"13","size_leaf_vector":"1"}},{"base_weights":[9.190441E2,4.383022E3,-8.8692586E4,4.8270316E2,8.07728E5,-3.4138723E4,1.9535332E3,5.576177E3,2.4173016E5],"categories":[],"categories_nodes":[],"categories_segments":[],"categories_sizes":[],"default_left":[0,0,0,0,0,0,0,0,0],"id":90,"left_children":[1,3,-1,5,7,-1,-1,-1,-1],"loss_changes":[1.656273E12,2.5939836E12,0E0,2.2154426E12,2.2703086E12,0E0,0E0,0E0,0E0],"parents":[2147483647,0,0,1,1,3,3,4,4],"right_children":[2,4,-1,6,8,-1,-1,-1,-1],"split_conditions":[1E0,1.396247E12,-8.8692586E4,1.42E1,2.015E3,-3.4138723E4,1.9535332E3,5.576177E3,2.4173016E5],"split_indices":[39,4,0,6,0,0,0,0,0],"split_type":[0,0,0,0,0,0,0,0,0],"sum_hessian":[8.31E2,8.27E2,4E0,8.24E2,3E0,4.2E1,7.82E2,2E0,1E0],"tree_param":{"num_deleted":"0","num_feature":"199","num_nodes":"9","size_leaf_vector":"1"}},{"base_weights":[9.287177E2,4.3939355E3,-5.730971E5,8.531006E3,-7.462694E4,-1.946137E4,-1.0117328E5,1.8673942E3,-8.838013E4],"categories":[],"categories_nodes":[],"categories_segments":[],"categories_sizes":[],"default_left":[0,0,0,0,0,0,0,0,0],"id":91,"left_children":[1,3,5,7,-1,-1,-1,-1,-1],"loss_changes":[1.6574698E12,1.670403E12,9.774249E10,1.6887201E12,0E0,0E0,0E0,0E0,0E0],"parents":[2147483647,0,0,1,1,2,2,3,3],"right_children":[2,4,6,8,-1,-1,-1,-1,-1],"split_conditions":[1E0,1E0,2E3,1E0,-7.462694E4,-1.946137E4,-1.0117328E5,1.8673942E3,-8.838013E4],"split_indices":[119,96,0,192,0,0,0,0,0],"split_type":[0,0,0,0,0,0,0,0,0],"sum_hessian":[8.31E2,8.27E2,4E0,8.21E2,6E0,1E0,3E0,8.17E2,4E0],"tree_param":{"num_deleted":"0","num_feature":"199","num_nodes":"9","size_leaf_vector":"1"}},{"base_weights":[4.4626218E2,4.4707697E5,-3.8852432E3,6.1780756E5,-4.3409875E4,-7.9757725E3,4.7526172E5,2.3977168E4,1.25484555E5,-1.5516107E4,5.435454E3,-1.8256445E3,7.9134734E4,1.9682648E4,9.1198125E4],"categories":[],"categories_nodes":[],"categories_segments":[],"categories_sizes":[],"default_left":[0,0,0,0,0,0,0,0,0,0,0,0,0,0,0],"id":92,"left_children":[1,3,5,7,9,11,13,-1,-1,-1,-1,-1,-1,-1,-1],"loss_changes":[1.6113103E12,6.9674756E11,1.6207616E12,4.0982938E11,1.6902029E10,1.6288165E12,2.0247439E11,0E0,0E0,0E0,0E0,0E0,0E0,0E0,0E0],"parents":[2147483647,0,0,1,1,2,2,3,3,4,4,5,5,6,6],"right_children":[2,4,6,8,10,12,14,-1,-1,-1,-1,-1,-1,-1,-1],"split_conditions":[1.883E0,1E0,1E0,2.3403E10,2.015E3,1E0,2E3,2.3977168E4,1.25484555E5,-1.5516107E4,5.435454E3,-1.8256445E3,7.9134734E4,1.9682648E4,9.1198125E4],"split_indices":[7,153,95,4,0,186,0,0,0,0,0,0,0,0,0],"split_type":[0,0,0,0,0,0,0,0,0,0,0,0,0,0,0],"sum_hessian":[8.31E2,7E0,8.24E2,5E0,2E0,8.18E2,6E0,2E0,3E0,1E0,1E0,8.13E2,5E0,2E0,4E0],"tree_param":{"num_deleted":"0","num_feature":"199","num_nodes":"15","size_leaf_vector":"1"}},{"base_weights":[7.708877E2,-3.1616094E3,4.646954E5,-6.5228804E3,5.500636E5,-2.038991E4,7.295973E5,-1.5860428E3,7.761947E4,9.403238E4,2.482845E4,3.0259143E4,1.26059836E5],"categories":[],"categories_nodes":[],"categories_segments":[],"categories_sizes":[],"default_left":[0,0,0,0,0,0,0,0,0,0,0,0,0],"id":93,"left_children":[1,3,5,7,9,-1,11,-1,-1,-1,-1,-1,-1],"loss_changes":[1.5193548E12,1.539568E12,1.202008E12,1.5590307E12,1.4288028E10,0E0,6.697989E10,0E0,0E0,0E0,0E0,0E0,0E0],"parents":[2147483647,0,0,1,1,2,2,3,3,4,4,6,6],"right_children":[2,4,6,8,10,-1,12,-1,-1,-1,-1,-1,-1],"split_conditions":[1E0,1E0,2E3,1E0,3.027E1,-2.038991E4,2.005E3,-1.5860428E3,7.761947E4,9.403238E4,2.482845E4,3.0259143E4,1.26059836E5],"split_indices":[176,142,0,40,1,0,0,0,0,0,0,0,0],"split_type":[0,0,0,0,0,0,0,0,0,0,0,0,0],"sum_hessian":[8.31E2,8.25E2,6E0,8.21E2,4E0,2E0,4E0,8.16E2,5E0,3E0,1E0,1E0,3E0],"tree_param":{"num_deleted":"0","num_feature":"199","num_nodes":"13","size_leaf_vector":"1"}},{"base_weights":[1.0491671E3,-2.5744216E3,7.7457164E4,-6.172432E3,4.907821E5,-1.4564918E4,2.3556924E3,1.6787436E4,1.0137897E5],"categories":[],"categories_nodes":[],"categories_segments":[],"categories_sizes":[],"default_left":[0,0,0,0,0,0,0,0,0],"id":94,"left_children":[1,3,-1,5,7,-1,-1,-1,-1],"loss_changes":[1.5065197E12,1.4710386E12,0E0,1.5469905E12,3.0536486E11,0E0,0E0,0E0,0E0],"parents":[2147483647,0,0,1,1,3,3,4,4],"right_children":[2,4,-1,6,8,-1,-1,-1,-1],"split_conditions":[1E0,1E0,7.7457164E4,5.11E0,2E3,-1.4564918E4,2.3556924E3,1.6787436E4,1.0137897E5],"split_indices":[14,53,0,5,0,0,0,0,0],"split_type":[0,0,0,0,0,0,0,0,0],"sum_hessian":[8.31E2,8.26E2,5E0,8.21E2,5E0,1.6E2,6.61E2,2E0,3E0],"tree_param":{"num_deleted":"0","num_feature":"199","num_nodes":"9","size_leaf_vector":"1"}},{"base_weights":[1.1071881E3,-2.468608E3,7.644483E4,-6.0511763E3,4.8875466E5,-1.495639E3,7.531405E4,2.676447E4,9.342539E4],"categories":[],"categories_nodes":[],"categories_segments":[],"categories_sizes":[],"default_left":[0,0,0,0,0,0,0,0,0],"id":95,"left_children":[1,3,-1,5,7,-1,-1,-1,-1],"loss_changes":[1.4669707E12,1.458346E12,0E0,1.4661448E12,1.1308433E11,0E0,0E0,0E0,0E0],"parents":[2147483647,0,0,1,1,3,3,4,4],"right_children":[2,4,-1,6,8,-1,-1,-1,-1],"split_conditions":[1E0,1E0,7.644483E4,1E0,2.005E3,-1.495639E3,7.531405E4,2.676447E4,9.342539E4],"split_indices":[92,155,0,97,0,0,0,0,0],"split_type":[0,0,0,0,0,0,0,0,0],"sum_hessian":[8.31E2,8.26E2,5E0,8.21E2,5E0,8.16E2,5E0,2E0,3E0],"tree_param":{"num_deleted":"0","num_feature":"199","num_nodes":"9","size_leaf_vector":"1"}},{"base_weights":[1.260844E3,5.0791885E3,-6.958619E4,8.9346045E3,-4.4728088E5,1.978942E3,-6.809096E4,-4.5516333E3,-7.9268766E4],"categories":[],"categories_nodes":[],"categories_segments":[],"categories_sizes":[],"default_left":[0,0,0,0,0,0,0,0,0],"id":96,"left_children":[1,3,-1,5,7,-1,-1,-1,-1],"loss_changes":[1.4342371E12,1.4445703E12,0E0,1.421675E12,1.7434018E11,0E0,0E0,0E0,0E0],"parents":[2147483647,0,0,1,1,3,3,4,4],"right_children":[2,4,-1,6,8,-1,-1,-1,-1],"split_conditions":[1E0,1E0,-6.958619E4,1E0,1.995E3,1.978942E3,-6.809096E4,-4.5516333E3,-7.9268766E4],"split_indices":[64,86,0,102,0,0,0,0,0],"split_type":[0,0,0,0,0,0,0,0,0],"sum_hessian":[8.31E2,8.25E2,6E0,8.19E2,6E0,8.13E2,6E0,1E0,5E0],"tree_param":{"num_deleted":"0","num_feature":"199","num_nodes":"9","size_leaf_vector":"1"}},{"base_weights":[8.017943E2,-2.3879148E3,8.187425E4,-5.8995293E3,4.796865E5,-1.5023407E3,6.7963484E4,2.991638E4,1.479949E5],"categories":[],"categories_nodes":[],"categories_segments":[],"categories_sizes":[],"default_left":[0,0,0,0,0,0,0,0,0],"id":97,"left_children":[1,3,-1,5,7,-1,-1,-1,-1],"loss_changes":[1.4026365E12,1.4045176E12,0E0,1.3973549E12,6.3382E11,0E0,0E0,0E0,0E0],"parents":[2147483647,0,0,1,1,3,3,4,4],"right_children":[2,4,-1,6,8,-1,-1,-1,-1],"split_conditions":[1E0,1E0,8.187425E4,1E0,2.015E3,-1.5023407E3,6.7963484E4,2.991638E4,1.479949E5],"split_indices":[189,157,0,61,0,0,0,0,0],"split_type":[0,0,0,0,0,0,0,0,0],"sum_hessian":[8.31E2,8.27E2,4E0,8.22E2,5E0,8.16E2,6E0,4E0,1E0],"tree_param":{"num_deleted":"0","num_feature":"199","num_nodes":"9","size_leaf_vector":"1"}},{"base_weights":[1.0697911E3,-2.3420151E3,7.294072E4,-5.7798984E3,4.6903834E5,-1.4305349E3,7.22027E4,1.29508266E5,1.1789011E4],"categories":[],"categories_nodes":[],"categories_segments":[],"categories_sizes":[],"default_left":[0,0,0,0,0,0,0,0,0],"id":98,"left_children":[1,3,-1,5,7,-1,-1,-1,-1],"loss_changes":[1.3354899E12,1.3429063E12,0E0,1.3473882E12,8.0262935E11,0E0,0E0,0E0,0E0],"parents":[2147483647,0,0,1,1,3,3,4,4],"right_children":[2,4,-1,6,8,-1,-1,-1,-1],"split_conditions":[1E0,1E0,7.294072E4,1E0,2.005E3,-1.4305349E3,7.22027E4,1.29508266E5,1.1789011E4],"split_indices":[89,87,0,69,0,0,0,0,0],"split_type":[0,0,0,0,0,0,0,0,0],"sum_hessian":[8.31E2,8.26E2,5E0,8.21E2,5E0,8.16E2,5E0,2E0,3E0],"tree_param":{"num_deleted":"0","num_feature":"199","num_nodes":"9","size_leaf_vector":"1"}},{"base_weights":[1.2467379E3,-2.1226475E3,7.205834E4,4.0098606E5,-6.0528267E3,8.534759E4,-5.1536836E3,-1.511606E3,6.600835E4],"categories":[],"categories_nodes":[],"categories_segments":[],"categories_sizes":[],"default_left":[0,0,0,0,0,0,0,0,0],"id":99,"left_children":[1,3,-1,5,7,-1,-1,-1,-1],"loss_changes":[1.3023094E12,1.3126347E12,0E0,5.405492E11,1.3201214E12,0E0,0E0,0E0,0E0],"parents":[2147483647,0,0,1,1,3,3,4,4],"right_children":[2,4,-1,6,8,-1,-1,-1,-1],"split_conditions":[1E0,1.883E0,7.205834E4,1E0,1E0,8.534759E4,-5.1536836E3,-1.511606E3,6.600835E4],"split_indices":[12,7,0,153,66,0,0,0,0],"split_type":[0,0,0,0,0,0,0,0,0],"sum_hessian":[8.31E2,8.26E2,5E0,7E0,8.19E2,5E0,2E0,8.13E2,6E0],"tree_param":{"num_deleted":"0","num_feature":"199","num_nodes":"9","size_leaf_vector":"1"}},{"base_weights":[1.3142412E3,4.6644575E3,-4.6067628E5,7.747686E3,-5.037678E5,-3.7518684E4,-9.2612914E4,1.6773304E3,-7.731784E4,5.360234E3,-1.3534367E5],"categories":[],"categories_nodes":[],"categories_segments":[],"categories_sizes":[],"default_left":[0,0,0,0,0,0,0,0,0,0,0],"id":100,"left_children":[1,3,5,7,9,-1,-1,-1,-1,-1,-1],"loss_changes":[1.289892E12,1.3003188E12,3.520384E10,1.2938678E12,1.0275564E12,0E0,0E0,0E0,0E0,0E0,0E0],"parents":[2147483647,0,0,1,1,2,2,3,3,4,4],"right_children":[2,4,6,8,10,-1,-1,-1,-1,-1,-1],"split_conditions":[1E0,1E0,2.01E3,1E0,2.005E3,-3.7518684E4,-9.2612914E4,1.6773304E3,-7.731784E4,5.360234E3,-1.3534367E5],"split_indices":[52,18,0,39,0,0,0,0,0,0,0],"split_type":[0,0,0,0,0,0,0,0,0,0,0],"sum_hessian":[8.31E2,8.26E2,5E0,8.22E2,4E0,3E0,2E0,8.18E2,4E0,2E0,2E0],"tree_param":{"num_deleted":"0","num_feature":"199","num_nodes":"11","size_leaf_vector":"1"}},{"base_weights":[7.0722687E2,3.7038604E3,-4.9567672E5,7.0116436E3,-4.506311E5,