{"learner":{"attributes":{"scikit_learn":"{\"_estimator_type\": \"regressor\"}"},"feature_names":["Year","Ingresos","Electricidad","Crecimiento PBI per cápita","Importaciones","Desempleados con educación avanzada","Pobreza","Mortalidad","ISO3_dest_ABW","ISO3_dest_AFG","ISO3_dest_AGO","ISO3_dest_ALB","ISO3_dest_ARE","ISO3_dest_ARG","ISO3_dest_ARM","ISO3_dest_ATG","ISO3_dest_AUS","ISO3_dest_AUT","ISO3_dest_AZE","ISO3_dest_BDI","ISO3_dest_BEL","ISO3_dest_BEN","ISO3_dest_BFA","ISO3_dest_BGD","ISO3_dest_BGR","ISO3_dest_BHR","ISO3_dest_BHS","ISO3_dest_BIH","ISO3_dest_BLR","ISO3_dest_BLZ","ISO3_dest_BMU","ISO3_dest_BOL","ISO3_dest_BRA","ISO3_dest_BRB","ISO3_dest_BRN","ISO3_dest_BTN","ISO3_dest_BWA","ISO3_dest_CAF","ISO3_dest_CAN","ISO3_dest_CHE","ISO3_dest_CHL","ISO3_dest_CHN","ISO3_dest_CIV","ISO3_dest_CMR","ISO3_dest_COD","ISO3_dest_COG","ISO3_dest_COL","ISO3_dest_COM","ISO3_dest_CPV","ISO3_dest_CRI","ISO3_dest_CUB","ISO3_dest_CUW","ISO3_dest_CYM","ISO3_dest_CYP","ISO3_dest_CZE","ISO3_dest_DEU","ISO3_dest_DJI","ISO3_dest_DMA","ISO3_dest_DNK","ISO3_dest_DOM","ISO3_dest_DZA","ISO3_dest_ECU","ISO3_dest_EGY","ISO3_dest_ERI","ISO3_dest_ESP","ISO3_dest_EST","ISO3_dest_ETH","ISO3_dest_FIN","ISO3_dest_FJI","ISO3_dest_FRA","ISO3_dest_FRO","ISO3_dest_FSM","ISO3_dest_GAB","ISO3_dest_GBR","ISO3_dest_GEO","ISO3_dest_GHA","ISO3_dest_GIN","ISO3_dest_GMB","ISO3_dest_GNB","ISO3_dest_GNQ","ISO3_dest_GRC","ISO3_dest_GRD","ISO3_dest_GRL","ISO3_dest_GTM","ISO3_dest_GUM","ISO3_dest_GUY","ISO3_dest_HKG","ISO3_dest_HND","ISO3_dest_HRV","ISO3_dest_HTI","ISO3_dest_HUN","ISO3_dest_IDN","ISO3_dest_IND","ISO3_dest_IRL","ISO3_dest_IRN","ISO3_dest_IRQ","ISO3_dest_ISL","ISO3_dest_ISR","ISO3_dest_ITA","ISO3_dest_JAM","ISO3_dest_JOR","ISO3_dest_JPN","ISO3_dest_KAZ","ISO3_dest_KEN","ISO3_dest_KGZ","ISO3_dest_KHM","ISO3_dest_KIR","ISO3_dest_KNA","ISO3_dest_KOR","ISO3_dest_KWT","ISO3_dest_LAO","ISO3_dest_LBN","ISO3_dest_LBR","ISO3_dest_LBY","ISO3_dest_LCA","ISO3_dest_LKA","ISO3_dest_LSO","ISO3_dest_LTU","ISO3_dest_LUX","ISO3_dest_LVA","ISO3_dest_MAC","ISO3_dest_MAR","ISO3_dest_MDA","ISO3_dest_MDG","ISO3_dest_MDV","ISO3_dest_MEX","ISO3_dest_MHL","ISO3_dest_MKD","ISO3_dest_MLI","ISO3_dest_MLT","ISO3_dest_MMR","ISO3_dest_MNE","ISO3_dest_MNG","ISO3_dest_MNP","ISO3_dest_MOZ","ISO3_dest_MRT","ISO3_dest_MUS","ISO3_dest_MWI","ISO3_dest_MYS","ISO3_dest_NAM","ISO3_dest_NCL","ISO3_dest_NER","ISO3_dest_NGA","ISO3_dest_NIC","ISO3_dest_NLD","ISO3_dest_NOR","ISO3_dest_NPL","ISO3_dest_NRU","ISO3_dest_NZL","ISO3_dest_OMN","ISO3_dest_PAK","ISO3_dest_PAN","ISO3_dest_PER","ISO3_dest_PHL","ISO3_dest_PLW","ISO3_dest_PNG","ISO3_dest_POL","ISO3_dest_PRI","ISO3_dest_PRT","ISO3_dest_PRY","ISO3_dest_PSE","ISO3_dest_PYF","ISO3_dest_QAT","ISO3_dest_ROU","ISO3_dest_RUS","ISO3_dest_RWA","ISO3_dest_SAU","ISO3_dest_SDN","ISO3_dest_SEN","ISO3_dest_SGP","ISO3_dest_SLB","ISO3_dest_SLE","ISO3_dest_SLV","ISO3_dest_SMR","ISO3_dest_SOM","ISO3_dest_SRB","ISO3_dest_SSD","ISO3_dest_STP","ISO3_dest_SUR","ISO3_dest_SVK","ISO3_dest_SVN","ISO3_dest_SWE","ISO3_dest_SWZ","ISO3_dest_SYC","ISO3_dest_SYR","ISO3_dest_TCD","ISO3_dest_TGO","ISO3_dest_THA","ISO3_dest_TJK","ISO3_dest_TKM","ISO3_dest_TLS","ISO3_dest_TON","ISO3_dest_TTO","ISO3_dest_TUN","ISO3_dest_TUR","ISO3_dest_TUV","ISO3_dest_TZA","ISO3_dest_UGA","ISO3_dest_UKR","ISO3_dest_URY","ISO3_dest_USA","ISO3_dest_UZB","ISO3_dest_VCT","ISO3_dest_VEN","ISO3_dest_VIR","ISO3_dest_VNM","ISO3_dest_VUT","ISO3_dest_WSM","ISO3_dest_YEM","ISO3_dest_ZAF","ISO3_dest_ZMB","ISO3_dest_ZWE"],"feature_types":["int","float","float","float","float","float","float","float","int","int","int","int","int","int","int","int","int","int","int","int","int","int","int","int","int","int","int","int","int","int","int","int","int","int","int","int","int","int","int","int","int","int","int","int","int","int","int","int","int","int","int","int","int","int","int","int","int","int","int","int","int","int","int","int","int","int","int","int","int","int","int","int","int","int","int","int","int","int","int","int","int","int","int","int","int","int","int","int","int","int","int","int","int","int","int","int","int","int","int","int","int","int","int","int","int","int","int","int","int","int","int","int","int","int","int","int","int","int","int","int","int","int","int","int","int","int","int","int","int","int","int","int","int","int","int","int","int","int","int","int","int","int","int","int","int","int","int","int","int","int","int","int","int","int","int","int","int","int","int","int","int","int","int","int","int","int","int","int","int","int","int","int","int","int","int","int","int","int","int","int","int","int","int","int","int","int","int","int","int","int","int","int","int","int","int","int","int","int","int","int","int","int","int","int","int","int","int","int","int","int","int","int"],"gradient_booster":{"model":{"gbtree_model_param":{"num_parallel_tree":"1","num_trees":"842"},"iteration_indptr":[0,1,2,3,4,5,6,7,8,9,10,11,12,13,14,15,16,17,18,19,20,21,22,23,24,25,26,27,28,29,30,31,32,33,34,35,36,37,38,39,40,41,42,43,44,45,46,47,48,49,50,51,52,53,54,55,56,57,58,59,60,61,62,63,64,65,66,67,68,69,70,71,72,73,74,75,76,77,78,79,80,81,82,83,84,85,86,87,88,89,90,91,92,93,94,95,96,97,98,99,100,101,102,103,104,105,106,107,108,109,110,111,112,113,114,115,116,117,118,119,120,121,122,123,124,125,126,127,128,129,130,131,132,133,134,135,136,137,138,139,140,141,142,143,144,145,146,147,148,149,150,151,152,153,154,155,156,157,158,159,160,161,162,163,164,165,166,167,168,169,170,171,172,173,174,175,176,177,178,179,180,181,182,183,184,185,186,187,188,189,190,191,192,193,194,195,196,197,198,199,200,201,202,203,204,205,206,207,208,209,210,211,212,213,214,215,216,217,218,219,220,221,222,223,224,225,226,227,228,229,230,231,232,233,234,235,236,237,238,239,240,241,242,243,244,245,246,247,248,249,250,251,252,253,254,255,256,257,258,259,260,261,262,263,264,265,266,267,268,269,270,271,272,273,274,275,276,277,278,279,280,281,282,283,284,285,286,287,288,289,290,291,292,293,294,295,296,297,298,299,300,301,302,303,304,305,306,307,308,309,310,311,312,313,314,315,316,317,318,319,320,321,322,323,324,325,326,327,328,329,330,331,332,333,334,335,336,337,338,339,340,341,342,343,344,345,346,347,348,349,350,351,352,353,354,355,356,357,358,359,360,361,362,363,364,365,366,367,368,369,370,371,372,373,374,375,376,377,378,379,380,381,382,383,384,385,386,387,388,389,390,391,392,393,394,395,396,397,398,399,400,401,402,403,404,405,406,407,408,409,410,411,412,413,414,415,416,417,418,419,420,421,422,423,424,425,426,427,428,429,430,431,432,433,434,435,436,437,438,439,440,441,442,443,444,445,446,447,448,449,450,451,452,453,454,455,456,457,458,459,460,461,462,463,464,465,466,467,468,469,470,471,472,473,474,475,476,477,478,479,480,481,482,483,484,485,486,487,488,489,490,491,492,493,494,495,496,497,498,499,500,501,502,503,504,505,506,507,508,509,510,511,512,513,514,515,516,517,518,519,520,521,522,523,524,525,526,527,528,529,530,531,532,533,534,535,536,537,538,539,540,541,542,543,544,545,546,547,548,549,550,551,552,553,554,555,556,557,558,559,560,561,562,563,564,565,566,567,568,569,570,571,572,573,574,575,576,577,578,579,580,581,582,583,584,585,586,587,588,589,590,591,592,593,594,595,596,597,598,599,600,601,602,603,604,605,606,607,608,609,610,611,612,613,614,615,616,617,618,619,620,621,622,623,624,625,626,627,628,629,630,631,632,633,634,635,636,637,638,639,640,641,642,643,644,645,646,647,648,649,650,651,652,653,654,655,656,657,658,659,660,661,662,663,664,665,666,667,668,669,670,671,672,673,674,675,676,677,678,679,680,681,682,683,684,685,686,687,688,689,690,691,692,693,694,695,696,697,698,699,700,701,702,703,704,705,706,707,708,709,710,711,712,713,714,715,716,717,718,719,720,721,722,723,724,725,726,727,728,729,730,731,732,733,734,735,736,737,738,739,740,741,742,743,744,745,746,747,748,749,750,751,752,753,754,755,756,757,758,759,760,761,762,763,764,765,766,767,768,769,770,771,772,773,774,775,776,777,778,779,780,781,782,783,784,785,786,787,788,789,790,791,792,793,794,795,796,797,798,799,800,801,802,803,804,805,806,807,808,809,810,811,812,813,814,815,816,817,818,819,820,821,822,823,824,825,826,827,828,829,830,831,832,833,834,835,836,837,838,839,840,841,842],"tree_info":[0,0,0,0,0,0,0,0,0,0,0,0,0,0,0,0,0,0,0,0,0,0,0,0,0,0,0,0,0,0,0,0,0,0,0,0,0,0,0,0,0,0,0,0,0,0,0,0,0,0,0,0,0,0,0,0,0,0,0,0,0,0,0,0,0,0,0,0,0,0,0,0,0,0,0,0,0,0,0,0,0,0,0,0,0,0,0,0,0,0,0,0,0,0,0,0,0,0,0,0,0,0,0,0,0,0,0,0,0,0,0,0,0,0,0,0,0,0,0,0,0,0,0,0,0,0,0,0,0,0,0,0,0,0,0,0,0,0,0,0,0,0,0,0,0,0,0,0,0,0,0,0,0,0,0,0,0,0,0,0,0,0,0,0,0,0,0,0,0,0,0,0,0,0,0,0,0,0,0,0,0,0,0,0,0,0,0,0,0,0,0,0,0,0,0,0,0,0,0,0,0,0,0,0,0,0,0,0,0,0,0,0,0,0,0,0,0,0,0,0,0,0,0,0,0,0,0,0,0,0,0,0,0,0,0,0,0,0,0,0,0,0,0,0,0,0,0,0,0,0,0,0,0,0,0,0,0,0,0,0,0,0,0,0,0,0,0,0,0,0,0,0,0,0,0,0,0,0,0,0,0,0,0,0,0,0,0,0,0,0,0,0,0,0,0,0,0,0,0,0,0,0,0,0,0,0,0,0,0,0,0,0,0,0,0,0,0,0,0,0,0,0,0,0,0,0,0,0,0,0,0,0,0,0,0,0,0,0,0,0,0,0,0,0,0,0,0,0,0,0,0,0,0,0,0,0,0,0,0,0,0,0,0,0,0,0,0,0,0,0,0,0,0,0,0,0,0,0,0,0,0,0,0,0,0,0,0,0,0,0,0,0,0,0,0,0,0,0,0,0,0,0,0,0,0,0,0,0,0,0,0,0,0,0,0,0,0,0,0,0,0,0,0,0,0,0,0,0,0,0,0,0,0,0,0,0,0,0,0,0,0,0,0,0,0,0,0,0,0,0,0,0,0,0,0,0,0,0,0,0,0,0,0,0,0,0,0,0,0,0,0,0,0,0,0,0,0,0,0,0,0,0,0,0,0,0,0,0,0,0,0,0,0,0,0,0,0,0,0,0,0,0,0,0,0,0,0,0,0,0,0,0,0,0,0,0,0,0,0,0,0,0,0,0,0,0,0,0,0,0,0,0,0,0,0,0,0,0,0,0,0,0,0,0,0,0,0,0,0,0,0,0,0,0,0,0,0,0,0,0,0,0,0,0,0,0,0,0,0,0,0,0,0,0,0,0,0,0,0,0,0,0,0,0,0,0,0,0,0,0,0,0,0,0,0,0,0,0,0,0,0,0,0,0,0,0,0,0,0,0,0,0,0,0,0,0,0,0,0,0,0,0,0,0,0,0,0,0,0,0,0,0,0,0,0,0,0,0,0,0,0,0,0,0,0,0,0,0,0,0,0,0,0,0,0,0,0,0,0,0,0,0,0,0,0,0,0,0,0,0,0,0,0,0,0,0,0,0,0,0,0,0,0,0,0,0,0,0,0,0,0,0,0,0,0,0,0,0,0,0,0,0,0,0,0,0,0,0,0,0,0,0,0,0,0,0,0,0,0,0,0,0,0,0,0,0,0,0,0,0,0,0,0,0,0,0,0,0,0,0,0,0,0,0,0,0,0,0,0,0,0,0,0,0,0,0,0,0,0,0,0,0,0,0,0,0,0,0,0,0,0,0,0,0,0,0,0,0,0,0,0,0,0,0,0,0,0,0,0,0,0,0,0,0,0,0,0,0,0,0,0,0,0,0,0,0,0,0,0,0,0,0,0,0,0,0,0,0,0,0,0,0,0,0,0,0,0,0,0,0,0,0,0,0,0,0,0,0,0,0,0,0],"trees":[{"base_weights":[3.373218E-3,-2.0347106E5,6.9484485E6,-4.8725303E5,2.9381598E6,-1.2862872E5,1.9840868E6,1.1342501E6,5.356546E5],"categories":[],"categories_nodes":[],"categories_segments":[],"categories_sizes":[],"default_left":[0,0,0,0,0,0,0,0,0],"id":0,"left_children":[1,3,-1,5,7,-1,-1,-1,-1],"loss_changes":[5.6742783E15,8.715729E14,0E0,2.9606465E14,9.286961E13,0E0,0E0,0E0,0E0],"parents":[2147483647,0,0,1,1,3,3,4,4],"right_children":[2,4,-1,6,8,-1,-1,-1,-1],"split_conditions":[1E0,1.68426E11,6.9484485E6,1E0,1.6466572E0,-1.2862872E5,1.9840868E6,1.1342501E6,5.356546E5],"split_indices":[200,4,0,164,3,0,0,0,0],"split_type":[0,0,0,0,0,0,0,0,0],"sum_hessian":[9.81E2,9.75E2,6E0,8.95E2,8E1,8.92E2,3E0,2.3E1,5.7E1],"tree_param":{"num_deleted":"0","num_feature":"212","num_nodes":"9","size_leaf_vector":"1"}},{"base_weights":[1.0665768E4,-1.5002386E5,2.2413868E7,-4.1632803E5,1.9289801E6,1.4894494E6,5.90819E6,-1.6259566E5,7.357072E4,4.0570097E5,1.4062838E6],"categories":[],"categories_nodes":[],"categories_segments":[],"categories_sizes":[],"default_left":[0,0,0,0,0,0,0,0,0,0,0],"id":1,"left_children":[1,3,5,7,9,-1,-1,-1,-1,-1,-1],"loss_changes":[3.5385253E15,5.4116303E14,4.864292E13,1.5383403E14,1.0583608E14,0E0,0E0,0E0,0E0,0E0,0E0],"parents":[2147483647,0,0,1,1,2,2,3,3,4,4],"right_children":[2,4,6,8,10,-1,-1,-1,-1,-1,-1],"split_conditions":[1E0,1.04651E11,1.995E3,1.3853E10,1E0,1.4894494E6,5.90819E6,-1.6259566E5,7.357072E4,4.0570097E5,1.4062838E6],"split_indices":[200,4,0,4,55,0,0,0,0,0,0],"split_type":[0,0,0,0,0,0,0,0,0,0,0],"sum_hessian":[9.81E2,9.75E2,6E0,8.65E2,1.1E2,1E0,5E0,6.43E2,2.22E2,1.04E2,6E0],"tree_param":{"num_deleted":"0","num_feature":"212","num_nodes":"11","size_leaf_vector":"1"}},{"base_weights":[1.7341201E4,-1.11513945E5,1.7980952E7,-1.5761423E5,1.8045194E6,1.9093114E6,5.019996E6,-7.288385E4,4.483492E5],"categories":[],"categories_nodes":[],"categories_segments":[],"categories_sizes":[],"default_left":[0,0,0,0,0,0,0,0,0],"id":2,"left_children":[1,3,5,7,-1,-1,-1,-1,-1],"loss_changes":[2.2750444E15,3.3767727E14,1.9544786E13,2.7074274E14,0E0,0E0,0E0,0E0,0E0],"parents":[2147483647,0,0,1,1,2,2,3,3],"right_children":[2,4,6,8,-1,-1,-1,-1,-1],"split_conditions":[1E0,1E0,2E3,2.01639E11,1.8045194E6,1.9093114E6,5.019996E6,-7.288385E4,4.483492E5],"split_indices":[200,164,0,4,0,0,0,0,0],"split_type":[0,0,0,0,0,0,0,0,0],"sum_hessian":[9.81E2,9.75E2,6E0,9.7E2,5E0,2E0,4E0,9.07E2,6.3E1],"tree_param":{"num_deleted":"0","num_feature":"212","num_nodes":"9","size_leaf_vector":"1"}},{"base_weights":[2.2370193E4,-8.196776E4,1.4566866E7,-3.892122E5,7.3116006E5,1.0732285E6,3.804681E6,-9.991981E4,7.389844E5,1.4971881E5,1.4362092E6],"categories":[],"categories_nodes":[],"categories_segments":[],"categories_sizes":[],"default_left":[0,0,0,0,0,0,0,0,0,0,0],"id":3,"left_children":[1,3,5,7,9,-1,-1,-1,-1,-1,-1],"loss_changes":[1.4914214E15,2.4411767E14,8.8758184E11,4.651082E13,1.6131305E14,0E0,0E0,0E0,0E0,0E0,0E0],"parents":[2147483647,0,0,1,1,2,2,3,3,4,4],"right_children":[2,4,6,8,10,-1,-1,-1,-1,-1,-1],"split_conditions":[1E0,2.324E10,1.995E3,1E0,1E0,1.0732285E6,3.804681E6,-9.991981E4,7.389844E5,1.4971881E5,1.4362092E6],"split_indices":[200,4,0,150,164,0,0,0,0,0,0],"split_type":[0,0,0,0,0,0,0,0,0,0,0],"sum_hessian":[9.81E2,9.75E2,6E0,7.08E2,2.67E2,1E0,5E0,7.05E2,3E0,2.62E2,5E0],"tree_param":{"num_deleted":"0","num_feature":"212","num_nodes":"11","size_leaf_vector":"1"}},{"base_weights":[2.4124266E4,-5.961209E4,1.1695918E7,-9.307863E4,1.1233272E6,1.1993116E6,3.2908875E6,-4.539924E4,3.6143934E5],"categories":[],"categories_nodes":[],"categories_segments":[],"categories_sizes":[],"default_left":[0,0,0,0,0,0,0,0,0],"id":4,"left_children":[1,3,5,7,-1,-1,-1,-1,-1],"loss_changes":[9.604583E14,1.5218155E14,1.7040551E13,1.4070016E14,0E0,0E0,0E0,0E0,0E0],"parents":[2147483647,0,0,1,1,2,2,3,3],"right_children":[2,4,6,8,-1,-1,-1,-1,-1],"split_conditions":[1E0,1E0,2E3,2.35368E11,1.1233272E6,1.1993116E6,3.2908875E6,-4.539924E4,3.6143934E5],"split_indices":[200,166,0,4,0,0,0,0,0],"split_type":[0,0,0,0,0,0,0,0,0],"sum_hessian":[9.81E2,9.75E2,6E0,9.69E2,6E0,2E0,4E0,9.16E2,5.3E1],"tree_param":{"num_deleted":"0","num_feature":"212","num_nodes":"9","size_leaf_vector":"1"}},{"base_weights":[2.4253893E4,-4.3536812E4,9.47275E6,-7.241427E4,1.1357314E6,1.191144E6,2.869057E6,-2.4586654E4,9.291988E5],"categories":[],"categories_nodes":[],"categories_segments":[],"categories_sizes":[],"default_left":[0,0,0,0,0,0,0,0,0],"id":5,"left_children":[1,3,5,7,-1,-1,-1,-1,-1],"loss_changes":[6.294033E14,1.32255465E14,1.5348267E13,1.0538338E14,0E0,0E0,0E0,0E0,0E0],"parents":[2147483647,0,0,1,1,2,2,3,3],"right_children":[2,4,6,8,-1,-1,-1,-1,-1],"split_conditions":[1E0,1E0,2.005E3,1E0,1.1357314E6,1.191144E6,2.869057E6,-2.4586654E4,9.291988E5],"split_indices":[200,164,0,92,0,0,0,0,0],"split_type":[0,0,0,0,0,0,0,0,0],"sum_hessian":[9.81E2,9.75E2,6E0,9.7E2,5E0,3E0,3E0,9.64E2,6E0],"tree_param":{"num_deleted":"0","num_feature":"212","num_nodes":"9","size_leaf_vector":"1"}},{"base_weights":[2.4525875E4,-3.0783035E4,7.7326645E6,-2.6301075E5,4.1842247E5,9.723382E5,2.342029E6,-6.856401E4,6.1609344E5,8.478013E4,9.14781E5],"categories":[],"categories_nodes":[],"categories_segments":[],"categories_sizes":[],"default_left":[0,0,0,0,0,0,0,0,0,0,0],"id":6,"left_children":[1,3,5,7,9,-1,-1,-1,-1,-1,-1],"loss_changes":[4.188929E14,1.0192439E14,1.0227424E13,3.0993562E13,7.852816E13,0E0,0E0,0E0,0E0,0E0,0E0],"parents":[2147483647,0,0,1,1,2,2,3,3,4,4],"right_children":[2,4,6,8,10,-1,-1,-1,-1,-1,-1],"split_conditions":[1E0,1.3853E10,2.005E3,1E0,1E0,9.723382E5,2.342029E6,-6.856401E4,6.1609344E5,8.478013E4,9.14781E5],"split_indices":[200,4,0,150,55,0,0,0,0,0,0],"split_type":[0,0,0,0,0,0,0,0,0,0,0],"sum_hessian":[9.81E2,9.75E2,6E0,6.43E2,3.32E2,3E0,3E0,6.4E2,3E0,3.26E2,6E0],"tree_param":{"num_deleted":"0","num_feature":"212","num_nodes":"11","size_leaf_vector":"1"}},{"base_weights":[2.3469418E4,-2.1658389E4,6.312222E6,-4.7569418E4,8.748639E5,9.1858875E5,2.0764032E6,-1.7223977E4,8.8661975E5],"categories":[],"categories_nodes":[],"categories_segments":[],"categories_sizes":[],"default_left":[0,0,0,0,0,0,0,0,0],"id":7,"left_children":[1,3,5,7,-1,-1,-1,-1,-1],"loss_changes":[2.7882595E14,9.104964E13,7.036247E12,8.120209E13,0E0,0E0,0E0,0E0,0E0],"parents":[2147483647,0,0,1,1,2,2,3,3],"right_children":[2,4,6,8,-1,-1,-1,-1,-1],"split_conditions":[1E0,1E0,2.01E3,1E0,8.748639E5,9.1858875E5,2.0764032E6,-1.7223977E4,8.8661975E5],"split_indices":[200,166,0,164,0,0,0,0,0],"split_type":[0,0,0,0,0,0,0,0,0],"sum_hessian":[9.81E2,9.75E2,6E0,9.69E2,6E0,4E0,2E0,9.64E2,5E0],"tree_param":{"num_deleted":"0","num_feature":"212","num_nodes":"9","size_leaf_vector":"1"}},{"base_weights":[2.2547293E4,-2.2674922E4,4.420414E6,-4.331364E4,8.109025E5,-2.7097806E5,5.1574315E6,-1.6020049E4,7.345945E5,3.3286016E5,1.3378678E6],"categories":[],"categories_nodes":[],"categories_segments":[],"categories_sizes":[],"default_left":[0,0,0,0,0,0,0,0,0,0,0],"id":8,"left_children":[1,3,5,7,-1,-1,9,-1,-1,-1,-1],"loss_changes":[1.9540165E14,6.708484E13,4.6439384E13,6.5268563E13,0E0,0E0,3.000454E12,0E0,0E0,0E0,0E0],"parents":[2147483647,0,0,1,1,2,2,3,3,6,6],"right_children":[2,4,6,8,-1,-1,10,-1,-1,-1,-1],"split_conditions":[7.70852E11,1E0,4.0154E1,1E0,8.109025E5,-2.7097806E5,2E3,-1.6020049E4,7.345945E5,3.3286016E5,1.3378678E6],"split_indices":[4,198,1,69,0,0,0,0,0,0,0],"split_type":[0,0,0,0,0,0,0,0,0,0,0],"sum_hessian":[9.81E2,9.72E2,9E0,9.67E2,5E0,1E0,8E0,9.61E2,6E0,1E0,7E0],"tree_param":{"num_deleted":"0","num_feature":"212","num_nodes":"11","size_leaf_vector":"1"}},{"base_weights":[2.0007814E4,-1.1313941E4,4.3842975E6,-3.2695514E4,2.9531772E6,5.92009E5,1.5189092E6,-1.3101294E4,6.945618E5,8.9036375E5,2.0377769E5],"categories":[],"categories_nodes":[],"categories_segments":[],"categories_sizes":[],"default_left":[0,0,0,0,0,0,0,0,0,0,0],"id":9,"left_children":[1,3,5,7,9,-1,-1,-1,-1,-1,-1],"loss_changes":[1.3428626E14,6.196079E13,1.0034176E13,5.8014187E13,7.1030287E12,0E0,0E0,0E0,0E0,0E0,0E0],"parents":[2147483647,0,0,1,1,2,2,3,3,4,4],"right_children":[2,4,6,8,10,-1,-1,-1,-1,-1,-1],"split_conditions":[1E0,1E0,2.01E3,1E0,2.01E3,5.92009E5,1.5189092E6,-1.3101294E4,6.945618E5,8.9036375E5,2.0377769E5],"split_indices":[200,92,0,166,0,0,0,0,0,0,0],"split_type":[0,0,0,0,0,0,0,0,0,0,0],"sum_hessian":[9.81E2,9.75E2,6E0,9.69E2,6E0,4E0,2E0,9.63E2,6E0,4E0,2E0],"tree_param":{"num_deleted":"0","num_feature":"212","num_nodes":"11","size_leaf_vector":"1"}},{"base_weights":[1.9065152E4,-3.475168E4,2.0805636E6,-5.4969188E4,6.6614594E5,-1.2478535E6,2.5911592E6,-1.8042979E4,7.116007E5,-3.4807303E5,-8.91519E4,7.7002294E5,-1.6708852E5],"categories":[],"categories_nodes":[],"categories_segments":[],"categories_sizes":[],"default_left":[0,0,0,0,0,0,0,0,0,0,0,0,0],"id":10,"left_children":[1,3,5,7,-1,9,11,-1,-1,-1,-1,-1,-1],"loss_changes":[1.09018635E14,5.350057E13,4.5720296E13,5.2910075E13,0E0,9.535278E10,4.1950623E13,0E0,0E0,0E0,0E0,0E0,0E0],"parents":[2147483647,0,0,1,1,2,2,3,3,5,5,6,6],"right_children":[2,4,6,8,-1,10,12,-1,-1,-1,-1,-1,-1],"split_conditions":[4.87049E11,1E0,7.134E0,1E0,6.6614594E5,2.015E3,1E0,-1.8042979E4,7.116007E5,-3.4807303E5,-8.91519E4,7.7002294E5,-1.6708852E5],"split_indices":[4,16,7,164,0,0,101,0,0,0,0,0,0],"split_type":[0,0,0,0,0,0,0,0,0,0,0,0,0],"sum_hessian":[9.81E2,9.57E2,2.4E1,9.51E2,6E0,3E0,2.1E1,9.46E2,5E0,2E0,1E0,1.8E1,3E0],"tree_param":{"num_deleted":"0","num_feature":"212","num_nodes":"13","size_leaf_vector":"1"}},{"base_weights":[1.5948992E4,-2.4820803E4,1.5776095E6,1.41179E6,-5.695727E4,-1.051529E6,1.9839252E6,1.2901143E5,8.6620956E5,-1.821635E4,6.517505E5,-2.9123844E5,-7.823412E4,5.913511E5,-1.3639539E5],"categories":[],"categories_nodes":[],"categories_segments":[],"categories_sizes":[],"default_left":[0,0,0,0,0,0,0,0,0,0,0,0,0,0,0],"id":11,"left_children":[1,3,5,7,9,11,13,-1,-1,-1,-1,-1,-1,-1,-1],"loss_changes":[6.2561706E13,4.4308963E13,2.8792655E13,3.7629576E13,4.4604183E13,2.3023059E10,2.5408053E13,0E0,0E0,0E0,0E0,0E0,0E0,0E0,0E0],"parents":[2147483647,0,0,1,1,2,2,3,3,4,4,5,5,6,6],"right_children":[2,4,6,8,10,12,14,-1,-1,-1,-1,-1,-1,-1,-1],"split_conditions":[4.87049E11,2.595E0,7.134E0,3.5381E10,1E0,2.015E3,1E0,1.2901143E5,8.6620956E5,-1.821635E4,6.517505E5,-2.9123844E5,-7.823412E4,5.913511E5,-1.3639539E5],"split_indices":[4,7,7,4,198,0,101,0,0,0,0,0,0,0,0],"split_type":[0,0,0,0,0,0,0,0,0,0,0,0,0,0,0],"sum_hessian":[9.81E2,9.57E2,2.4E1,2E1,9.37E2,3E0,2.1E1,1.5E1,5E0,9.32E2,5E0,2E0,1E0,1.8E1,3E0],"tree_param":{"num_deleted":"0","num_feature":"212","num_nodes":"15","size_leaf_vector":"1"}},{"base_weights":[1.3788337E4,-3.663763E3,2.44514E6,-2.1130533E4,2.417255E6,8.543952E5,1.0486065E6,-8.990096E3,6.092175E5,7.230104E5,1.7642469E5,2.3513806E5,5.2881055E4],"categories":[],"categories_nodes":[],"categories_segments":[],"categories_sizes":[],"default_left":[0,0,0,0,0,0,0,0,0,0,0,0,0],"id":12,"left_children":[1,3,5,7,9,11,-1,-1,-1,-1,-1,-1,-1],"loss_changes":[4.1677373E13,4.132185E13,1.6788465E13,3.798885E13,4.2252076E12,1.2998699E11,0E0,0E0,0E0,0E0,0E0,0E0,0E0],"parents":[2147483647,0,0,1,1,2,2,3,3,4,4,5,5],"right_children":[2,4,6,8,10,12,-1,-1,-1,-1,-1,-1,-1],"split_conditions":[1E0,1E0,2.01E3,1E0,2.01E3,5.7604E1,1.0486065E6,-8.990096E3,6.092175E5,7.230104E5,1.7642469E5,2.3513806E5,5.2881055E4],"split_indices":[200,92,0,38,0,1,0,0,0,0,0,0,0],"split_type":[0,0,0,0,0,0,0,0,0,0,0,0,0],"sum_hessian":[9.81E2,9.75E2,6E0,9.69E2,6E0,4E0,2E0,9.64E2,5E0,4E0,2E0,3E0,1E0],"tree_param":{"num_deleted":"0","num_feature":"212","num_nodes":"13","size_leaf_vector":"1"}},{"base_weights":[1.3299496E4,-2.197556E3,5.320096E5,-1.6637613E4,5.719129E5,-7.560129E3,5.577147E5],"categories":[],"categories_nodes":[],"categories_segments":[],"categories_sizes":[],"default_left":[0,0,0,0,0,0,0],"id":13,"left_children":[1,3,-1,5,-1,-1,-1],"loss_changes":[3.2858108E13,3.297886E13,0E0,3.1762218E13,0E0,0E0,0E0],"parents":[2147483647,0,0,1,1,3,3],"right_children":[2,4,-1,6,-1,-1,-1],"split_conditions":[1E0,1E0,5.320096E5,1E0,5.719129E5,-7.560129E3,5.577147E5],"split_indices":[16,164,0,150,0,0,0],"split_type":[0,0,0,0,0,0,0],"sum_hessian":[9.81E2,9.75E2,6E0,9.7E2,5E0,9.65E2,5E0],"tree_param":{"num_deleted":"0","num_feature":"212","num_nodes":"7","size_leaf_vector":"1"}},{"base_weights":[1.1726511E4,-1.2427158E4,1.3059801E6,-1.5012328E5,2.6558572E5,-2.1404953E5,1.8002264E6,-4.160882E4,4.864167E5,2.8005806E5,4.184055E4,5.2940444E5,-8.948214E4],"categories":[],"categories_nodes":[],"categories_segments":[],"categories_sizes":[],"default_left":[0,0,0,0,0,0,0,0,0,0,0,0,0],"id":14,"left_children":[1,3,5,7,9,-1,11,-1,-1,-1,-1,-1,-1],"loss_changes":[3.0714507E13,3.6981325E13,2.0966787E13,2.7605403E13,2.642294E13,0E0,1.2524972E13,0E0,0E0,0E0,0E0,0E0,0E0],"parents":[2147483647,0,0,1,1,2,2,3,3,4,4,6,6],"right_children":[2,4,6,8,10,-1,12,-1,-1,-1,-1,-1,-1],"split_conditions":[5.5877E11,2.1114E1,7.134E0,1E0,3.758E0,-2.1404953E5,1E0,-4.160882E4,4.864167E5,2.8005806E5,4.184055E4,5.2940444E5,-8.948214E4],"split_indices":[4,5,7,38,7,0,101,0,0,0,0,0,0],"split_type":[0,0,0,0,0,0,0,0,0,0,0,0,0],"sum_hessian":[9.81E2,9.64E2,1.7E1,6.45E2,3.19E2,3E0,1.4E1,6.4E2,5E0,3E1,2.89E2,1.2E1,2E0],"tree_param":{"num_deleted":"0","num_feature":"212","num_nodes":"13","size_leaf_vector":"1"}},{"base_weights":[9.865163E3,-4.217643E3,1.9720014E6,-1.7367896E4,5.203765E5,5.8689006E5,1.4883298E5,-7.60793E3,4.5873984E5],"categories":[],"categories_nodes":[],"categories_segments":[],"categories_sizes":[],"default_left":[0,0,0,0,0,0,0,0,0],"id":15,"left_children":[1,3,5,7,-1,-1,-1,-1,-1],"loss_changes":[2.7143319E13,2.735997E13,2.5951627E12,2.519457E13,0E0,0E0,0E0,0E0,0E0],"parents":[2147483647,0,0,1,1,2,2,3,3],"right_children":[2,4,6,8,-1,-1,-1,-1,-1],"split_conditions":[1E0,1E0,2.01E3,1E0,5.203765E5,5.8689006E5,1.4883298E5,-7.60793E3,4.5873984E5],"split_indices":[92,198,0,166,0,0,0,0,0],"split_type":[0,0,0,0,0,0,0,0,0],"sum_hessian":[9.81E2,9.75E2,6E0,9.7E2,5E0,4E0,2E0,9.64E2,6E0],"tree_param":{"num_deleted":"0","num_feature":"212","num_nodes":"9","size_leaf_vector":"1"}},{"base_weights":[9.187471E3,-3.7995032E3,4.4542828E5,-5.164175E4,4.8566488E5,-1.5906324E4,4.7000888E5,2.1591362E5,-7.2473516E4],"categories":[],"categories_nodes":[],"categories_segments":[],"categories_sizes":[],"default_left":[0,0,0,0,0,0,0,0,0],"id":16,"left_children":[1,3,-1,5,7,-1,-1,-1,-1],"loss_changes":[2.308311E13,2.2880144E13,0E0,2.3454254E13,2.7179493E13,0E0,0E0,0E0,0E0],"parents":[2147483647,0,0,1,1,3,3,4,4],"right_children":[2,4,-1,6,8,-1,-1,-1,-1],"split_conditions":[1E0,1.68426E11,4.4542828E5,1E0,2.094E1,-1.5906324E4,4.7000888E5,2.1591362E5,-7.2473516E4],"split_indices":[94,4,0,102,6,0,0,0,0],"split_type":[0,0,0,0,0,0,0,0,0],"sum_hessian":[9.81E2,9.75E2,6E0,8.89E2,8.6E1,8.84E2,5E0,5.7E1,2.9E1],"tree_param":{"num_deleted":"0","num_feature":"212","num_nodes":"9","size_leaf_vector":"1"}},{"base_weights":[7.999316E3,-4.1850737E3,4.1777094E5,-1.5568762E4,4.503617E5,-6.561671E3,4.3932916E5],"categories":[],"categories_nodes":[],"categories_segments":[],"categories_sizes":[],"default_left":[0,0,0,0,0,0,0],"id":17,"left_children":[1,3,-1,5,-1,-1,-1],"loss_changes":[2.0320352E13,2.0504772E13,0E0,1.9762736E13,0E0,0E0,0E0],"parents":[2147483647,0,0,1,1,3,3],"right_children":[2,4,-1,6,-1,-1,-1],"split_conditions":[1E0,1E0,4.1777094E5,1E0,4.503617E5,-6.561671E3,4.3932916E5],"split_indices":[16,150,0,164,0,0,0],"split_type":[0,0,0,0,0,0,0],"sum_hessian":[9.81E2,9.75E2,6E0,9.7E2,5E0,9.65E2,5E0],"tree_param":{"num_deleted":"0","num_feature":"212","num_nodes":"7","size_leaf_vector":"1"}},{"base_weights":[7.3648247E3,-4.2771187E3,1.6295322E6,-1.582967E4,1.5971875E6,4.7629712E5,1.3743612E5,-6.500807E3,4.1875122E5,1.5439278E5,4.5503228E5],"categories":[],"categories_nodes":[],"categories_segments":[],"categories_sizes":[],"default_left":[0,0,0,0,0,0,0,0,0,0,0],"id":18,"left_children":[1,3,5,7,9,-1,-1,-1,-1,-1,-1],"loss_changes":[1.8552218E13,1.8082261E13,1.265583E12,1.797543E13,5.929215E11,0E0,0E0,0E0,0E0,0E0,0E0],"parents":[2147483647,0,0,1,1,2,2,3,3,4,4],"right_children":[2,4,6,8,10,-1,-1,-1,-1,-1,-1],"split_conditions":[1E0,1E0,2.01E3,1E0,8.554E0,4.7629712E5,1.3743612E5,-6.500807E3,4.1875122E5,1.5439278E5,4.5503228E5],"split_indices":[92,69,0,198,7,0,0,0,0,0,0],"split_type":[0,0,0,0,0,0,0,0,0,0,0],"sum_hessian":[9.81E2,9.75E2,6E0,9.69E2,6E0,4E0,2E0,9.64E2,5E0,2E0,4E0],"tree_param":{"num_deleted":"0","num_feature":"212","num_nodes":"11","size_leaf_vector":"1"}},{"base_weights":[7.2263784E3,8.810124E5,-1.1855464E4,2.5335462E5,2.407931E6,-2.2943416E4,1.5041358E6,-1.1482145E4,1.5823831E5,1.7337477E5,6.383655E5,-8.268189E3,3.546592E5,5.958235E4,7.602976E5],"categories":[],"categories_nodes":[],"categories_segments":[],"categories_sizes":[],"default_left":[0,0,0,0,0,0,0,0,0,0,0,0,0,0,0],"id":19,"left_children":[1,3,5,7,9,11,13,-1,-1,-1,-1,-1,-1,-1,-1],"loss_changes":[1.6383769E13,1.9515964E13,1.6204998E13,1.9167878E12,1.7918276E11,1.5256939E13,1.3367174E13,0E0,0E0,0E0,0E0,0E0,0E0,0E0,0E0],"parents":[2147483647,0,0,1,1,2,2,3,3,4,4,5,5,6,6],"right_children":[2,4,6,8,10,12,14,-1,-1,-1,-1,-1,-1,-1,-1],"split_conditions":[2.595E0,3.5381E10,1E0,2.0067E10,2.01E3,1E0,2.01E3,-1.1482145E4,1.5823831E5,1.7337477E5,6.383655E5,-8.268189E3,3.546592E5,5.958235E4,7.602976E5],"split_indices":[7,4,200,4,0,94,0,0,0,0,0,0,0,0,0],"split_type":[0,0,0,0,0,0,0,0,0,0,0,0,0,0,0],"sum_hessian":[9.81E2,2E1,9.61E2,1.5E1,5E0,9.55E2,6E0,9E0,6E0,1E0,4E0,9.49E2,6E0,4E0,2E0],"tree_param":{"num_deleted":"0","num_feature":"212","num_nodes":"15","size_leaf_vector":"1"}},{"base_weights":[7.6201714E3,-1.9186414E3,3.8198206E5,-9.073324E4,1.7902638E5,-2.9921191E4,1.9094978E5,1.6886888E5,2.801323E4],"categories":[],"categories_nodes":[],"categories_segments":[],"categories_sizes":[],"default_left":[0,0,0,0,0,0,0,0,0],"id":20,"left_children":[1,3,-1,5,7,-1,-1,-1,-1],"loss_changes":[1.4540442E13,1.5717179E13,0E0,1.8041157E13,1.0547509E13,0E0,0E0,0E0,0E0],"parents":[2147483647,0,0,1,1,3,3,4,4],"right_children":[2,4,-1,6,8,-1,-1,-1,-1],"split_conditions":[1E0,2.1114E1,3.8198206E5,4.87049E11,4.057E0,-2.9921191E4,1.9094978E5,1.6886888E5,2.801323E4],"split_indices":[38,5,0,4,7,0,0,0,0],"split_type":[0,0,0,0,0,0,0,0,0],"sum_hessian":[9.81E2,9.76E2,5E0,6.55E2,3.21E2,6.33E2,2.2E1,3.5E1,2.86E2],"tree_param":{"num_deleted":"0","num_feature":"212","num_nodes":"9","size_leaf_vector":"1"}},{"base_weights":[6.5072583E3,-2.8641638E3,3.7507903E5,-1.2873083E4,3.3944794E5,-5.42288E3,3.6283253E5],"categories":[],"categories_nodes":[],"categories_segments":[],"categories_sizes":[],"default_left":[0,0,0,0,0,0,0],"id":21,"left_children":[1,3,-1,5,-1,-1,-1],"loss_changes":[1.4037595E13,1.3598415E13,0E0,1.3479949E13,0E0,0E0,0E0],"parents":[2147483647,0,0,1,1,3,3],"right_children":[2,4,-1,6,-1,-1,-1],"split_conditions":[1E0,1E0,3.7507903E5,1E0,3.3944794E5,-5.42288E3,3.6283253E5],"split_indices":[102,16,0,150,0,0,0],"split_type":[0,0,0,0,0,0,0],"sum_hessian":[9.81E2,9.76E2,5E0,9.7E2,6E0,9.65E2,5E0],"tree_param":{"num_deleted":"0","num_feature":"212","num_nodes":"7","size_leaf_vector":"1"}},{"base_weights":[6.00506E3,-3.5609636E3,1.3389242E6,-1.2479904E4,3.5279375E5,4.2818922E5,1.4569917E5,-5.1537617E3,3.35089E5],"categories":[],"categories_nodes":[],"categories_segments":[],"categories_sizes":[],"default_left":[0,0,0,0,0,0,0,0,0],"id":22,"left_children":[1,3,5,7,-1,-1,-1,-1,-1],"loss_changes":[1.2525992E13,1.2587619E13,1.0919084E12,1.1507135E13,0E0,0E0,0E0,0E0,0E0],"parents":[2147483647,0,0,1,1,2,2,3,3],"right_children":[2,4,6,8,-1,-1,-1,-1,-1],"split_conditions":[1E0,1E0,2.005E3,1E0,3.5279375E5,4.2818922E5,1.4569917E5,-5.1537617E3,3.35089E5],"split_indices":[92,164,0,198,0,0,0,0,0],"split_type":[0,0,0,0,0,0,0,0,0],"sum_hessian":[9.81E2,9.75E2,6E0,9.7E2,5E0,3E0,3E0,9.65E2,5E0],"tree_param":{"num_deleted":"0","num_feature":"212","num_nodes":"9","size_leaf_vector":"1"}},{"base_weights":[5.813917E3,-3.0387988E3,1.2393049E6,-1.1947747E4,1.2319209E6,7.198659E4,3.3013088E5,-4.7888804E3,3.5750878E5,3.9787416E5,1.3015059E5],"categories":[],"categories_nodes":[],"categories_segments":[],"categories_sizes":[],"default_left":[0,0,0,0,0,0,0,0,0,0,0],"id":23,"left_children":[1,3,5,7,9,-1,-1,-1,-1,-1,-1],"loss_changes":[1.0726955E13,1.0752857E13,3.2239413E11,1.0883947E13,1.0617367E12,0E0,0E0,0E0,0E0,0E0,0E0],"parents":[2147483647,0,0,1,1,2,2,3,3,4,4],"right_children":[2,4,6,8,10,-1,-1,-1,-1,-1,-1],"split_conditions":[1E0,1E0,1.995E3,1E0,2.005E3,7.198659E4,3.3013088E5,-4.7888804E3,3.5750878E5,3.9787416E5,1.3015059E5],"split_indices":[73,69,0,42,0,0,0,0,0,0,0],"split_type":[0,0,0,0,0,0,0,0,0,0,0],"sum_hessian":[9.81E2,9.75E2,6E0,9.69E2,6E0,1E0,5E0,9.65E2,4E0,3E0,3E0],"tree_param":{"num_deleted":"0","num_feature":"212","num_nodes":"11","size_leaf_vector":"1"}},{"base_weights":[5.69632E3,-3.0275122E3,1.221234E6,5.661132E3,-2.9552494E5,3.2886715E4,3.380005E5,-7.223841E2,2.916193E5],"categories":[],"categories_nodes":[],"categories_segments":[],"categories_sizes":[],"default_left":[0,0,0,0,0,0,0,0,0],"id":24,"left_children":[1,3,5,7,-1,-1,-1,-1,-1],"loss_changes":[1.0416969E13,1.0213205E13,1.0228272E12,9.900775E12,0E0,0E0,0E0,0E0,0E0],"parents":[2147483647,0,0,1,1,2,2,3,3],"right_children":[2,4,6,8,-1,-1,-1,-1,-1],"split_conditions":[1E0,1E0,1.95E1,1E0,-2.9552494E5,3.2886715E4,3.380005E5,-7.223841E2,2.916193E5],"split_indices":[55,108,6,166,0,0,0,0,0],"split_type":[0,0,0,0,0,0,0,0,0],"sum_hessian":[9.81E2,9.75E2,6E0,9.69E2,6E0,1E0,5E0,9.63E2,6E0],"tree_param":{"num_deleted":"0","num_feature":"212","num_nodes":"9","size_leaf_vector":"1"}},{"base_weights":[4.67413E3,-3.824206E3,1.1889172E6,-1.2415368E4,2.9077803E5,1.18269016E5,3.9132353E5,-5.135134E3,2.858083E5],"categories":[],"categories_nodes":[],"categories_segments":[],"categories_sizes":[],"default_left":[0,0,0,0,0,0,0,0,0],"id":25,"left_children":[1,3,5,7,-1,-1,-1,-1,-1],"loss_changes":[9.88749E12,1.0001546E13,1.2489421E12,9.806167E12,0E0,0E0,0E0,0E0,0E0],"parents":[2147483647,0,0,1,1,2,2,3,3],"right_children":[2,4,6,8,-1,-1,-1,-1,-1],"split_conditions":[1E0,1E0,2.005E3,1E0,2.9077803E5,1.18269016E5,3.9132353E5,-5.135134E3,2.858083E5],"split_indices":[12,100,0,94,0,0,0,0,0],"split_type":[0,0,0,0,0,0,0,0,0],"sum_hessian":[9.81E2,9.75E2,6E0,9.69E2,6E0,3E0,3E0,9.63E2,6E0],"tree_param":{"num_deleted":"0","num_feature":"212","num_nodes":"9","size_leaf_vector":"1"}},{"base_weights":[4.630183E3,-3.0776748E3,1.2589546E6,-1.0698467E4,3.0174866E5,3.381867E5,7.9582305E4,-4.60401E3,2.715027E5],"categories":[],"categories_nodes":[],"categories_segments":[],"categories_sizes":[],"default_left":[0,0,0,0,0,0,0,0,0],"id":26,"left_children":[1,3,5,7,-1,-1,-1,-1,-1],"loss_changes":[9.498004E12,9.208994E12,2.340579E11,8.83169E12,0E0,0E0,0E0,0E0,0E0],"parents":[2147483647,0,0,1,1,2,2,3,3],"right_children":[2,4,6,8,-1,-1,-1,-1,-1],"split_conditions":[1E0,1E0,4.8864E1,1E0,3.0174866E5,3.381867E5,7.9582305E4,-4.60401E3,2.715027E5],"split_indices":[38,102,1,16,0,0,0,0,0],"split_type":[0,0,0,0,0,0,0,0,0],"sum_hessian":[9.81E2,9.76E2,5E0,9.71E2,5E0,4E0,1E0,9.65E2,6E0],"tree_param":{"num_deleted":"0","num_feature":"212","num_nodes":"9","size_leaf_vector":"1"}},{"base_weights":[4.50063E3,-3.4422947E3,1.1113282E6,-1.0850617E4,1.196045E6,6.35036E4,6.0919256E5,-4.6391763E3,2.7089803E5,3.304524E5,5.2693504E4,1.0358309E5,-7.7660375E4],"categories":[],"categories_nodes":[],"categories_segments":[],"categories_sizes":[],"default_left":[0,0,0,0,0,0,0,0,0,0,0,0,0],"id":27,"left_children":[1,3,5,7,9,11,-1,-1,-1,-1,-1,-1,-1],"loss_changes":[8.6370277E12,8.685898E12,9.934196E12,8.7952253E12,6.110991E11,8.180291E11,0E0,0E0,0E0,0E0,0E0,0E0,0E0],"parents":[2147483647,0,0,1,1,2,2,3,3,4,4,5,5],"right_children":[2,4,6,8,10,12,-1,-1,-1,-1,-1,-1,-1],"split_conditions":[1E0,1E0,2.01E3,1E0,8.747511E1,1.758E1,6.0919256E5,-4.6391763E3,2.7089803E5,3.304524E5,5.2693504E4,1.0358309E5,-7.7660375E4],"split_indices":[200,150,0,92,2,6,0,0,0,0,0,0,0],"split_type":[0,0,0,0,0,0,0,0,0,0,0,0,0],"sum_hessian":[9.81E2,9.75E2,6E0,9.7E2,5E0,4E0,2E0,9.64E2,6E0,4E0,1E0,2E0,2E0],"tree_param":{"num_deleted":"0","num_feature":"212","num_nodes":"13","size_leaf_vector":"1"}},{"base_weights":[4.706373E3,-2.4117744E3,2.848464E5,-9.248021E3,2.707555E5,-4.0869167E3,2.4947294E5],"categories":[],"categories_nodes":[],"categories_segments":[],"categories_sizes":[],"default_left":[0,0,0,0,0,0,0],"id":28,"left_children":[1,3,-1,5,-1,-1,-1],"loss_changes":[8.099257E12,7.4097293E12,0E0,7.4482036E12,0E0,0E0,0E0],"parents":[2147483647,0,0,1,1,3,3],"right_children":[2,4,-1,6,-1,-1,-1],"split_conditions":[1E0,1E0,2.848464E5,1E0,2.707555E5,-4.0869167E3,2.4947294E5],"split_indices":[164,198,0,69,0,0,0],"split_type":[0,0,0,0,0,0,0],"sum_hessian":[9.81E2,9.76E2,5E0,9.71E2,5E0,9.65E2,6E0],"tree_param":{"num_deleted":"0","num_feature":"212","num_nodes":"7","size_leaf_vector":"1"}},{"base_weights":[4.369344E3,-2.92512E3,1.02080194E6,-6.3263535E4,1.2096633E5,2.4698094E4,4.3148594E5,-1.7933365E4,3.060766E5,3.421129E4,-2.6598075E5,-3.3107637E4,6.175982E4],"categories":[],"categories_nodes":[],"categories_segments":[],"categories_sizes":[],"default_left":[0,0,0,0,0,0,0,0,0,0,0,0,0],"id":29,"left_children":[1,3,5,7,9,11,-1,-1,-1,-1,-1,-1,-1],"loss_changes":[7.283859E12,7.303657E12,5.1226057E12,8.679752E12,7.379483E12,1.795437E11,0E0,0E0,0E0,0E0,0E0,0E0,0E0],"parents":[2147483647,0,0,1,1,2,2,3,3,4,4,5,5],"right_children":[2,4,6,8,10,12,-1,-1,-1,-1,-1,-1,-1],"split_conditions":[1E0,2.1114E1,2.005E3,1.2593E12,1E0,2E3,4.3148594E5,-1.7933365E4,3.060766E5,3.421129E4,-2.6598075E5,-3.3107637E4,6.175982E4],"split_indices":[64,5,0,4,41,0,0,0,0,0,0,0,0],"split_type":[0,0,0,0,0,0,0,0,0,0,0,0,0],"sum_hessian":[9.81E2,9.75E2,6E0,6.56E2,3.19E2,3E0,3E0,6.52E2,4E0,3.15E2,4E0,2E0,1E0],"tree_param":{"num_deleted":"0","num_feature":"212","num_nodes":"13","size_leaf_vector":"1"}},{"base_weights":[3.8251584E3,1.1053204E4,-2.460316E5,3.8319558E3,1.01013294E6,-8.320836E2,2.4464497E5,9.309669E4,2.9051172E5],"categories":[],"categories_nodes":[],"categories_segments":[],"categories_sizes":[],"default_left":[0,0,0,0,0,0,0,0,0],"id":30,"left_children":[1,3,-1,5,7,-1,-1,-1,-1],"loss_changes":[7.1682595E12,7.0375823E12,0E0,6.980876E12,3.2531127E11,0E0,0E0,0E0,0E0],"parents":[2147483647,0,0,1,1,3,3,4,4],"right_children":[2,4,-1,6,8,-1,-1,-1,-1],"split_conditions":[1E0,1E0,-2.460316E5,1E0,2E3,-8.320836E2,2.4464497E5,9.309669E4,2.9051172E5],"split_indices":[101,73,0,55,0,0,0,0,0],"split_type":[0,0,0,0,0,0,0,0,0],"sum_hessian":[9.81E2,9.75E2,6E0,9.69E2,6E0,9.63E2,6E0,2E0,4E0],"tree_param":{"num_deleted":"0","num_feature":"212","num_nodes":"9","size_leaf_vector":"1"}},{"base_weights":[3.276652E3,-2.6522017E3,2.8467775E5,-9.641451E3,9.682339E5,-3.9589092E3,2.5549192E5,9.60537E4,3.1894975E5],"categories":[],"categories_nodes":[],"categories_segments":[],"categories_sizes":[],"default_left":[0,0,0,0,0,0,0,0,0],"id":31,"left_children":[1,3,-1,5,7,-1,-1,-1,-1],"loss_changes":[6.7511014E12,6.6458133E12,0E0,6.6911716E12,8.361177E11,0E0,0E0,0E0,0E0],"parents":[2147483647,0,0,1,1,3,3,4,4],"right_children":[2,4,-1,6,8,-1,-1,-1,-1],"split_conditions":[1E0,1E0,2.8467775E5,1E0,2.005E3,-3.9589092E3,2.5549192E5,9.60537E4,3.1894975E5],"split_indices":[42,12,0,38,0,0,0,0,0],"split_type":[0,0,0,0,0,0,0,0,0],"sum_hessian":[9.81E2,9.77E2,4E0,9.71E2,6E0,9.66E2,5E0,3E0,3E0],"tree_param":{"num_deleted":"0","num_feature":"212","num_nodes":"9","size_leaf_vector":"1"}},{"base_weights":[3.442779E3,9.739129E3,-1.0223867E6,3.0318303E3,9.38746E5,-5.416126E5,-4.1958825E5,-9.1922473E2,2.2972697E5,6.226322E4,3.401012E5,-2.305202E4,-1.5429219E5],"categories":[],"categories_nodes":[],"categories_segments":[],"categories_sizes":[],"default_left":[0,0,0,0,0,0,0,0,0,0,0,0,0],"id":32,"left_children":[1,3,5,7,9,11,-1,-1,-1,-1,-1,-1,-1],"loss_changes":[6.3526766E12,6.084965E12,1.06469314E12,6.1628875E12,1.8025425E12,1.3837612E11,0E0,0E0,0E0,0E0,0E0,0E0,0E0],"parents":[2147483647,0,0,1,1,2,2,3,3,4,4,5,5],"right_children":[2,4,6,8,10,12,-1,-1,-1,-1,-1,-1,-1],"split_conditions":[1E0,1E0,2.01E3,1E0,2.005E3,1.995E3,-4.1958825E5,-9.1922473E2,2.2972697E5,6.226322E4,3.401012E5,-2.305202E4,-1.5429219E5],"split_indices":[144,166,0,94,0,0,0,0,0,0,0,0,0],"split_type":[0,0,0,0,0,0,0,0,0,0,0,0,0],"sum_hessian":[9.81E2,9.76E2,5E0,9.7E2,6E0,4E0,1E0,9.64E2,6E0,3E0,3E0,1E0,3E0],"tree_param":{"num_deleted":"0","num_feature":"212","num_nodes":"13","size_leaf_vector":"1"}},{"base_weights":[2.6344258E3,-3.983383E3,9.2496975E5,2.610891E3,-9.171924E5,6.2130324E4,2.4359631E5,2.1449934E3,-2.41605E5,-1.0697867E5,-2.861474E5],"categories":[],"categories_nodes":[],"categories_segments":[],"categories_sizes":[],"default_left":[0,0,0,0,0,0,0,0,0,0,0],"id":33,"left_children":[1,3,5,7,9,-1,-1,-1,-1,-1,-1],"loss_changes":[5.9976544E12,5.8798186E12,7.478444E10,5.9058343E12,3.3416964E11,0E0,0E0,0E0,0E0,0E0,0E0],"parents":[2147483647,0,0,1,1,2,2,3,3,4,4],"right_children":[2,4,6,8,10,-1,-1,-1,-1,-1,-1],"split_conditions":[1E0,1E0,1.995E3,1E0,2.005E3,6.2130324E4,2.4359631E5,2.1449934E3,-2.41605E5,-1.0697867E5,-2.861474E5],"split_indices":[100,108,0,125,0,0,0,0,0,0,0],"split_type":[0,0,0,0,0,0,0,0,0,0,0],"sum_hessian":[9.81E2,9.75E2,6E0,9.69E2,6E0,1E0,5E0,9.64E2,5E0,3E0,3E0],"tree_param":{"num_deleted":"0","num_feature":"212","num_nodes":"11","size_leaf_vector":"1"}},{"base_weights":[1.6563375E3,-4.800614E3,9.017032E5,-1.0825151E4,2.378151E5,5.0244438E4,2.4090995E5,-4.1420815E3,2.3779803E5],"categories":[],"categories_nodes":[],"categories_segments":[],"categories_sizes":[],"default_left":[0,0,0,0,0,0,0,0,0],"id":34,"left_children":[1,3,5,7,-1,-1,-1,-1,-1],"loss_changes":[5.7112794E12,5.747995E12,1.9757531E11,5.818383E12,0E0,0E0,0E0,0E0,0E0],"parents":[2147483647,0,0,1,1,2,2,3,3],"right_children":[2,4,6,8,-1,-1,-1,-1,-1],"split_conditions":[1E0,1E0,6.753611E-1,1E0,2.378151E5,5.0244438E4,2.4090995E5,-4.1420815E3,2.3779803E5],"split_indices":[16,102,3,150,0,0,0,0,0],"split_type":[0,0,0,0,0,0,0,0,0],"sum_hessian":[9.81E2,9.75E2,6E0,9.7E2,5E0,1E0,5E0,9.65E2,5E0],"tree_param":{"num_deleted":"0","num_feature":"212","num_nodes":"9","size_leaf_vector":"1"}},{"base_weights":[2.0272621E3,-4.3035083E3,8.8442794E5,-1.0016193E4,2.2555566E5,3.048405E5,3.0312175E5,-3.9664116E3,2.065018E5,9.480155E4,6.281963E3],"categories":[],"categories_nodes":[],"categories_segments":[],"categories_sizes":[],"default_left":[0,0,0,0,0,0,0,0,0,0,0],"id":35,"left_children":[1,3,5,7,-1,-1,9,-1,-1,-1,-1],"loss_changes":[5.489529E12,5.167864E12,1.0884287E12,5.131648E12,0E0,0E0,8.323855E10,0E0,0E0,0E0,0E0],"parents":[2147483647,0,0,1,1,2,2,3,3,6,6],"right_children":[2,4,6,8,-1,-1,10,-1,-1,-1,-1],"split_conditions":[1E0,1E0,2.005E3,1E0,2.2555566E5,3.048405E5,2.015E3,-3.9664116E3,2.065018E5,9.480155E4,6.281963E3],"split_indices":[92,164,0,64,0,0,0,0,0,0,0],"split_type":[0,0,0,0,0,0,0,0,0,0,0],"sum_hessian":[9.81E2,9.75E2,6E0,9.7E2,5E0,3E0,3E0,9.64E2,6E0,2E0,1E0],"tree_param":{"num_deleted":"0","num_feature":"212","num_nodes":"11","size_leaf_vector":"1"}},{"base_weights":[2.3800479E3,-3.5353828E3,8.2682006E5,-9.493988E3,8.226622E5,7.9665805E4,2.3571317E5,-3.6750872E3,2.1515033E5,2.8398006E5,6.862858E4],"categories":[],"categories_nodes":[],"categories_segments":[],"categories_sizes":[],"default_left":[0,0,0,0,0,0,0,0,0,0,0],"id":36,"left_children":[1,3,5,7,9,-1,-1,-1,-1,-1,-1],"loss_changes":[4.792057E12,4.812644E12,1.6293246E11,4.7597025E12,9.540002E11,0E0,0E0,0E0,0E0,0E0,0E0],"parents":[2147483647,0,0,1,1,2,2,3,3,4,4],"right_children":[2,4,6,8,10,-1,-1,-1,-1,-1,-1],"split_conditions":[1E0,1E0,2E3,1E0,2.005E3,7.9665805E4,2.3571317E5,-3.6750872E3,2.1515033E5,2.8398006E5,6.862858E4],"split_indices":[73,69,0,198,0,0,0,0,0,0,0],"split_type":[0,0,0,0,0,0,0,0,0,0,0],"sum_hessian":[9.81E2,9.75E2,6E0,9.69E2,6E0,2E0,4E0,9.64E2,5E0,3E0,3E0],"tree_param":{"num_deleted":"0","num_feature":"212","num_nodes":"11","size_leaf_vector":"1"}},{"base_weights":[2.6926973E3,8.0090474E3,-8.634351E5,2.279732E3,8.016028E5,-4.3671603E5,-3.670241E5,-8.5846967E2,1.957992E5,5.1344883E3,2.2734331E5,-1.904864E4,-1.241791E5],"categories":[],"categories_nodes":[],"categories_segments":[],"categories_sizes":[],"default_left":[0,0,0,0,0,0,0,0,0,0,0,0,0],"id":37,"left_children":[1,3,5,7,9,11,-1,-1,-1,-1,-1,-1,-1],"loss_changes":[4.52867E12,4.4403455E12,9.715796E11,4.480367E12,6.72413E11,8.6722806E10,0E0,0E0,0E0,0E0,0E0,0E0,0E0],"parents":[2147483647,0,0,1,1,2,2,3,3,4,4,5,5],"right_children":[2,4,6,8,10,12,-1,-1,-1,-1,-1,-1,-1],"split_conditions":[1E0,1E0,2.01E3,1E0,1.95E1,1.995E3,-3.670241E5,-8.5846967E2,1.957992E5,5.1344883E3,2.2734331E5,-1.904864E4,-1.241791E5],"split_indices":[144,55,0,12,6,0,0,0,0,0,0,0,0],"split_type":[0,0,0,0,0,0,0,0,0,0,0,0,0],"sum_hessian":[9.81E2,9.76E2,5E0,9.7E2,6E0,4E0,1E0,9.64E2,6E0,1E0,5E0,1E0,3E0],"tree_param":{"num_deleted":"0","num_feature":"212","num_nodes":"13","size_leaf_vector":"1"}},{"base_weights":[1.948849E3,-2.8678018E3,2.3113489E5,-8.484712E3,7.7749E5,-3.3650276E3,2.0567497E5,3.0804645E4,5.7408006E5],"categories":[],"categories_nodes":[],"categories_segments":[],"categories_sizes":[],"default_left":[0,0,0,0,0,0,0,0,0],"id":38,"left_children":[1,3,-1,5,7,-1,-1,-1,-1],"loss_changes":[4.457124E12,4.293366E12,0E0,4.3435987E12,6.85121E12,0E0,0E0,0E0,0E0],"parents":[2147483647,0,0,1,1,3,3,4,4],"right_children":[2,4,-1,6,8,-1,-1,-1,-1],"split_conditions":[1E0,1E0,2.3113489E5,1E0,2.015E3,-3.3650276E3,2.0567497E5,3.0804645E4,5.7408006E5],"split_indices":[42,200,0,38,0,0,0,0,0],"split_type":[0,0,0,0,0,0,0,0,0],"sum_hessian":[9.81E2,9.77E2,4E0,9.71E2,6E0,9.66E2,5E0,5E0,1E0],"tree_param":{"num_deleted":"0","num_feature":"212","num_nodes":"9","size_leaf_vector":"1"}},{"base_weights":[2.5288855E3,8.1212676E3,-7.775702E5,2.555727E3,7.78186E5,-2.1575898E5,-8.477688E4,-7.5230194E2,1.9034316E5,5.3372254E4,2.8017306E5],"categories":[],"categories_nodes":[],"categories_segments":[],"categories_sizes":[],"default_left":[0,0,0,0,0,0,0,0,0,0,0],"id":39,"left_children":[1,3,5,7,9,-1,-1,-1,-1,-1,-1],"loss_changes":[4.2904E12,4.1809776E12,7.2005714E9,4.230475E12,1.1850773E12,0E0,0E0,0E0,0E0,0E0,0E0],"parents":[2147483647,0,0,1,1,2,2,3,3,4,4],"right_children":[2,4,6,8,10,-1,-1,-1,-1,-1,-1],"split_conditions":[1E0,1E0,2.01E3,1E0,2.005E3,-2.1575898E5,-8.477688E4,-7.5230194E2,1.9034316E5,5.3372254E4,2.8017306E5],"split_indices":[101,166,0,13,0,0,0,0,0,0,0],"split_type":[0,0,0,0,0,0,0,0,0,0,0],"sum_hessian":[9.81E2,9.75E2,6E0,9.69E2,6E0,4E0,2E0,9.63E2,6E0,3E0,3E0],"tree_param":{"num_deleted":"0","num_feature":"212","num_nodes":"11","size_leaf_vector":"1"}},{"base_weights":[2.136176E3,-3.2761348E3,7.5646175E5,-8.7345E3,7.535654E5,8.100223E4,2.1078578E5,-3.4567214E3,1.7959423E5,2.6788662E5,9.7662E4],"categories":[],"categories_nodes":[],"categories_segments":[],"categories_sizes":[],"default_left":[0,0,0,0,0,0,0,0,0,0,0],"id":40,"left_children":[1,3,5,7,9,-1,-1,-1,-1,-1,-1],"loss_changes":[4.0116352E12,4.0385527E12,2.5765347E10,3.8817232E12,4.0881095E11,0E0,0E0,0E0,0E0,0E0,0E0],"parents":[2147483647,0,0,1,1,2,2,3,3,4,4],"right_children":[2,4,6,8,10,-1,-1,-1,-1,-1,-1],"split_conditions":[1E0,1E0,2E3,1E0,2E3,8.100223E4,2.1078578E5,-3.4567214E3,1.7959423E5,2.6788662E5,9.7662E4],"split_indices":[100,94,0,16,0,0,0,0,0,0,0],"split_type":[0,0,0,0,0,0,0,0,0,0,0],"sum_hessian":[9.81E2,9.75E2,6E0,9.69E2,6E0,2E0,4E0,9.63E2,6E0,2E0,4E0],"tree_param":{"num_deleted":"0","num_feature":"212","num_nodes":"11","size_leaf_vector":"1"}},{"base_weights":[2.4617214E3,7.72242E3,-7.313816E5,2.4575752E3,7.361763E5,-8.361376E4,-2.2987033E5,-5.922034E2,1.9255678E5,2.5106723E5,6.4471926E4],"categories":[],"categories_nodes":[],"categories_segments":[],"categories_sizes":[],"default_left":[0,0,0,0,0,0,0,0,0,0,0],"id":41,"left_children":[1,3,5,7,9,-1,-1,-1,-1,-1,-1],"loss_changes":[3.7966874E12,3.7413425E12,2.4511722E11,3.7083158E12,6.866081E11,0E0,0E0,0E0,0E0,0E0,0E0],"parents":[2147483647,0,0,1,1,2,2,3,3,4,4],"right_children":[2,4,6,8,10,-1,-1,-1,-1,-1,-1],"split_conditions":[1E0,1E0,2.005E3,1E0,2.005E3,-8.361376E4,-2.2987033E5,-5.922034E2,1.9255678E5,2.5106723E5,6.4471926E4],"split_indices":[108,92,0,102,0,0,0,0,0,0,0],"split_type":[0,0,0,0,0,0,0,0,0,0,0],"sum_hessian":[9.81E2,9.75E2,6E0,9.69E2,6E0,3E0,3E0,9.64E2,5E0,3E0,3E0],"tree_param":{"num_deleted":"0","num_feature":"212","num_nodes":"11","size_leaf_vector":"1"}},{"base_weights":[2.056357E3,-2.7639749E3,7.866243E5,6.3868444E5,-8.718848E3,3.0932856E5,2.32723E5,2.1847928E4,2.2007955E5,-3.322539E3,1.8894367E5,1.5907675E4,6.5394504E4],"categories":[],"categories_nodes":[],"categories_segments":[],"categories_sizes":[],"default_left":[0,0,0,0,0,0,0,0,0,0,0,0,0],"id":42,"left_children":[1,3,5,7,9,-1,11,-1,-1,-1,-1,-1,-1],"loss_changes":[3.7159785E12,3.7374586E12,1.2891112E12,1.2050104E12,3.6744025E12,0E0,5.6604754E9,0E0,0E0,0E0,0E0,0E0,0E0],"parents":[2147483647,0,0,1,1,2,2,3,3,4,4,6,6],"right_children":[2,4,6,8,10,-1,12,-1,-1,-1,-1,-1,-1],"split_conditions":[1E0,1.883E0,1.0970505E0,2.3778E10,1E0,3.0932856E5,2E3,2.1847928E4,2.2007955E5,-3.322539E3,1.8894367E5,1.5907675E4,6.5394504E4],"split_indices":[150,7,3,4,201,0,0,0,0,0,0,0,0],"split_type":[0,0,0,0,0,0,0,0,0,0,0,0,0],"sum_hessian":[9.81E2,9.76E2,5E0,8E0,9.68E2,2E0,3E0,3E0,5E0,9.63E2,5E0,1E0,2E0],"tree_param":{"num_deleted":"0","num_feature":"212","num_nodes":"13","size_leaf_vector":"1"}},{"base_weights":[2.3858857E3,6.7464927E3,-2.0843767E5,2.2003467E3,8.909864E5,1.7018694E3,-1.8736717E5,-5.1294188E4,4.150025E5],"categories":[],"categories_nodes":[],"categories_segments":[],"categories_sizes":[],"default_left":[0,0,0,0,0,0,0,0,0],"id":43,"left_children":[1,3,-1,5,7,-1,-1,-1,-1],"loss_changes":[3.6601502E12,3.9294856E12,0E0,3.5533984E12,4.7753247E12,0E0,0E0,0E0,0E0],"parents":[2147483647,0,0,1,1,3,3,4,4],"right_children":[2,4,-1,6,8,-1,-1,-1,-1],"split_conditions":[1E0,1.2593E12,-2.0843767E5,1E0,2.01E3,1.7018694E3,-1.8736717E5,-5.1294188E4,4.150025E5],"split_indices":[41,4,0,125,0,0,0,0,0],"split_type":[0,0,0,0,0,0,0,0,0],"sum_hessian":[9.81E2,9.77E2,4E0,9.73E2,4E0,9.68E2,5E0,2E0,2E0],"tree_param":{"num_deleted":"0","num_feature":"212","num_nodes":"9","size_leaf_vector":"1"}},{"base_weights":[1.7705703E3,-2.7949028E3,7.448867E5,-7.719155E3,6.806685E5,1.9939969E5,4.882522E4,-3.1078154E3,1.661792E5,2.337701E5,5.7977367E4],"categories":[],"categories_nodes":[],"categories_segments":[],"categories_sizes":[],"default_left":[0,0,0,0,0,0,0,0,0,0,0],"id":44,"left_children":[1,3,5,7,9,-1,-1,-1,-1,-1,-1],"loss_changes":[3.33369E12,3.293393E12,6.4339837E10,3.3199526E12,6.24907E11,0E0,0E0,0E0,0E0,0E0,0E0],"parents":[2147483647,0,0,1,1,2,2,3,3,4,4],"right_children":[2,4,6,8,10,-1,-1,-1,-1,-1,-1],"split_conditions":[1E0,1E0,2.8692E1,1E0,2.005E3,1.9939969E5,4.882522E4,-3.1078154E3,1.661792E5,2.337701E5,5.7977367E4],"split_indices":[164,69,1,73,0,0,0,0,0,0,0],"split_type":[0,0,0,0,0,0,0,0,0,0,0],"sum_hessian":[9.81E2,9.76E2,5E0,9.7E2,6E0,4E0,1E0,9.64E2,6E0,3E0,3E0],"tree_param":{"num_deleted":"0","num_feature":"212","num_nodes":"11","size_leaf_vector":"1"}},{"base_weights":[2.0528464E3,-2.8191787E3,6.8105906E5,1.653974E3,-7.2625456E5,1.6514225E4,3.824786E5,-6.738238E2,1.740443E5,-8.52543E4,-3.2049828E5,-5.731578E4,6.405703E4],"categories":[],"categories_nodes":[],"categories_segments":[],"categories_sizes":[],"default_left":[0,0,0,0,0,0,0,0,0,0,0,0,0],"id":45,"left_children":[1,3,5,7,9,11,-1,-1,-1,-1,-1,-1,-1],"loss_changes":[3.2505093E12,3.1595731E12,4.0703896E12,3.0343857E12,8.6577277E11,3.6812836E11,0E0,0E0,0E0,0E0,0E0,0E0,0E0],"parents":[2147483647,0,0,1,1,2,2,3,3,4,4,5,5],"right_children":[2,4,6,8,10,12,-1,-1,-1,-1,-1,-1,-1],"split_conditions":[1E0,1E0,2.01E3,1E0,2.01E3,2E3,3.824786E5,-6.738238E2,1.740443E5,-8.52543E4,-3.2049828E5,-5.731578E4,6.405703E4],"split_indices":[64,144,0,198,0,0,0,0,0,0,0,0,0],"split_type":[0,0,0,0,0,0,0,0,0,0,0,0,0],"sum_hessian":[9.81E2,9.75E2,6E0,9.7E2,5E0,4E0,2E0,9.65E2,5E0,4E0,1E0,2E0,2E0],"tree_param":{"num_deleted":"0","num_feature":"212","num_nodes":"13","size_leaf_vector":"1"}},{"base_weights":[1.7097587E3,-2.9424165E3,6.501116E5,-6.899746E3,1.8784556E5,1.5574433E5,2.0003275E5,-2.8422283E3,1.5756986E5,6.1674604E3,5.1051098E4],"categories":[],"categories_nodes":[],"categories_segments":[],"categories_sizes":[],"default_left":[0,0,0,0,0,0,0,0,0,0,0],"id":46,"left_children":[1,3,5,7,-1,9,-1,-1,-1,-1,-1],"loss_changes":[2.9640952E12,2.978892E12,4.493266E11,2.9810056E12,0E0,1.5389991E10,0E0,0E0,0E0,0E0,0E0],"parents":[2147483647,0,0,1,1,2,2,3,3,5,5],"right_children":[2,4,6,8,-1,10,-1,-1,-1,-1,-1],"split_conditions":[1E0,1E0,8.371293E-1,1E0,1.8784556E5,2.01E3,2.0003275E5,-2.8422283E3,1.5756986E5,6.1674604E3,5.1051098E4],"split_indices":[55,42,3,166,0,0,0,0,0,0,0],"split_type":[0,0,0,0,0,0,0,0,0,0,0],"sum_hessian":[9.81E2,9.75E2,6E0,9.71E2,4E0,2E0,4E0,9.65E2,6E0,1E0,1E0],"tree_param":{"num_deleted":"0","num_feature":"212","num_nodes":"11","size_leaf_vector":"1"}},{"base_weights":[1.9018165E3,-2.596284E3,6.287939E5,-6.8066973E3,6.792216E5,2.6393847E5,9.169584E4,-2.7870815E3,1.5296417E5,3.1043201E4,2.262553E5],"categories":[],"categories_nodes":[],"categories_segments":[],"categories_sizes":[],"default_left":[0,0,0,0,0,0,0,0,0,0,0],"id":47,"left_children":[1,3,5,7,9,-1,-1,-1,-1,-1,-1],"loss_changes":[2.7706993E12,2.8064607E12,3.9587335E11,2.8102707E12,6.935688E11,0E0,0E0,0E0,0E0,0E0,0E0],"parents":[2147483647,0,0,1,1,2,2,3,3,4,4],"right_children":[2,4,6,8,10,-1,-1,-1,-1,-1,-1],"split_conditions":[1E0,1E0,1.995E3,1E0,1.574E1,2.6393847E5,9.169584E4,-2.7870815E3,1.5296417E5,3.1043201E4,2.262553E5],"split_indices":[94,38,0,13,6,0,0,0,0,0,0],"split_type":[0,0,0,0,0,0,0,0,0,0,0],"sum_hessian":[9.81E2,9.75E2,6E0,9.7E2,5E0,1E0,5E0,9.64E2,6E0,2E0,3E0],"tree_param":{"num_deleted":"0","num_feature":"212","num_nodes":"11","size_leaf_vector":"1"}},{"base_weights":[2.2131104E3,-2.240322E3,6.228327E5,-6.364049E3,6.6548956E5,8.185258E4,1.8510536E5,-2.6528816E3,1.4950253E5,2.6007908E5,4.9433383E4],"categories":[],"categories_nodes":[],"categories_segments":[],"categories_sizes":[],"default_left":[0,0,0,0,0,0,0,0,0,0,0],"id":48,"left_children":[1,3,5,7,9,-1,-1,-1,-1,-1,-1],"loss_changes":[2.7155324E12,2.691686E12,1.6010183E10,2.682011E12,8.883987E11,0E0,0E0,0E0,0E0,0E0,0E0],"parents":[2147483647,0,0,1,1,2,2,3,3,4,4],"right_children":[2,4,6,8,10,-1,-1,-1,-1,-1,-1],"split_conditions":[1E0,1E0,2.005E3,1E0,1.0970505E0,8.185258E4,1.8510536E5,-2.6528816E3,1.4950253E5,2.6007908E5,4.9433383E4],"split_indices":[100,150,0,92,3,0,0,0,0,0,0],"split_type":[0,0,0,0,0,0,0,0,0,0,0],"sum_hessian":[9.81E2,9.75E2,6E0,9.7E2,5E0,3E0,3E0,9.64E2,6E0,2E0,3E0],"tree_param":{"num_deleted":"0","num_feature":"212","num_nodes":"11","size_leaf_vector":"1"}},{"base_weights":[2.4076455E3,6.832283E3,-6.148572E5,1.1098371E4,-5.8530175E5,-1.8445211E5,-7.908739E4,-5.6398975E2,6.187437E4,-2.0949562E5,-7.499978E4],"categories":[],"categories_nodes":[],"categories_segments":[],"categories_sizes":[],"default_left":[0,0,0,0,0,0,0,0,0,0,0],"id":49,"left_children":[1,3,5,7,9,-1,-1,-1,-1,-1,-1],"loss_changes":[2.6862132E12,2.4719655E12,3.933628E10,3.1402044E12,2.6563969E11,0E0,0E0,0E0,0E0,0E0,0E0],"parents":[2147483647,0,0,1,1,2,2,3,3,4,4],"right_children":[2,4,6,8,10,-1,-1,-1,-1,-1,-1],"split_conditions":[1E0,1E0,2.005E3,2.35368E11,5.108E0,-1.8445211E5,-7.908739E4,-5.6398975E2,6.187437E4,-2.0949562E5,-7.499978E4],"split_indices":[101,108,0,4,7,0,0,0,0,0,0],"split_type":[0,0,0,0,0,0,0,0,0,0,0],"sum_hessian":[9.81E2,9.75E2,6E0,9.69E2,6E0,3E0,3E0,9.19E2,5E1,2E0,4E0],"tree_param":{"num_deleted":"0","num_feature":"212","num_nodes":"11","size_leaf_vector":"1"}},{"base_weights":[1.322308E3,5.62062E3,-5.9817406E5,9.240195E3,-6.991489E5,8.019368E4,-2.5322725E5,-6.0305817E2,6.4200742E4,-4.436472E4,-1.9186658E5],"categories":[],"categories_nodes":[],"categories_segments":[],"categories_sizes":[],"default_left":[0,0,0,0,0,0,0,0,0,0,0],"id":50,"left_children":[1,3,5,7,9,-1,-1,-1,-1,-1,-1],"loss_changes":[2.5338019E12,2.496203E12,3.161637E12,2.8771324E12,7.623777E10,0E0,0E0,0E0,0E0,0E0,0E0],"parents":[2147483647,0,0,1,1,2,2,3,3,4,4],"right_children":[2,4,6,8,10,-1,-1,-1,-1,-1,-1],"split_conditions":[1E0,1E0,2E3,3.10791E11,2E3,8.019368E4,-2.5322725E5,-6.0305817E2,6.4200742E4,-4.436472E4,-1.9186658E5],"split_indices":[20,41,0,4,0,0,0,0,0,0,0],"split_type":[0,0,0,0,0,0,0,0,0,0,0],"sum_hessian":[9.81E2,9.75E2,6E0,9.71E2,4E0,2E0,4E0,9.29E2,4.2E1,1E0,3E0],"tree_param":{"num_deleted":"0","num_feature":"212","num_nodes":"11","size_leaf_vector":"1"}},{"base_weights":[6.464398E2,4.644886E3,-6.505416E5,4.0177612E2,5.925613E5,-1.8640638E5,-2.5779386E5,-8.718085E2,1.5628639E5,2.5534244E4,1.6081061E5,-3.539138E3,-5.8514723E4],"categories":[],"categories_nodes":[],"categories_segments":[],"categories_sizes":[],"default_left":[0,0,0,0,0,0,0,0,0,0,0,0,0],"id":51,"left_children":[1,3,5,7,9,11,-1,-1,-1,-1,-1,-1,-1],"loss_changes":[2.559895E12,2.4369803E12,9.232929E11,2.455101E12,1.5034352E11,3.2660193E10,0E0,0E0,0E0,0E0,0E0,0E0,0E0],"parents":[2147483647,0,0,1,1,2,2,3,3,4,4,5,5],"right_children":[2,4,6,8,10,12,-1,-1,-1,-1,-1,-1,-1],"split_conditions":[1E0,1E0,2.005E3,1E0,6.753611E-1,1.995E3,-2.5779386E5,-8.718085E2,1.5628639E5,2.5534244E4,1.6081061E5,-3.539138E3,-5.8514723E4],"split_indices":[144,16,0,102,3,0,0,0,0,0,0,0,0],"split_type":[0,0,0,0,0,0,0,0,0,0,0,0,0],"sum_hessian":[9.81E2,9.76E2,5E0,9.7E2,6E0,3E0,2E0,9.65E2,5E0,1E0,5E0,1E0,2E0],"tree_param":{"num_deleted":"0","num_feature":"212","num_nodes":"13","size_leaf_vector":"1"}},{"base_weights":[5.104264E2,5.1322084E5,-4.227668E3,7.8499425E5,1.3880322E5,-8.115212E3,1.5291052E5,2.7607871E4,2.2652711E5,5.8244176E4,-3.1497344E4,-2.916508E3,1.4758505E5],"categories":[],"categories_nodes":[],"categories_segments":[],"categories_sizes":[],"default_left":[0,0,0,0,0,0,0,0,0,0,0,0,0],"id":52,"left_children":[1,3,5,7,9,11,-1,-1,-1,-1,-1,-1,-1],"loss_changes":[2.3877132E12,8.068512E11,2.3850239E12,3.6596587E11,1.6294709E11,2.251433E12,0E0,0E0,0E0,0E0,0E0,0E0,0E0],"parents":[2147483647,0,0,1,1,2,2,3,3,4,4,5,5],"right_children":[2,4,6,8,10,12,-1,-1,-1,-1,-1,-1,-1],"split_conditions":[1.883E0,1.79E1,1E0,2.01E3,1.5999032E0,1E0,1.5291052E5,2.7607871E4,2.2652711E5,5.8244176E4,-3.1497344E4,-2.916508E3,1.4758505E5],"split_indices":[7,6,201,0,3,164,0,0,0,0,0,0,0],"split_type":[0,0,0,0,0,0,0,0,0,0,0,0,0],"sum_hessian":[9.81E2,8E0,9.73E2,4E0,4E0,9.68E2,5E0,1E0,3E0,3E0,1E0,9.63E2,5E0],"tree_param":{"num_deleted":"0","num_feature":"212","num_nodes":"13","size_leaf_vector":"1"}},{"base_weights":[9.744697E2,4.6954165E3,-6.050821E5,8.649305E3,-1.3334612E5,2.6429945E4,-2.421222E5,3.0791626E3,-1.3062773E5],"categories":[],"categories_nodes":[],"categories_segments":[],"categories_sizes":[],"default_left":[0,0,0,0,0,0,0,0,0],"id":53,"left_children":[1,3,5,7,-1,-1,-1,-1,-1],"loss_changes":[2.2173537E12,2.1259764E12,1.7471586E12,2.0710195E12,0E0,0E0,0E0,0E0,0E0],"parents":[2147483647,0,0,1,1,2,2,3,3],"right_children":[2,4,6,8,-1,-1,-1,-1,-1],"split_conditions":[1E0,1E0,2E3,1E0,-1.3334612E5,2.6429945E4,-2.421222E5,3.0791626E3,-1.3062773E5],"split_indices":[125,101,0,67,0,0,0,0,0],"split_type":[0,0,0,0,0,0,0,0,0],"sum_hessian":[9.81E2,9.76E2,5E0,9.7E2,6E0,2E0,3E0,9.64E2,6E0],"tree_param":{"num_deleted":"0","num_feature":"212","num_nodes":"9","size_leaf_vector":"1"}},{"base_weights":[2.5047328E2,-3.5727837E3,5.3328594E5,-3.657156E4,6.418899E4,9.45675E3,3.0090834E5,-1.0121834E4,1.8368428E5,2.1551508E4,-8.329043E4,-4.6298375E4,5.01587E4],"categories":[],"categories_nodes":[],"categories_segments":[],"categories_sizes":[],"default_left":[0,0,0,0,0,0,0,0,0,0,0,0,0],"id":54,"left_children":[1,3,5,7,9,11,-1,-1,-1,-1,-1,-1,-1],"loss_changes":[2.0031542E12,2.1847376E12,2.537862E12,2.4879804E12,3.1091382E12,2.325699E11,0E0,0E0,0E0,0E0,0E0,0E0,0E0],"parents":[2147483647,0,0,1,1,2,2,3,3,4,4,5,5],"right_children":[2,4,6,8,10,12,-1,-1,-1,-1,-1,-1,-1],"split_conditions":[1E0,2.1114E1,2.01E3,1E0,1.93184E11,2E3,3.0090834E5,-1.0121834E4,1.8368428E5,2.1551508E4,-8.329043E4,-4.6298375E4,5.01587E4],"split_indices":[64,5,0,150,4,0,0,0,0,0,0,0,0],"split_type":[0,0,0,0,0,0,0,0,0,0,0,0,0],"sum_hessian":[9.81E2,9.75E2,6E0,6.56E2,3.19E2,4E0,2E0,6.53E2,3E0,3.02E2,1.7E1,2E0,2E0],"tree_param":{"num_deleted":"0","num_feature":"212","num_nodes":"13","size_leaf_vector":"1"}},{"base_weights":[6.1335E2,-3.1776516E3,5.290997E5,-6.695323E3,5.666285E5,2.3341006E5,7.338477E4,-2.4997207E3,1.3707216E5,2.2726303E5,3.7725086E4],"categories":[],"categories_nodes":[],"categories_segments":[],"categories_sizes":[],"default_left":[0,0,0,0,0,0,0,0,0,0,0],"id":55,"left_children":[1,3,5,7,9,-1,-1,-1,-1,-1,-1],"loss_changes":[1.9691109E12,1.9600793E12,3.953737E11,1.9363379E12,7.5141664E11,0E0,0E0,0E0,0E0,0E0,0E0],"parents":[2147483647,0,0,1,1,2,2,3,3,4,4],"right_children":[2,4,6,8,10,-1,-1,-1,-1,-1,-1],"split_conditions":[1E0,1E0,1.995E3,1E0,2.005E3,2.3341006E5,7.338477E4,-2.4997207E3,1.3707216E5,2.2726303E5,3.7725086E4],"split_indices":[94,198,0,97,0,0,0,0,0,0,0],"split_type":[0,0,0,0,0,0,0,0,0,0,0],"sum_hessian":[9.81E2,9.75E2,6E0,9.7E2,5E0,1E0,5E0,9.65E2,5E0,2E0,3E0],"tree_param":{"num_deleted":"0","num_feature":"212","num_nodes":"11","size_leaf_vector":"1"}},{"base_weights":[1.1824318E3,-1.9174657E3,1.487396E5,-5.562968E3,5.0456044E5,-2.263255E3,1.2313483E5,1.8800216E5,2.8262037E4],"categories":[],"categories_nodes":[],"categories_segments":[],"categories_sizes":[],"default_left":[0,0,0,0,0,0,0,0,0],"id":56,"left_children":[1,3,-1,5,7,-1,-1,-1,-1],"loss_changes":[1.8462038E12,1.8085528E12,0E0,1.821671E12,6.279704E11,0E0,0E0,0E0,0E0],"parents":[2147483647,0,0,1,1,3,3,4,4],"right_children":[2,4,-1,6,8,-1,-1,-1,-1],"split_conditions":[1E0,1E0,1.487396E5,1E0,2.005E3,-2.263255E3,1.2313483E5,1.8800216E5,2.8262037E4],"split_indices":[42,69,0,166,0,0,0,0,0],"split_type":[0,0,0,0,0,0,0,0,0],"sum_hessian":[9.81E2,9.77E2,4E0,9.71E2,6E0,9.65E2,6E0,3E0,3E0],"tree_param":{"num_deleted":"0","num_feature":"212","num_nodes":"9","size_leaf_vector":"1"}},{"base_weights":[1.3876136E3,4.695796E3,-5.3752606E5,1.1392434E3,4.9736966E5,-2.166531E5,-2.6230147E5,-5.998193E2,1.2139473E5,1.5016403E5,3.3969406E4,-5.181606E3,-6.373894E4],"categories":[],"categories_nodes":[],"categories_segments":[],"categories_sizes":[],"default_left":[0,0,0,0,0,0,0,0,0,0,0,0,0],"id":57,"left_children":[1,3,5,7,9,11,-1,-1,-1,-1,-1,-1,-1],"loss_changes":[1.753258E12,1.7113528E12,7.949354E11,1.7241409E12,2.0553964E11,3.7098488E10,0E0,0E0,0E0,0E0,0E0,0E0,0E0],"parents":[2147483647,0,0,1,1,2,2,3,3,4,4,5,5],"right_children":[2,4,6,8,10,12,-1,-1,-1,-1,-1,-1,-1],"split_conditions":[1E0,1E0,2.01E3,1E0,5.3776E1,1.995E3,-2.6230147E5,-5.998193E2,1.2139473E5,1.5016403E5,3.3969406E4,-5.181606E3,-6.373894E4],"split_indices":[144,73,0,100,1,0,0,0,0,0,0,0,0],"split_type":[0,0,0,0,0,0,0,0,0,0,0,0,0],"sum_hessian":[9.81E2,9.76E2,5E0,9.7E2,6E0,4E0,1E0,9.64E2,6E0,4E0,2E0,1E0,3E0],"tree_param":{"num_deleted":"0","num_feature":"212","num_nodes":"13","size_leaf_vector":"1"}},{"base_weights":[1.02098364E3,-2.504855E3,1.2062019E5,-6.0722437E3,4.9219116E5,-2.4383768E4,3.3049128E3,-6.68164E3,4.419699E5],"categories":[],"categories_nodes":[],"categories_segments":[],"categories_sizes":[],"default_left":[0,0,0,0,0,0,0,0,0],"id":58,"left_children":[1,3,-1,5,7,-1,-1,-1,-1],"loss_changes":[1.7028404E12,1.7254072E12,0E0,1.7755556E12,4.821213E12,0E0,0E0,0E0,0E0],"parents":[2147483647,0,0,1,1,3,3,4,4],"right_children":[2,4,-1,6,8,-1,-1,-1,-1],"split_conditions":[1E0,1E0,1.2062019E5,5.09E0,2.015E3,-2.4383768E4,3.3049128E3,-6.68164E3,4.419699E5],"split_indices":[13,200,0,5,0,0,0,0,0],"split_type":[0,0,0,0,0,0,0,0,0],"sum_hessian":[9.81E2,9.75E2,6E0,9.69E2,6E0,1.67E2,8.02E2,5E0,1E0],"tree_param":{"num_deleted":"0","num_feature":"212","num_nodes":"9","size_leaf_vector":"1"}},{"base_weights":[1.3155442E3,-2.2920332E3,5.0412697E5,-5.8639556E3,4.9300178E5,2.7269844E4,1.3496231E5,-2.321231E3,1.2064622E5,3.506336E4,1.7624658E5],"categories":[],"categories_nodes":[],"categories_segments":[],"categories_sizes":[],"default_left":[0,0,0,0,0,0,0,0,0,0,0],"id":59,"left_children":[1,3,5,7,9,-1,-1,-1,-1,-1,-1],"loss_changes":[1.7824357E12,1.7295823E12,6.7622273E10,1.7517047E12,4.518833E11,0E0,0E0,0E0,0E0,0E0,0E0],"parents":[2147483647,0,0,1,1,2,2,3,3,4,4],"right_children":[2,4,6,8,10,-1,-1,-1,-1,-1,-1],"split_conditions":[1E0,1E0,6.753611E-1,1E0,2.005E3,2.7269844E4,1.3496231E5,-2.321231E3,1.2064622E5,3.506336E4,1.7624658E5],"split_indices":[16,209,3,12,0,0,0,0,0,0,0],"split_type":[0,0,0,0,0,0,0,0,0,0,0],"sum_hessian":[9.81E2,9.75E2,6E0,9.69E2,6E0,1E0,5E0,9.63E2,6E0,3E0,3E0],"tree_param":{"num_deleted":"0","num_feature":"212","num_nodes":"11","size_leaf_vector":"1"}},{"base_weights":[1.4942083E3,-1.7408109E3,5.280141E5,-5.1100303E3,4.6586672E5,2.624475E4,1.7430234E5,-2.0237218E3,1.2327269E5,1.8058053E5,1.9098805E4],"categories":[],"categories_nodes":[],"categories_segments":[],"categories_sizes":[],"default_left":[0,0,0,0,0,0,0,0,0,0,0],"id":60,"left_children":[1,3,5,7,9,-1,-1,-1,-1,-1,-1],"loss_changes":[1.6735618E12,1.541617E12,3.8746718E11,1.5605055E12,6.794778E11,0E0,0E0,0E0,0E0,0E0,0E0],"parents":[2147483647,0,0,1,1,2,2,3,3,4,4],"right_children":[2,4,6,8,10,-1,-1,-1,-1,-1,-1],"split_conditions":[1E0,1E0,1.574E1,1E0,2.005E3,2.624475E4,1.7430234E5,-2.0237218E3,1.2327269E5,1.8058053E5,1.9098805E4],"split_indices":[38,92,6,102,0,0,0,0,0,0,0],"split_type":[0,0,0,0,0,0,0,0,0,0,0],"sum_hessian":[9.81E2,9.76E2,5E0,9.7E2,6E0,2E0,3E0,9.65E2,5E0,3E0,3E0],"tree_param":{"num_deleted":"0","num_feature":"212","num_nodes":"11","size_leaf_vector":"1"}},{"base_weights":[1.6592753E3,5.0204756E3,-4.672251E5,8.414689E3,-4.6603775E5,-1.363764E4,-1.2896182E5,2.8256953E3,-1.21276E5,-1.7314556E5,-5.5914777E4],"categories":[],"categories_nodes":[],"categories_segments":[],"categories_sizes":[],"default_left":[0,0,0,0,0,0,0,0,0,0,0],"id":61,"left_children":[1,3,5,7,9,-1,-1,-1,-1,-1,-1],"loss_changes":[1.5499917E12,1.564421E12,1.4154452E11,1.5308333E12,2.3951167E11,0E0,0E0,0E0,0E0,0E0,0E0],"parents":[2147483647,0,0,1,1,2,2,3,3,4,4],"right_children":[2,4,6,8,10,-1,-1,-1,-1,-1,-1],"split_conditions":[1E0,1E0,1.995E3,1E0,5.108E0,-1.363764E4,-1.2896182E5,2.8256953E3,-1.21276E5,-1.7314556E5,-5.5914777E4],"split_indices":[91,108,0,54,7,0,0,0,0,0,0],"split_type":[0,0,0,0,0,0,0,0,0,0,0],"sum_hessian":[9.81E2,9.75E2,6E0,9.69E2,6E0,1E0,5E0,9.64E2,5E0,2E0,4E0],"tree_param":{"num_deleted":"0","num_feature":"212","num_nodes":"11","size_leaf_vector":"1"}},{"base_weights":[7.5379144E2,-2.5328757E3,4.5890144E5,-5.790736E3,4.4927528E5,6.6477825E5,1.3829925E5,-2.2227842E3,1.0957372E5,2.6389065E3,2.5235906E5,4.2996793E4,1.8843003E5,-7.596476E3,5.022827E4],"categories":[],"categories_nodes":[],"categories_segments":[],"categories_sizes":[],"default_left":[0,0,0,0,0,0,0,0,0,0,0,0,0,0,0],"id":62,"left_children":[1,3,5,7,9,11,13,-1,-1,-1,-1,-1,-1,-1,-1],"loss_changes":[1.4798371E12,1.4392032E12,3.700936E11,1.4478895E12,1.7725167E12,6.955467E10,5.1585696E10,0E0,0E0,0E0,0E0,0E0,0E0,0E0,0E0],"parents":[2147483647,0,0,1,1,2,2,3,3,4,4,5,5,6,6],"right_children":[2,4,6,8,10,12,14,-1,-1,-1,-1,-1,-1,-1,-1],"split_conditions":[1E0,1E0,2.005E3,1E0,2.01E3,1.995E3,2.01E3,-2.2227842E3,1.0957372E5,2.6389065E3,2.5235906E5,4.2996793E4,1.8843003E5,-7.596476E3,5.022827E4],"split_indices":[55,64,0,187,0,0,0,0,0,0,0,0,0,0,0],"split_type":[0,0,0,0,0,0,0,0,0,0,0,0,0,0,0],"sum_hessian":[9.81E2,9.75E2,6E0,9.69E2,6E0,3E0,3E0,9.63E2,6E0,4E0,2E0,1E0,2E0,1E0,2E0],"tree_param":{"num_deleted":"0","num_feature":"212","num_nodes":"15","size_leaf_vector":"1"}},{"base_weights":[1.2172523E3,4.425717E3,-4.4630825E5,7.1408677E3,-1.28410516E5,6.981494E4,-1.9492592E5,-4.775658E2,4.986379E4],"categories":[],"categories_nodes":[],"categories_segments":[],"categories_sizes":[],"default_left":[0,0,0,0,0,0,0,0,0],"id":63,"left_children":[1,3,5,7,-1,-1,-1,-1,-1],"loss_changes":[1.4119992E12,1.4048197E12,2.0163752E12,1.7362363E12,0E0,0E0,0E0,0E0,0E0],"parents":[2147483647,0,0,1,1,2,2,3,3],"right_children":[2,4,6,8,-1,-1,-1,-1,-1],"split_conditions":[1E0,1E0,2E3,3.10791E11,-1.28410516E5,6.981494E4,-1.9492592E5,-4.775658E2,4.986379E4],"split_indices":[20,41,0,4,0,0,0,0,0],"split_type":[0,0,0,0,0,0,0,0,0],"sum_hessian":[9.81E2,9.75E2,6E0,9.71E2,4E0,2E0,4E0,9.29E2,4.2E1],"tree_param":{"num_deleted":"0","num_feature":"212","num_nodes":"9","size_leaf_vector":"1"}},{"base_weights":[7.1123413E2,-2.4872922E3,4.4657556E5,-5.475974E3,1.17954875E5,2.0528867E5,5.9177633E4,-6.585013E3,1.6175362E4],"categories":[],"categories_nodes":[],"categories_segments":[],"categories_sizes":[],"default_left":[0,0,0,0,0,0,0,0,0],"id":64,"left_children":[1,3,5,7,-1,-1,-1,-1,-1],"loss_changes":[1.4015495E12,1.4146846E12,3.593137E11,1.488561E12,0E0,0E0,0E0,0E0,0E0],"parents":[2147483647,0,0,1,1,2,2,3,3],"right_children":[2,4,6,8,-1,-1,-1,-1,-1],"split_conditions":[1E0,1E0,1.995E3,1.066E1,1.17954875E5,2.0528867E5,5.9177633E4,-6.585013E3,1.6175362E4],"split_indices":[94,201,0,7,0,0,0,0,0],"split_type":[0,0,0,0,0,0,0,0,0],"sum_hessian":[9.81E2,9.75E2,6E0,9.7E2,5E0,1E0,5E0,7.47E2,2.23E2],"tree_param":{"num_deleted":"0","num_feature":"212","num_nodes":"9","size_leaf_vector":"1"}},{"base_weights":[9.362249E2,-2.269938E3,1.0968562E5,3.921203E5,-5.934445E3,1.2614457E5,-6.21693E3,-2.1824978E3,1.1579373E5],"categories":[],"categories_nodes":[],"categories_segments":[],"categories_sizes":[],"default_left":[0,0,0,0,0,0,0,0,0],"id":65,"left_children":[1,3,-1,5,7,-1,-1,-1,-1],"loss_changes":[1.4080501E12,1.4128868E12,0E0,4.749217E11,1.3834547E12,0E0,0E0,0E0,0E0],"parents":[2147483647,0,0,1,1,3,3,4,4],"right_children":[2,4,-1,6,8,-1,-1,-1,-1],"split_conditions":[1E0,1.883E0,1.0968562E5,2.258E1,1E0,1.2614457E5,-6.21693E3,-2.1824978E3,1.1579373E5],"split_indices":[203,7,0,6,150,0,0,0,0],"split_type":[0,0,0,0,0,0,0,0,0],"sum_hessian":[9.81E2,9.75E2,6E0,8E0,9.67E2,6E0,2E0,9.62E2,5E0],"tree_param":{"num_deleted":"0","num_feature":"212","num_nodes":"9","size_leaf_vector":"1"}},{"base_weights":[1.0564384E3,3.9232302E3,-4.659289E5,6.8032456E3,-4.6329312E5,4.9359507E3,-1.3891562E5,2.371049E3,-1.12195766E5,2.5898393E4,-1.8963202E5],"categories":[],"categories_nodes":[],"categories_segments":[],"categories_sizes":[],"default_left":[0,0,0,0,0,0,0,0,0,0,0],"id":66,"left_children":[1,3,5,7,9,-1,-1,-1,-1,-1,-1],"loss_changes":[1.3164801E12,1.3177937E12,3.0671608E11,1.3046692E12,1.1435193E12,0E0,0E0,0E0,0E0,0E0,0E0],"parents":[2147483647,0,0,1,1,2,2,3,3,4,4],"right_children":[2,4,6,8,10,-1,-1,-1,-1,-1,-1],"split_conditions":[1E0,1E0,1.995E3,1E0,2E3,4.9359507E3,-1.3891562E5,2.371049E3,-1.12195766E5,2.5898393E4,-1.8963202E5],"split_indices":[153,125,0,205,0,0,0,0,0,0,0],"split_type":[0,0,0,0,0,0,0,0,0,0,0],"sum_hessian":[9.81E2,9.76E2,5E0,9.71E2,5E0,1E0,4E0,9.66E2,5E0,2E0,3E0],"tree_param":{"num_deleted":"0","num_feature":"212","num_nodes":"11","size_leaf_vector":"1"}},{"base_weights":[3.8267886E2,-2.4595623E3,1.1343231E5,-5.3211235E3,4.6152325E5,-2.0109194E3,1.12962336E5,1.8809962E5,2.8483266E4],"categories":[],"categories_nodes":[],"categories_segments":[],"categories_sizes":[],"default_left":[0,0,0,0,0,0,0,0,0],"id":67,"left_children":[1,3,-1,5,7,-1,-1,-1,-1],"loss_changes":[1.2927057E12,1.2996335E12,0E0,1.3139609E12,5.4549217E11,0E0,0E0,0E0,0E0],"parents":[2147483647,0,0,1,1,3,3,4,4],"right_children":[2,4,-1,6,8,-1,-1,-1,-1],"split_conditions":[1E0,1E0,1.1343231E5,1E0,2.005E3,-2.0109194E3,1.12962336E5,1.8809962E5,2.8483266E4],"split_indices":[97,198,0,164,0,0,0,0,0],"split_type":[0,0,0,0,0,0,0,0,0],"sum_hessian":[9.81E2,9.76E2,5E0,9.71E2,5E0,9.66E2,5E0,2E0,3E0],"tree_param":{"num_deleted":"0","num_feature":"212","num_nodes":"9","size_leaf_vector":"1"}},{"base_weights":[7.380105E2,3.515353E3,-4.5162894E5,5.194571E2,4.1858672E5,-1.6337078E5,-2.3181183E5,-6.051427E2,1.0107159E5,1.3305056E5,4.6363684E4,-3.4054395E3,-4.8314297E4],"categories":[],"categories_nodes":[],"categories_segments":[],"categories_sizes":[],"default_left":[0,0,0,0,0,0,0,0,0,0,0,0,0],"id":68,"left_children":[1,3,5,7,9,11,-1,-1,-1,-1,-1,-1,-1],"loss_changes":[1.2353507E12,1.2146926E12,7.012104E11,1.197665E12,9.722279E10,2.2584934E10,0E0,0E0,0E0,0E0,0E0,0E0,0E0],"parents":[2147483647,0,0,1,1,2,2,3,3,4,4,5,5],"right_children":[2,4,6,8,10,12,-1,-1,-1,-1,-1,-1,-1],"split_conditions":[1E0,1E0,2.01E3,1E0,2.005E3,1.995E3,-2.3181183E5,-6.051427E2,1.0107159E5,1.3305056E5,4.6363684E4,-3.4054395E3,-4.8314297E4],"split_indices":[144,167,0,16,0,0,0,0,0,0,0,0,0],"split_type":[0,0,0,0,0,0,0,0,0,0,0,0,0],"sum_hessian":[9.81E2,9.76E2,5E0,9.7E2,6E0,4E0,1E0,9.64E2,6E0,3E0,3E0,1E0,3E0],"tree_param":{"num_deleted":"0","num_feature":"212","num_nodes":"13","size_leaf_vector":"1"}},{"base_weights":[5.535296E2,-2.3565562E3,4.0622356E5,-5.2959033E3,4.0528962E5,-1.8545375E4,7.294366E5,-1.9090887E3,1.1719855E5,3.0626705E4,1.4308814E5,2.12265E4,-2.0207305E4,8.449694E4,2.3056936E5],"categories":[],"categories_nodes":[],"categories_segments":[],"categories_sizes":[],"default_left":[0,0,0,0,0,0,0,0,0,0,0,0,0,0,0],"id":69,"left_children":[1,3,5,7,9,11,13,-1,-1,-1,-1,-1,-1,-1,-1],"loss_changes":[1.1602423E12,1.1716028E12,9.7456384E11,1.1763323E12,2.7794054E11,3.4066735E10,1.1637883E9,0E0,0E0,0E0,0E0,0E0,0E0,0E0,0E0],"parents":[2147483647,0,0,1,1,2,2,3,3,4,4,5,5,6,6],"right_children":[2,4,6,8,10,12,14,-1,-1,-1,-1,-1,-1,-1,-1],"split_conditions":[1E0,1E0,2.005E3,1E0,2.005E3,1.995E3,2.015E3,-1.9090887E3,1.1719855E5,3.0626705E4,1.4308814E5,2.12265E4,-2.0207305E4,8.449694E4,2.3056936E5],"split_indices":[166,209,0,42,0,0,0,0,0,0,0,0,0,0,0],"split_type":[0,0,0,0,0,0,0,0,0,0,0,0,0,0,0],"sum_hessian":[9.81E2,9.75E2,6E0,9.69E2,6E0,3E0,3E0,9.65E2,4E0,3E0,3E0,1E0,2E0,2E0,1E0],"tree_param":{"num_deleted":"0","num_feature":"212","num_nodes":"15","size_leaf_vector":"1"}},{"base_weights":[1.0341243E3,-1.8545737E3,4.0365344E5,-1.8713414E5,4.6243247E3,-5.1046332E4,3.8353466E5,6.294042E4,-7.754003E4,1.869982E3,-9.783658E4,-8.425817E4,8.733917E4],"categories":[],"categories_nodes":[],"categories_segments":[],"categories_sizes":[],"default_left":[0,0,0,0,0,0,0,0,0,0,0,0,0],"id":70,"left_children":[1,3,5,7,9,11,-1,-1,-1,-1,-1,-1,-1],"loss_changes":[1.1428594E12,1.172463E12,3.7793303E12,1.9785734E12,1.151441E12,8.3923436E11,0E0,0E0,0E0,0E0,0E0,0E0,0E0],"parents":[2147483647,0,0,1,1,2,2,3,3,4,4,5,5],"right_children":[2,4,6,8,10,12,-1,-1,-1,-1,-1,-1,-1],"split_conditions":[1E0,1.39E1,2.015E3,9.96442E1,1E0,2.96E0,3.8353466E5,6.294042E4,-7.754003E4,1.869982E3,-9.783658E4,-8.425817E4,8.733917E4],"split_indices":[200,6,0,2,101,5,0,0,0,0,0,0,0],"split_type":[0,0,0,0,0,0,0,0,0,0,0,0,0],"sum_hessian":[9.81E2,9.75E2,6E0,3.2E1,9.43E2,5E0,1E0,7E0,2.5E1,9.37E2,6E0,3E0,2E0],"tree_param":{"num_deleted":"0","num_feature":"212","num_nodes":"13","size_leaf_vector":"1"}},{"base_weights":[1.0619489E3,-1.8037056E3,9.808379E4,-4.702399E3,4.0013003E5,1.0957461E4,-6.9101353E3,4.3608734E4,1.2789461E5],"categories":[],"categories_nodes":[],"categories_segments":[],"categories_sizes":[],"default_left":[0,0,0,0,0,0,0,0,0],"id":71,"left_children":[1,3,-1,5,7,-1,-1,-1,-1],"loss_changes":[1.1246696E12,1.1390022E12,0E0,1.1287766E12,9.675879E10,0E0,0E0,0E0,0E0],"parents":[2147483647,0,0,1,1,3,3,4,4],"right_children":[2,4,-1,6,8,-1,-1,-1,-1],"split_conditions":[1E0,1E0,9.808379E4,8.331922E1,2.005E3,1.0957461E4,-6.9101353E3,4.3608734E4,1.2789461E5],"split_indices":[13,100,0,2,0,0,0,0,0],"split_type":[0,0,0,0,0,0,0,0,0],"sum_hessian":[9.81E2,9.75E2,6E0,9.69E2,6E0,3.12E2,6.57E2,3E0,3E0],"tree_param":{"num_deleted":"0","num_feature":"212","num_nodes":"9","size_leaf_vector":"1"}},{"base_weights":[1.0805032E3,-7.518237E4,1.6127403E4,-7.7846125E4,2.251976E4,1.9535732E4,-3.8300347E5,-1.9323457E4,1.0896751E4,5.5475166E3,-9.898039E4,-3.1597004E4,-1.3256558E5],"categories":[],"categories_nodes":[],"categories_segments":[],"categories_sizes":[],"default_left":[0,0,0,0,0,0,0,0,0,0,0,0,0],"id":72,"left_children":[1,3,5,7,-1,9,11,-1,-1,-1,-1,-1,-1],"loss_changes":[1.128077E12,7.927805E10,1.1243457E12,2.4047387E10,0E0,1.0844044E12,2.1153251E11,0E0,0E0,0E0,0E0,0E0,0E0],"parents":[2147483647,0,0,1,1,2,2,3,3,5,5,6,6],"right_children":[2,4,6,8,-1,10,12,-1,-1,-1,-1,-1,-1],"split_conditions":[6.11E8,1E0,1E0,1E0,2.251976E4,2.288E1,2.005E3,-1.9323457E4,1.0896751E4,5.5475166E3,-9.898039E4,-3.1597004E4,-1.3256558E5],"split_indices":[4,104,108,22,0,5,0,0,0,0,0,0,0],"split_type":[0,0,0,0,0,0,0,0,0,0,0,0,0],"sum_hessian":[9.81E2,1.61E2,8.2E2,1.59E2,2E0,8.14E2,6E0,1.58E2,1E0,8.09E2,5E0,3E0,3E0],"tree_param":{"num_deleted":"0","num_feature":"212","num_nodes":"13","size_leaf_vector":"1"}},{"base_weights":[5.6789124E2,-2.2496587E3,3.9333372E5,-5.0933003E3,3.9211922E5,1.5257606E5,6.538425E4,-1.8994901E3,1.0382582E5,1.3802162E5,3.0048123E4,-3.7347006E2,3.2588701E4],"categories":[],"categories_nodes":[],"categories_segments":[],"categories_sizes":[],"default_left":[0,0,0,0,0,0,0,0,0,0,0,0,0],"id":73,"left_children":[1,3,5,7,9,-1,11,-1,-1,-1,-1,-1,-1],"loss_changes":[1.0876027E12,1.09652627E12,4.863861E11,1.1110671E12,2.541471E11,0E0,1.8314242E10,0E0,0E0,0E0,0E0,0E0,0E0],"parents":[2147483647,0,0,1,1,2,2,3,3,4,4,6,6],"right_children":[2,4,6,8,10,-1,12,-1,-1,-1,-1,-1,-1],"split_conditions":[1E0,1E0,2.005E3,1E0,2.96E0,1.5257606E5,2.015E3,-1.8994901E3,1.0382582E5,1.3802162E5,3.0048123E4,-3.7347006E2,3.2588701E4],"split_indices":[69,73,0,38,5,0,0,0,0,0,0,0,0],"split_type":[0,0,0,0,0,0,0,0,0,0,0,0,0],"sum_hessian":[9.81E2,9.75E2,6E0,9.69E2,6E0,3E0,3E0,9.64E2,5E0,3E0,3E0,2E0,1E0],"tree_param":{"num_deleted":"0","num_feature":"212","num_nodes":"13","size_leaf_vector":"1"}},{"base_weights":[8.919287E2,-1.602651E3,9.967082E4,-4.3143975E3,3.7478428E5,-1.7246278E3,9.117225E4,1.7866194E5,4.7539133E4],"categories":[],"categories_nodes":[],"categories_segments":[],"categories_sizes":[],"default_left":[0,0,0,0,0,0,0,0,0],"id":74,"left_children":[1,3,-1,5,7,-1,-1,-1,-1],"loss_changes":[9.953487E11,9.9880763E11,0E0,9.9973864E11,3.0700805E11,0E0,0E0,0E0,0E0],"parents":[2147483647,0,0,1,1,3,3,4,4],"right_children":[2,4,-1,6,8,-1,-1,-1,-1],"split_conditions":[1E0,1E0,9.967082E4,1E0,1.995E3,-1.7246278E3,9.117225E4,1.7866194E5,4.7539133E4],"split_indices":[102,94,0,64,0,0,0,0,0],"split_type":[0,0,0,0,0,0,0,0,0],"sum_hessian":[9.81E2,9.76E2,5E0,9.7E2,6E0,9.64E2,6E0,1E0,5E0],"tree_param":{"num_deleted":"0","num_feature":"212","num_nodes":"9","size_leaf_vector":"1"}},{"base_weights":[1.0964017E3,3.757481E3,-3.700907E5,6.3605825E3,-3.5749478E5,-9.917678E3,-1.0244605E5,-1.4810018E3,2.03648E4,-1.0822426E5,-2.3931658E4],"categories":[],"categories_nodes":[],"categories_segments":[],"categories_sizes":[],"default_left":[0,0,0,0,0,0,0,0,0,0,0],"id":75,"left_children":[1,3,5,7,9,-1,-1,-1,-1,-1,-1],"loss_changes":[9.7136915E11,9.200812E11,9.42329E10,9.2463655E11,1.1025482E11,0E0,0E0,0E0,0E0,0E0,0E0],"parents":[2147483647,0,0,1,1,2,2,3,3,4,4],"right_children":[2,4,6,8,10,-1,-1,-1,-1,-1,-1],"split_conditions":[1E0,1E0,1.995E3,2.015E3,3.6598E1,-9.917678E3,-1.0244605E5,-1.4810018E3,2.03648E4,-1.0822426E5,-2.3931658E4],"split_indices":[91,169,0,0,1,0,0,0,0,0,0],"split_type":[0,0,0,0,0,0,0,0,0,0,0],"sum_hessian":[9.81E2,9.75E2,6E0,9.69E2,6E0,1E0,5E0,8.35E2,1.34E2,4E0,2E0],"tree_param":{"num_deleted":"0","num_feature":"212","num_nodes":"11","size_leaf_vector":"1"}},{"base_weights":[5.9809033E2,-1.9977206E3,3.6244284E5,-4.419835E3,3.903141E5,-3.264E4,3.3468288E5,-1.7287972E3,8.816485E4,1.26585445E5,2.2414883E4,5.600275E4,-9.065905E4],"categories":[],"categories_nodes":[],"categories_segments":[],"categories_sizes":[],"default_left":[0,0,0,0,0,0,0,0,0,0,0,0,0],"id":76,"left_children":[1,3,5,7,9,11,-1,-1,-1,-1,-1,-1,-1],"loss_changes":[9.230976E11,9.291438E11,2.821319E12,9.3614106E11,1.7952191E11,6.137686E11,0E0,0E0,0E0,0E0,0E0,0E0,0E0],"parents":[2147483647,0,0,1,1,2,2,3,3,4,4,5,5],"right_children":[2,4,6,8,10,12,-1,-1,-1,-1,-1,-1,-1],"split_conditions":[1E0,1E0,2.015E3,1E0,2.84E0,1.758E1,3.3468288E5,-1.7287972E3,8.816485E4,1.26585445E5,2.2414883E4,5.600275E4,-9.065905E4],"split_indices":[200,39,0,92,5,6,0,0,0,0,0,0,0],"split_type":[0,0,0,0,0,0,0,0,0,0,0,0,0],"sum_hessian":[9.81E2,9.75E2,6E0,9.7E2,5E0,5E0,1E0,9.64E2,6E0,3E0,2E0,3E0,2E0],"tree_param":{"num_deleted":"0","num_feature":"212","num_nodes":"13","size_leaf_vector":"1"}},{"base_weights":[9.968881E2,-1.3827046E3,3.8830775E5,-3.7698599E3,9.443503E4,1.588296E5,9.61E4,-1.559862E3,8.7049516E4,3.2740248E4,-2.0357567E3],"categories":[],"categories_nodes":[],"categories_segments":[],"categories_sizes":[],"default_left":[0,0,0,0,0,0,0,0,0,0,0],"id":77,"left_children":[1,3,5,7,-1,-1,9,-1,-1,-1,-1],"loss_changes":[9.055895E11,9.03917E11,3.9383073E11,9.095951E11,0E0,0E0,1.6803946E10,0E0,0E0,0E0,0E0],"parents":[2147483647,0,0,1,1,2,2,3,3,6,6],"right_children":[2,4,6,8,-1,-1,10,-1,-1,-1,-1],"split_conditions":[1E0,1E0,2.005E3,1E0,9.443503E4,1.588296E5,2.484E1,-1.559862E3,8.7049516E4,3.2740248E4,-2.0357567E3],"split_indices":[198,201,0,203,0,0,1,0,0,0,0],"split_type":[0,0,0,0,0,0,0,0,0,0,0],"sum_hessian":[9.81E2,9.76E2,5E0,9.71E2,5E0,2E0,3E0,9.65E2,6E0,2E0,1E0],"tree_param":{"num_deleted":"0","num_feature":"212","num_nodes":"11","size_leaf_vector":"1"}},{"base_weights":[1.1289628E3,-1.02010986E3,4.2126178E5,-3.5867598E3,3.5552328E5,1.6801505E5,1.835846E5,-1.5122203E3,8.670211E4,-1.9185906E3,1.5430264E5,5.2957215E4,1.0493148E4],"categories":[],"categories_nodes":[],"categories_segments":[],"categories_sizes":[],"default_left":[0,0,0,0,0,0,0,0,0,0,0,0,0],"id":78,"left_children":[1,3,5,7,9,-1,11,-1,-1,-1,-1,-1,-1],"loss_changes":[8.8707354E11,8.962645E11,1.886573E11,9.0150404E11,7.0306346E11,0E0,9.1083E9,0E0,0E0,0E0,0E0,0E0,0E0],"parents":[2147483647,0,0,1,1,2,2,3,3,4,4,6,6],"right_children":[2,4,6,8,10,-1,12,-1,-1,-1,-1,-1,-1],"split_conditions":[1E0,1E0,2E3,1E0,2.005E3,1.6801505E5,2.01E3,-1.5122203E3,8.670211E4,-1.9185906E3,1.5430264E5,5.2957215E4,1.0493148E4],"split_indices":[44,166,0,16,0,0,0,0,0,0,0,0,0],"split_type":[0,0,0,0,0,0,0,0,0,0,0,0,0],"sum_hessian":[9.81E2,9.77E2,4E0,9.71E2,6E0,1E0,3E0,9.65E2,6E0,3E0,3E0,2E0,1E0],"tree_param":{"num_deleted":"0","num_feature":"212","num_nodes":"13","size_leaf_vector":"1"}},{"base_weights":[1.3300852E3,3.1239266E5,-1.5455752E3,1.2432879E5,1.5848556E5,-4.1174775E3,3.5433253E5,4.449483E4,-2.6905121E4,4.1545645E3,-1.3968535E4,-6.409072E4,1.5995336E5],"categories":[],"categories_nodes":[],"categories_segments":[],"categories_sizes":[],"default_left":[0,0,0,0,0,0,0,0,0,0,0,0,0],"id":79,"left_children":[1,3,5,7,-1,9,11,-1,-1,-1,-1,-1,-1],"loss_changes":[8.78892E11,4.8602874E11,8.9294524E11,1.13948156E11,0E0,1.08071184E12,1.4590647E12,0E0,0E0,0E0,0E0,0E0,0E0],"parents":[2147483647,0,0,1,1,2,2,3,3,5,5,6,6],"right_children":[2,4,6,8,-1,10,12,-1,-1,-1,-1,-1,-1],"split_conditions":[1.883E0,8.4839E10,1E0,1.5999032E0,1.5848556E5,2.0591E10,2E3,4.449483E4,-2.6905121E4,4.1545645E3,-1.3968535E4,-6.409072E4,1.5995336E5],"split_indices":[7,4,187,3,0,4,0,0,0,0,0,0,0],"split_type":[0,0,0,0,0,0,0,0,0,0,0,0,0],"sum_hessian":[9.81E2,8E0,9.73E2,6E0,2E0,9.67E2,6E0,5E0,1E0,6.92E2,2.75E2,2E0,4E0],"tree_param":{"num_deleted":"0","num_feature":"212","num_nodes":"13","size_leaf_vector":"1"}},{"base_weights":[1.2712449E3,-1.2988208E3,3.5943022E5,-3.6939565E3,9.467103E4,5.367521E5,9.225075E4,-1.4868248E3,9.296125E4,3.3036547E4,1.5326111E5,-8.573728E3,3.584186E4],"categories":[],"categories_nodes":[],"categories_segments":[],"categories_sizes":[],"default_left":[0,0,0,0,0,0,0,0,0,0,0,0,0],"id":80,"left_children":[1,3,5,7,-1,9,11,-1,-1,-1,-1,-1,-1],"loss_changes":[9.043901E11,9.0803785E11,2.821216E11,8.8669625E11,0E0,5.8652885E10,3.2654402E10,0E0,0E0,0E0,0E0,0E0,0E0],"parents":[2147483647,0,0,1,1,2,2,3,3,5,5,6,6],"right_children":[2,4,6,8,-1,10,12,-1,-1,-1,-1,-1,-1],"split_conditions":[1E0,1E0,2.005E3,1E0,9.467103E4,1.995E3,2.01E3,-1.4868248E3,9.296125E4,3.3036547E4,1.5326111E5,-8.573728E3,3.584186E4],"split_indices":[55,97,0,150,0,0,0,0,0,0,0,0,0],"split_type":[0,0,0,0,0,0,0,0,0,0,0,0,0],"sum_hessian":[9.81E2,9.75E2,6E0,9.7E2,5E0,3E0,3E0,9.65E2,5E0,1E0,2E0,1E0,2E0],"tree_param":{"num_deleted":"0","num_feature":"212","num_nodes":"13","size_leaf_vector":"1"}},{"base_weights":[1.366929E3,-7.298976E2,4.112328E5,-3.185733E3,3.4038466E5,-1.2190958E4,1.3199706E5,-1.3403374E3,8.96146E4,1.4642548E5,2.8860977E4],"categories":[],"categories_nodes":[],"categories_segments":[],"categories_sizes":[],"default_left":[0,0,0,0,0,0,0,0,0,0,0],"id":81,"left_children":[1,3,5,7,9,-1,-1,-1,-1,-1,-1],"loss_changes":[8.4424825E11,8.203757E11,3.211669E11,8.223285E11,3.3062414E11,0E0,0E0,0E0,0E0,0E0,0E0],"parents":[2147483647,0,0,1,1,2,2,3,3,4,4],"right_children":[2,4,6,8,10,-1,-1,-1,-1,-1,-1],"split_conditions":[1E0,1E0,2E3,1E0,3.2612E1,-1.2190958E4,1.3199706E5,-1.3403374E3,8.96146E4,1.4642548E5,2.8860977E4],"split_indices":[138,69,0,164,1,0,0,0,0,0,0],"split_type":[0,0,0,0,0,0,0,0,0,0,0],"sum_hessian":[9.81E2,9.77E2,4E0,9.71E2,6E0,1E0,3E0,9.66E2,5E0,2E0,4E0],"tree_param":{"num_deleted":"0","num_feature":"212","num_nodes":"11","size_leaf_vector":"1"}},{"base_weights":[1.4225219E3,3.6704326E3,-3.648494E5,6.120241E3,-8.246075E4,-1.1121833E5,-1.9998197E5,1.2142577E4,-3.2777732E3,4.53234E2,-3.4276824E4],"categories":[],"categories_nodes":[],"categories_segments":[],"categories_sizes":[],"default_left":[0,0,0,0,0,0,0,0,0,0,0],"id":82,"left_children":[1,3,5,7,-1,9,-1,-1,-1,-1,-1],"loss_changes":[8.098656E11,8.166703E11,5.965094E11,8.236159E11,0E0,1.6501215E10,0E0,0E0,0E0,0E0,0E0],"parents":[2147483647,0,0,1,1,2,2,3,3,5,5],"right_children":[2,4,6,8,-1,10,-1,-1,-1,-1,-1],"split_conditions":[1E0,1E0,2.01E3,1.144773E0,-8.246075E4,1.995E3,-1.9998197E5,1.2142577E4,-3.2777732E3,4.53234E2,-3.4276824E4],"split_indices":[144,67,0,3,0,0,0,0,0,0,0],"split_type":[0,0,0,0,0,0,0,0,0,0,0],"sum_hessian":[9.81E2,9.76E2,5E0,9.7E2,6E0,4E0,1E0,3E2,6.7E2,1E0,3E0],"tree_param":{"num_deleted":"0","num_feature":"212","num_nodes":"11","size_leaf_vector":"1"}},{"base_weights":[7.6107324E2,-1.6644125E3,3.3883434E5,-4.0922075E3,8.204905E4,1.9203092E5,1.493621E5,-1.6028398E3,8.1845945E4,1.9400904E4,6.819853E4],"categories":[],"categories_nodes":[],"categories_segments":[],"categories_sizes":[],"default_left":[0,0,0,0,0,0,0,0,0,0,0],"id":83,"left_children":[1,3,5,7,-1,9,-1,-1,-1,-1,-1],"loss_changes":[8.0579605E11,7.9909814E11,1.6137329E11,8.067149E11,0E0,3.6439867E10,0E0,0E0,0E0,0E0,0E0],"parents":[2147483647,0,0,1,1,2,2,3,3,5,5],"right_children":[2,4,6,8,-1,10,-1,-1,-1,-1,-1],"split_conditions":[1E0,1E0,2.015E3,1E0,8.204905E4,1.9769219E0,1.493621E5,-1.6028398E3,8.1845945E4,1.9400904E4,6.819853E4],"split_indices":[73,66,0,200,0,3,0,0,0,0,0],"split_type":[0,0,0,0,0,0,0,0,0,0,0],"sum_hessian":[9.81E2,9.75E2,6E0,9.69E2,6E0,5E0,1E0,9.63E2,6E0,3E0,2E0],"tree_param":{"num_deleted":"0","num_feature":"212","num_nodes":"11","size_leaf_vector":"1"}},{"base_weights":[9.8124866E2,3.1993606E3,-3.6036484E5,5.43186E3,-3.5899878E5,-1.12605984E5,-2.6383516E4,1.8801316E3,-8.748988E4,4.583342E3,-1.07346734E5],"categories":[],"categories_nodes":[],"categories_segments":[],"categories_sizes":[],"default_left":[0,0,0,0,0,0,0,0,0,0,0],"id":84,"left_children":[1,3,5,7,9,-1,-1,-1,-1,-1,-1],"loss_changes":[7.882319E11,7.9195924E11,1.0113935E11,7.938997E11,1.8788313E11,0E0,0E0,0E0,0E0,0E0,0E0],"parents":[2147483647,0,0,1,1,2,2,3,3,4,4],"right_children":[2,4,6,8,10,-1,-1,-1,-1,-1,-1],"split_conditions":[1E0,1E0,2.005E3,1E0,1.995E3,-1.12605984E5,-2.6383516E4,1.8801316E3,-8.748988E4,4.583342E3,-1.07346734E5],"split_indices":[145,153,0,156,0,0,0,0,0,0,0],"split_type":[0,0,0,0,0,0,0,0,0,0,0],"sum_hessian":[9.81E2,9.76E2,5E0,9.71E2,5E0,3E0,2E0,9.66E2,5E0,1E0,4E0],"tree_param":{"num_deleted":"0","num_feature":"212","num_nodes":"11","size_leaf_vector":"1"}},{"base_weights":[4.0755655E2,-1.9781597E3,3.3298634E5,-4.200412E3,3.5798603E5,1.3848205E5,1.3376947E5,-1.6175306E3,8.0280766E4,1.1226226E4,1.2310001E5,1.1734421E4,4.479514E4],"categories":[],"categories_nodes":[],"categories_segments":[],"categories_sizes":[],"default_left":[0,0,0,0,0,0,0,0,0,0,0,0,0],"id":85,"left_children":[1,3,5,7,9,11,-1,-1,-1,-1,-1,-1,-1],"loss_changes":[7.7981535E11,7.8223665E11,2.146148E11,7.770199E11,2.47816E11,1.1349524E10,0E0,0E0,0E0,0E0,0E0,0E0,0E0],"parents":[2147483647,0,0,1,1,2,2,3,3,4,4,5,5],"right_children":[2,4,6,8,10,12,-1,-1,-1,-1,-1,-1,-1],"split_conditions":[1E0,1E0,2.01E3,1E0,1.574E1,1.79E1,1.3376947E5,-1.6175306E3,8.0280766E4,1.1226226E4,1.2310001E5,1.1734421E4,4.479514E4],"split_indices":[209,38,0,167,6,6,0,0,0,0,0,0,0],"split_type":[0,0,0,0,0,0,0,0,0,0,0,0,0],"sum_hessian":[9.81E2,9.75E2,6E0,9.7E2,5E0,4E0,2E0,9.64E2,6E0,2E0,3E0,2E0,2E0],"tree_param":{"num_deleted":"0","num_feature":"212","num_nodes":"13","size_leaf_vector":"1"}},{"base_weights":[7.18407E2,2.9070176E3,-3.557801E5,4.913671E3,-3.8816916E5,2.4721957E4,-1.4925072E5,1.7822367E3,-7.891931E4,-1.9937504E4,-1.08871734E5],"categories":[],"categories_nodes":[],"categories_segments":[],"categories_sizes":[],"default_left":[0,0,0,0,0,0,0,0,0,0,0],"id":86,"left_children":[1,3,5,7,9,-1,-1,-1,-1,-1,-1],"loss_changes":[7.672264E11,7.686124E11,7.5642824E11,7.544815E11,5.0233606E10,0E0,0E0,0E0,0E0,0E0,0E0],"parents":[2147483647,0,0,1,1,2,2,3,3,4,4],"right_children":[2,4,6,8,10,-1,-1,-1,-1,-1,-1],"split_conditions":[1E0,1E0,2E3,1E0,2E3,2.4721957E4,-1.4925072E5,1.7822367E3,-7.891931E4,-1.9937504E4,-1.08871734E5],"split_indices":[125,41,0,20,0,0,0,0,0,0,0],"split_type":[0,0,0,0,0,0,0,0,0,0,0],"sum_hessian":[9.81E2,9.76E2,5E0,9.72E2,4E0,2E0,3E0,9.66E2,6E0,1E0,3E0],"tree_param":{"num_deleted":"0","num_feature":"212","num_nodes":"11","size_leaf_vector":"1"}},{"base_weights":[2.0591772E2,-2.1400466E3,3.2727097E5,-4.3198447E3,3.509806E5,2.447857E4,9.753251E4,-1.6370956E3,7.8920234E4,1.212859E5,1.021342E4],"categories":[],"categories_nodes":[],"categories_segments":[],"categories_sizes":[],"default_left":[0,0,0,0,0,0,0,0,0,0,0],"id":87,"left_children":[1,3,5,7,9,-1,-1,-1,-1,-1,-1],"loss_changes":[7.541723E11,7.527742E11,7.309191E10,7.517817E11,2.469679E11,0E0,0E0,0E0,0E0,0E0,0E0],"parents":[2147483647,0,0,1,1,2,2,3,3,4,4],"right_children":[2,4,6,8,10,-1,-1,-1,-1,-1,-1],"split_conditions":[1E0,1E0,2E3,1E0,2.01E3,2.447857E4,9.753251E4,-1.6370956E3,7.8920234E4,1.212859E5,1.021342E4],"split_indices":[80,28,0,94,0,0,0,0,0,0,0],"split_type":[0,0,0,0,0,0,0,0,0,0,0],"sum_hessian":[9.81E2,9.75E2,6E0,9.7E2,5E0,2E0,4E0,9.64E2,6E0,3E0,2E0],"tree_param":{"num_deleted":"0","num_feature":"212","num_nodes":"11","size_leaf_vector":"1"}},{"base_weights":[4.9233386E2,-1.8244729E3,7.9221305E4,-4.1690747E3,3.2333097E5,-1.4998779E3,9.1680836E4,3.60323E4,1.025535E5],"categories":[],"categories_nodes":[],"categories_segments":[],"categories_sizes":[],"default_left":[0,0,0,0,0,0,0,0,0],"id":88,"left_children":[1,3,-1,5,7,-1,-1,-1,-1],"loss_changes":[7.3535495E11,7.4541125E11,0E0,7.1995064E11,5.605602E10,0E0,0E0,0E0,0E0],"parents":[2147483647,0,0,1,1,3,3,4,4],"right_children":[2,4,-1,6,8,-1,-1,-1,-1],"split_conditions":[1E0,1E0,7.9221305E4,1E0,2.005E3,-1.4998779E3,9.1680836E4,3.60323E4,1.025535E5],"split_indices":[13,100,0,42,0,0,0,0,0],"split_type":[0,0,0,0,0,0,0,0,0],"sum_hessian":[9.81E2,9.75E2,6E0,9.69E2,6E0,9.65E2,4E0,3E0,3E0],"tree_param":{"num_deleted":"0","num_feature":"212","num_nodes":"9","size_leaf_vector":"1"}},{"base_weights":[6.8539325E2,2.79959E3,-3.4369056E5,4.9235884E3,-3.4175472E5,1.1316482E4,-1.0554074E5,1.7668132E3,-7.637092E4,-2.0047307E4,-1.10521016E5],"categories":[],"categories_nodes":[],"categories_segments":[],"categories_sizes":[],"default_left":[0,0,0,0,0,0,0,0,0,0,0],"id":89,"left_children":[1,3,5,7,9,-1,-1,-1,-1,-1,-1],"loss_changes":[7.1593525E11,7.166833E11,2.2394844E11,7.072979E11,1.3380557E11,0E0,0E0,0E0,0E0,0E0,0E0],"parents":[2147483647,0,0,1,1,2,2,3,3,4,4],"right_children":[2,4,6,8,10,-1,-1,-1,-1,-1,-1],"split_conditions":[1E0,1E0,2E3,1E0,2.005E3,1.1316482E4,-1.0554074E5,1.7668132E3,-7.637092E4,-2.0047307E4,-1.10521016E5],"split_indices":[205,95,0,62,0,0,0,0,0,0,0],"split_type":[0,0,0,0,0,0,0,0,0,0,0],"sum_hessian":[9.81E2,9.76E2,5E0,9.71E2,5E0,1E0,4E0,9.65E2,6E0,2E0,3E0],"tree_param":{"num_deleted":"0","num_feature":"212","num_nodes":"11","size_leaf_vector":"1"}},{"base_weights":[2.126259E2,-2.0249188E3,3.121599E5,-4.1179893E3,3.3704112E5,-3.2214812E4,1.9154727E5,-1.5196746E3,8.144264E4,9.803976E4,2.5501455E3,-4.6928777E4,3.3778414E4],"categories":[],"categories_nodes":[],"categories_segments":[],"categories_sizes":[],"default_left":[0,0,0,0,0,0,0,0,0,0,0,0,0],"id":90,"left_children":[1,3,5,7,9,11,-1,-1,-1,-1,-1,-1,-1],"loss_changes":[6.860642E11,6.9404446E11,1.157957E12,6.841421E11,1.1977517E11,1.620081E11,0E0,0E0,0E0,0E0,0E0,0E0,0E0],"parents":[2147483647,0,0,1,1,2,2,3,3,4,4,5,5],"right_children":[2,4,6,8,10,12,-1,-1,-1,-1,-1,-1,-1],"split_conditions":[1E0,1E0,2.01E3,1E0,2.01E3,2E3,1.9154727E5,-1.5196746E3,8.144264E4,9.803976E4,2.5501455E3,-4.6928777E4,3.3778414E4],"split_indices":[64,39,0,103,0,0,0,0,0,0,0,0,0],"split_type":[0,0,0,0,0,0,0,0,0,0,0,0,0],"sum_hessian":[9.81E2,9.75E2,6E0,9.7E2,5E0,4E0,2E0,9.65E2,5E0,4E0,1E0,2E0,2E0],"tree_param":{"num_deleted":"0","num_feature":"212","num_nodes":"13","size_leaf_vector":"1"}},{"base_weights":[5.260403E2,2.7553848E3,-3.103834E5,7.0795984E2,3.3363775E5,-1.0172835E5,-3.1307883E4,-3.311858E2,8.138235E4,1.3260158E5,2.312323E4],"categories":[],"categories_nodes":[],"categories_segments":[],"categories_sizes":[],"default_left":[0,0,0,0,0,0,0,0,0,0,0],"id":91,"left_children":[1,3,5,7,9,-1,-1,-1,-1,-1,-1],"loss_changes":[6.815033E11,6.609616E11,8.103795E10,6.6371715E11,2.4709759E11,0E0,0E0,0E0,0E0,0E0,0E0],"parents":[2147483647,0,0,1,1,2,2,3,3,4,4],"right_children":[2,4,6,8,10,-1,-1,-1,-1,-1,-1],"split_conditions":[1E0,1E0,2.005E3,1E0,2.005E3,-1.0172835E5,-3.1307883E4,-3.311858E2,8.138235E4,1.3260158E5,2.312323E4],"split_indices":[58,198,0,196,0,0,0,0,0,0,0],"split_type":[0,0,0,0,0,0,0,0,0,0,0],"sum_hessian":[9.81E2,9.75E2,6E0,9.7E2,5E0,3E0,3E0,9.65E2,5E0,2E0,3E0],"tree_param":{"num_deleted":"0","num_feature":"212","num_nodes":"11","size_leaf_vector":"1"}},{"base_weights":[5.0283975E2,-1.7002258E3,3.0760128E5,-3.9234492E3,3.0661794E5,1.077355E5,1.8452612E5,-1.4689598E3,8.090388E4,1.5422067E5,1.2605416E4,-1.28342E4,4.920635E4],"categories":[],"categories_nodes":[],"categories_segments":[],"categories_sizes":[],"default_left":[0,0,0,0,0,0,0,0,0,0,0,0,0],"id":92,"left_children":[1,3,5,7,9,11,-1,-1,-1,-1,-1,-1,-1],"loss_changes":[6.6490296E11,6.7021216E11,5.4252877E11,6.7445155E11,5.4457414E11,1.0004487E11,0E0,0E0,0E0,0E0,0E0,0E0,0E0],"parents":[2147483647,0,0,1,1,2,2,3,3,4,4,5,5],"right_children":[2,4,6,8,10,12,-1,-1,-1,-1,-1,-1,-1],"split_conditions":[1E0,1E0,2.015E3,1E0,2E3,2.4366E1,1.8452612E5,-1.4689598E3,8.090388E4,1.5422067E5,1.2605416E4,-1.28342E4,4.920635E4],"split_indices":[166,92,0,102,0,1,0,0,0,0,0,0,0],"split_type":[0,0,0,0,0,0,0,0,0,0,0,0,0],"sum_hessian":[9.81E2,9.75E2,6E0,9.69E2,6E0,5E0,1E0,9.64E2,5E0,2E0,4E0,2E0,3E0],"tree_param":{"num_deleted":"0","num_feature":"212","num_nodes":"13","size_leaf_vector":"1"}},{"base_weights":[8.5540125E2,-9.977863E2,3.631678E5,-3.2100054E3,3.0632716E5,1.4631014E5,1.5527639E5,-1.3325923E3,7.472672E4,2.5214658E4,1.3303911E5,4.4063324E4,9.967198E3],"categories":[],"categories_nodes":[],"categories_segments":[],"categories_sizes":[],"default_left":[0,0,0,0,0,0,0,0,0,0,0,0,0],"id":93,"left_children":[1,3,5,7,9,-1,11,-1,-1,-1,-1,-1,-1],"loss_changes":[6.597094E11,6.658962E11,1.506828E11,6.701833E11,2.8127986E11,0E0,3.9668367E9,0E0,0E0,0E0,0E0,0E0,0E0],"parents":[2147483647,0,0,1,1,2,2,3,3,4,4,6,6],"right_children":[2,4,6,8,10,-1,12,-1,-1,-1,-1,-1,-1],"split_conditions":[1E0,1E0,2E3,1E0,2.01E3,1.4631014E5,2.01E3,-1.3325923E3,7.472672E4,2.5214658E4,1.3303911E5,4.4063324E4,9.967198E3],"split_indices":[44,12,0,55,0,0,0,0,0,0,0,0,0],"split_type":[0,0,0,0,0,0,0,0,0,0,0,0,0],"sum_hessian":[9.81E2,9.77E2,4E0,9.71E2,6E0,1E0,3E0,9.65E2,6E0,4E0,2E0,2E0,1E0],"tree_param":{"num_deleted":"0","num_feature":"212","num_nodes":"13","size_leaf_vector":"1"}},{"base_weights":[1.0857878E3,3.064277E3,-3.212592E5,5.0496836E3,-3.1908225E5,-1.6699246E4,-8.774165E4,1.7645308E3,-7.176749E4,-6.968626E3,-1.1200043E5],"categories":[],"categories_nodes":[],"categories_segments":[],"categories_sizes":[],"default_left":[0,0,0,0,0,0,0,0,0,0,0],"id":94,"left_children":[1,3,5,7,9,-1,-1,-1,-1,-1,-1],"loss_changes":[6.27261E11,6.264924E11,3.1727092E10,6.2636995E11,2.2798349E11,0E0,0E0,0E0,0E0,0E0,0E0],"parents":[2147483647,0,0,1,1,2,2,3,3,4,4],"right_children":[2,4,6,8,10,-1,-1,-1,-1,-1,-1],"split_conditions":[1E0,2.288E1,9.996E1,1E0,2.01E3,-1.6699246E4,-8.774165E4,1.7645308E3,-7.176749E4,-6.968626E3,-1.1200043E5],"split_indices":[54,5,2,60,0,0,0,0,0,0,0],"split_type":[0,0,0,0,0,0,0,0,0,0,0],"sum_hessian":[9.81E2,9.76E2,5E0,9.71E2,5E0,1E0,4E0,9.65E2,6E0,2E0,3E0],"tree_param":{"num_deleted":"0","num_feature":"212","num_nodes":"11","size_leaf_vector":"1"}},{"base_weights":[5.210677E2,-1.596881E3,2.957492E5,-3.7183179E3,2.926018E5,8.62406E3,3.3330372E5,-1.4349784E3,7.141868E4,8.507519E4,2.542762E4,1.4158694E4,9.229788E4],"categories":[],"categories_nodes":[],"categories_segments":[],"categories_sizes":[],"default_left":[0,0,0,0,0,0,0,0,0,0,0,0,0],"id":95,"left_children":[1,3,5,7,9,-1,11,-1,-1,-1,-1,-1,-1],"loss_changes":[6.144953E11,6.102329E11,5.6754766E10,6.148682E11,3.62901E10,0E0,5.0181636E10,0E0,0E0,0E0,0E0,0E0,0E0],"parents":[2147483647,0,0,1,1,2,2,3,3,4,4,6,6],"right_children":[2,4,6,8,10,-1,12,-1,-1,-1,-1,-1,-1],"split_conditions":[1E0,1E0,1.995E3,1E0,3.322E1,8.62406E3,6.753611E-1,-1.4349784E3,7.141868E4,8.507519E4,2.542762E4,1.4158694E4,9.229788E4],"split_indices":[16,203,0,73,6,0,3,0,0,0,0,0,0],"split_type":[0,0,0,0,0,0,0,0,0,0,0,0,0],"sum_hessian":[9.81E2,9.75E2,6E0,9.69E2,6E0,1E0,5E0,9.63E2,6E0,4E0,2E0,1E0,4E0],"tree_param":{"num_deleted":"0","num_feature":"212","num_nodes":"13","size_leaf_vector":"1"}},{"base_weights":[6.944362E2,4.282449E3,-1.7210311E5,-1.4732703E2,4.2645484E5,-6.227988E5,-5.5933348E4,-5.0192453E2,1.107265E5,2.817438E4,2.7303338E5,-4.1418797E4,-1.7577292E5,9.0583417E2,-1.2369229E5],"categories":[],"categories_nodes":[],"categories_segments":[],"categories_sizes":[],"default_left":[0,0,0,0,0,0,0,0,0,0,0,0,0,0,0],"id":96,"left_children":[1,3,5,7,9,11,13,-1,-1,-1,-1,-1,-1,-1,-1],"loss_changes":[6.095768E11,1.8009973E12,1.0123091E12,8.214893E11,2.0153088E12,5.078817E10,4.571256E11,0E0,0E0,0E0,0E0,0E0,0E0,0E0,0E0],"parents":[2147483647,0,0,1,1,2,2,3,3,4,4,5,5,6,6],"right_children":[2,4,6,8,10,12,14,-1,-1,-1,-1,-1,-1,-1,-1],"split_conditions":[5.515E1,4.87049E11,8.284E0,1E0,2.015E3,2.01E3,2.094E1,-5.0192453E2,1.107265E5,2.817438E4,2.7303338E5,-4.1418797E4,-1.7577292E5,9.0583417E2,-1.2369229E5],"split_indices":[1,4,7,69,0,0,6,0,0,0,0,0,0,0,0],"split_type":[0,0,0,0,0,0,0,0,0,0,0,0,0,0,0],"sum_hessian":[9.81E2,9.62E2,1.9E1,9.53E2,9E0,3E0,1.6E1,9.5E2,3E0,7E0,2E0,1E0,2E0,1.5E1,1E0],"tree_param":{"num_deleted":"0","num_feature":"212","num_nodes":"15","size_leaf_vector":"1"}},{"base_weights":[5.971178E2,-1.4892141E3,2.914061E5,-3.4353608E3,7.683557E4,-5.1689574E4,5.3459394E5,3.378738E3,-1.137356E4,3.2359871E4,1.4748944E5],"categories":[],"categories_nodes":[],"categories_segments":[],"categories_sizes":[],"default_left":[0,0,0,0,0,0,0,0,0,0,0],"id":97,"left_children":[1,3,5,7,-1,-1,9,-1,-1,-1,-1],"loss_changes":[5.9623696E11,5.9978016E11,9.681474E11,7.2008453E11,0E0,0E0,5.6449958E10,0E0,0E0,0E0,0E0],"parents":[2147483647,0,0,1,1,2,2,3,3,6,6],"right_children":[2,4,6,8,-1,-1,10,-1,-1,-1,-1],"split_conditions":[1E0,1E0,2E3,2.0591E10,7.683557E4,-5.1689574E4,2.005E3,3.378738E3,-1.137356E4,3.2359871E4,1.4748944E5],"split_indices":[187,97,0,4,0,0,0,0,0,0,0],"split_type":[0,0,0,0,0,0,0,0,0,0,0],"sum_hessian":[9.81E2,9.75E2,6E0,9.7E2,5E0,2E0,4E0,6.93E2,2.77E2,1E0,3E0],"tree_param":{"num_deleted":"0","num_feature":"212","num_nodes":"11","size_leaf_vector":"1"}},{"base_weights":[6.514705E2,-1.1393009E3,3.5079606E5,-3.2412483E3,2.9089388E5,-8.199268E3,1.1149811E5,-1.3135607E3,7.103779E4,1.1790169E4,2.1399478E5],"categories":[],"categories_nodes":[],"categories_segments":[],"categories_sizes":[],"default_left":[0,0,0,0,0,0,0,0,0,0,0],"id":98,"left_children":[1,3,5,7,9,-1,-1,-1,-1,-1,-1],"loss_changes":[6.1614214E11,6.012768E11,2.1590173E11,6.064308E11,9.483245E11,0E0,0E0,0E0,0E0,0E0,0E0],"parents":[2147483647,0,0,1,1,2,2,3,3,4,4],"right_children":[2,4,6,8,10,-1,-1,-1,-1,-1,-1],"split_conditions":[1E0,1E0,2E3,1E0,2.015E3,-8.199268E3,1.1149811E5,-1.3135607E3,7.103779E4,1.1790169E4,2.1399478E5],"split_indices":[138,194,0,209,0,0,0,0,0,0,0],"split_type":[0,0,0,0,0,0,0,0,0,0,0],"sum_hessian":[9.81E2,9.77E2,4E0,9.71E2,6E0,1E0,3E0,9.65E2,6E0,5E0,1E0],"tree_param":{"num_deleted":"0","num_feature":"212","num_nodes":"11","size_leaf_vector":"1"}},{"base_weights":[8.9801825E2,-1.0027672E3,7.599038E4,-2.9115771E3,3.083916E5,-1.1832684E3,7.5178234E4,8.971245E4,3.144911E4],"categories":[],"categories_nodes":[],"categories_segments":[],"categories_sizes":[],"default_left":[0,0,0,0,0,0,0,0,0],"id":99,"left_children":[1,3,-1,5,7,-1,-1,-1,-1],"loss_changes":[5.777565E11,5.7788976E11,0E0,5.7961644E11,1.548904E10,0E0,0E0,0E0,0E0],"parents":[2147483647,0,0,1,1,3,3,4,4],"right_children":[2,4,-1,6,8,-1,-1,-1,-1],"split_conditions":[1E0,1E0,7.599038E4,1E0,4.399653E0,-1.1832684E3,7.5178234E4,8.971245E4,3.144911E4],"split_indices":[201,23,0,38,3,0,0,0,0],"split_type":[0,0,0,0,0,0,0,0,0],"sum_hessian":[9.81E2,9.76E2,5E0,9.71E2,5E0,9.66E2,5E0,3E0,2E0],"tree_param":{"num_deleted":"0","num_feature":"212","num_nodes":"9","size_leaf_vector":"1"}},{"base_weights":[9.541969E2,-9.274917E2,3.0719678E5,-2.815917E3,3.05152E5,1.9658973E5,4.757525E4,-1.1877852E3,6.814612E4,8.840108E4,3.2155E3,-5.495202E3,4.0121344E4],"categories":[],"categories_nodes":[],"categories_segments":[],"categories_sizes":[],"default_left":[0,0,0,0,0,0,0,0,0,0,0,0,0],"id":100,"left_children":[1,3,5,7,9,-1,11,-1,-1,-1,-1,-1,-1],"loss_changes":[5.661655E11,5.655734E11,7.335992E11,5.569044E11,9.299414E10,0E0,4.4364358E10,0E0,0E0,0E0,0E0,0E0,0E0],"parents":[2147483647,0,0,1,1,2,2,3,3,4,4,6,6],"right_children":[2,4,6,8,10,-1,12,-1,-1,-1,-1,-1,-1],"split_conditions":[1E0,1E0,1.995E3,1E0,2.8692E1,1.9658973E5,2.01E3,-1.1877852E3,6.814612E4,8.840108E4,3.2155E3,-5.495202E3,4.0121344E4],"split_indices":[150,164,0,80,1,0,0,0,0,0,0,0,0],"split_type":[0,0,0,0,0,0,0,0,0,0,0,0,0],"sum_hessian":[9.81E2,9.76E2,5E0,9.71E2,